1.640715718269348 -0.911158382892609 0.657954692840576 -0.171667113900185 1.282635569572449 -2.164162874221802 -0.542312324047089 -0.734262406826019 -0.099665723741055 0.397908329963684 -0.370902955532074 0.102911986410618 0.014300813898444 -0.436593264341354 -0.045028973370790 0.701870262622833 -0.411897987127304 0.228905037045479 0.653516173362732 0.552097618579865 -0.855899989604950 -0.411750137805939 -0.259709268808365 -0.741549730300903 -1.142744302749634 0.602763772010803 0.577603697776794 1.666254758834839 -0.846355497837067 -0.254982680082321 -0.011150982230902 0.433053553104401 -0.678418874740601 0.601510107517242 -1.579850792884827
-0.740863144397736 0.569061577320099 -0.859952569007874 -1.335425853729248 -0.946911036968231 1.174591541290283 0.741789638996124 1.164642691612244 0.980174899101257 -1.766254425048828 -2.042319297790527 0.965628385543823 -0.029875671491027 -1.357004404067993 -1.425803542137146 0.715542316436768 -0.951498031616211 0.502352416515350 -1.709264159202576 -1.233581185340881 0.788852095603943 1.117617845535278 -1.615000844001770 -0.584524095058441 -0.501980781555176 -0.209271550178528 2.446774005889893 -0.816810786724091 -0.364732325077057 -1.005621790885925 1.985115408897400 -0.813799381256104 -0.153599545359612 1.780376672744751 -0.081501081585884
-0.028431490063667 2.005265474319458 1.407312273979187 -0.564754486083984 1.329291939735413 0.702188014984131 -0.736524701118469 0.208491027355194 0.580865859985352 -0.392487704753876 -0.408494710922241 -0.167891249060631 0.318817794322968 0.011088997125626 -0.206291109323502 -2.191333055496216 0.836588263511658 2.095378875732422 1.492796778678894 -0.325591176748276 -1.279421567916870 -0.568387508392334 -2.076523542404175 0.867848694324493 -0.551895141601562 -1.208951115608215 -0.648675918579102 0.309448510408401 -1.055457711219788 -0.491628825664520 -0.584354281425476 0.208520889282227 0.230203792452812 -1.946475982666016 -0.057694081217051
-1.131305217742920 -0.409238040447235 -0.666585087776184 1.015581607818604 -0.777911961078644 0.633379101753235 -1.200127124786377 -0.936052262783051 -0.036704394966364 -0.202816575765610 -1.157964229583740 0.548335075378418 1.593920469284058 1.300961256027222 -0.020585756748915 0.508679091930389 0.432831466197968 -0.265418142080307 0.080524809658527 -0.745715439319611 0.437445938587189 0.401631355285645 -1.102930903434753 -0.171986892819405 0.061726368963718 -0.282354086637497 -0.633839488029480 -1.013043999671936 0.014437811449170 1.224128007888794 -0.768341839313507 0.951758027076721 -2.156673908233643 -1.658998012542725 -0.810709357261658
0.509759187698364 -1.370999217033386 -1.191311955451965 -0.729196906089783 0.867030918598175 0.988191723823547 -0.572478652000427 -0.747759222984314 0.993209362030029 -0.445022106170654 -0.388839721679688 -0.038629218935966 -0.461795508861542 -0.688707709312439 2.224674224853516 0.632239162921906 0.980990409851074 0.442141175270081 -0.262231856584549 0.960508108139038 -1.877109408378601 0.493616729974747 -0.185411810874939 -0.245175600051880 -1.043293952941895 0.308098405599594 0.636506319046021 -0.236909866333008 -2.093695640563965 -1.288879513740540 1.189888834953308 0.923953294754028 0.360705435276031 0.691370725631714 -1.701084733009338
0.432394355535507 -1.050323724746704 0.268736362457275 -0.739741206169128 -0.217599481344223 0.273916274309158 -0.678328871726990 -0.413233160972595 -0.139620795845985 0.432322174310684 1.419871807098389 1.601125240325928 0.132721737027168 -0.749080896377563 -0.554355084896088 0.138276726007462 0.725415050983429 -0.138217076659203 -0.012392364442348 -1.875270843505859 -0.444184303283691 -1.421745061874390 0.235224708914757 1.157991766929626 0.643156588077545 -0.436852157115936 2.025369405746460 -0.134331181645393 1.094895243644714 0.766975224018097 -1.037738204002380 0.089361317455769 -0.601786077022552 -0.619886696338654 0.524201512336731
-0.205567389726639 -0.677502155303955 0.455326169729233 0.000035638611735 0.397242993116379 -1.380813479423523 0.357106536626816 0.641875982284546 0.398882210254669 -0.869931519031525 0.500085055828094 -1.642669200897217 -0.033014632761478 -0.703473925590515 0.177186504006386 -0.041261259466410 -0.754491686820984 1.584660768508911 -0.887492120265961 -0.742839753627777 -0.632884323596954 -0.269962817430496 -0.186775401234627 -1.110434293746948 -0.453696548938751 -0.290963947772980 -1.058390378952026 0.999698460102081 1.395002365112305 1.210020899772644 1.270980715751648 1.170033574104309 -0.850131690502167 0.730833888053894 -0.247003331780434
0.079418621957302 2.028976917266846 0.116218231618404 1.272396087646484 0.351057678461075 0.604740321636200 1.705953717231750 -0.375219166278839 0.192051947116852 -0.435288339853287 -0.083004832267761 1.157228708267212 0.789466261863708 -0.423980772495270 -0.827598273754120 0.337875366210938 -0.406943440437317 0.930339634418488 1.596320509910583 1.088670372962952 0.974931240081787 -1.010646343231201 -0.323875159025192 -1.087718248367310 -0.059999339282513 1.763148665428162 0.345092654228210 -3.310734748840332 2.170692920684814 0.284695804119110 1.193580389022827 0.485946387052536 -0.173607856035233 -0.488911211490631 1.207255482673645
-0.421481460332870 1.087705016136169 -1.323767185211182 -1.912750124931335 0.787789106369019 0.099521167576313 -0.243285581469536 -0.522158563137054 0.985054373741150 -1.101975202560425 3.192117691040039 -0.533873736858368 0.375470370054245 -0.978383898735046 -1.314667224884033 0.580864310264587 1.231299400329590 0.926450848579407 -0.257501333951950 0.694978475570679 1.136189937591553 -1.471317887306213 -0.084208011627197 -1.308723330497742 0.904983401298523 -1.288414478302002 0.003314442466944 -1.836602926254272 -1.815393209457397 -1.186594009399414 -2.882246255874634 -0.401724666357040 0.267381250858307 1.766204953193665 1.108421802520752
-0.388053506612778 -0.057461742311716 0.842758357524872 0.340239971876144 0.601861655712128 1.411911368370056 -0.659891486167908 1.139366269111633 0.564416646957397 0.217091768980026 -0.829113364219666 0.963167846202850 2.473340511322021 -0.797326385974884 0.244077518582344 -0.231049880385399 -2.367795944213867 1.638144254684448 0.142991423606873 0.444186538457870 1.266473293304443 -0.575941681861877 -0.033860724419355 -0.381706744432449 -0.392503827810287 -0.415917664766312 -0.592053532600403 -1.997649431228638 -1.224713683128357 0.170589551329613 0.683535337448120 -1.967984437942505 -0.291586369276047 -0.095233194530010 1.989757895469666
-1.557838797569275 1.357839822769165 1.158053874969482 0.886807739734650 0.827984631061554 -0.386500090360641 -1.285463094711304 -0.797423005104065 -0.536750972270966 -0.324039220809937 0.083374470472336 -0.598798990249634 0.664610624313354 1.475481748580933 -1.082212805747986 0.046042062342167 -0.016751779243350 -0.913484156131744 0.703061223030090 0.716896116733551 -0.113572187721729 1.124503850936890 0.055004198104143 0.246911585330963 -0.631552398204803 -0.856036186218262 -0.206826686859131 -0.959627807140350 0.011838452890515 1.217900633811951 -0.253964364528656 -1.075577616691589 1.481910824775696 0.337655335664749 0.636914610862732
-0.218324184417725 -0.859211862087250 0.113067559897900 1.231071710586548 0.298266798257828 0.435672432184219 -0.692897677421570 -1.640953898429871 0.981593430042267 -2.246759891510010 0.674365699291229 0.170278444886208 -0.381348699331284 -0.748792052268982 -0.334434628486633 0.938220322132111 -1.300700306892395 0.373568177223206 1.238735318183899 1.030785441398621 0.171696245670319 1.030417084693909 -0.399604439735413 1.239421844482422 -0.153958007693291 0.754629850387573 -0.365677535533905 1.035277128219604 -1.493278622627258 -1.933506488800049 1.076904535293579 0.376433908939362 -0.733835875988007 -1.797687053680420 0.325033992528915
1.348777770996094 -1.346686244010925 0.539812326431274 -0.626534283161163 0.269297540187836 1.555135488510132 1.046855449676514 0.545197248458862 -0.771296501159668 2.041196823120117 0.269095569849014 -0.587051689624786 0.316547572612762 -0.034401163458824 -0.903731465339661 0.474855571985245 -0.274789690971375 1.008971095085144 -0.239896506071091 0.867117345333099 -0.659882903099060 -0.095293484628201 -2.426386833190918 -1.343664646148682 0.187326669692993 0.329912900924683 1.686205863952637 1.453677296638489 1.029140830039978 -0.507969617843628 -1.190678358078003 -0.062930896878242 -1.162206292152405 0.616334199905396 1.197833061218262
-2.095430135726929 1.263914108276367 -1.441165328025818 -0.571328580379486 0.319766193628311 0.111790984869003 -0.786288261413574 1.192819595336914 -0.934440732002258 -1.778021216392517 -1.122802615165710 1.319514155387878 -0.705180048942566 1.540433049201965 0.683844089508057 0.031519506126642 -0.904865205287933 -0.367958158254623 0.434627741575241 -0.117789283394814 -0.874218761920929 -1.024096369743347 -1.609035611152649 -1.259881138801575 0.710791766643524 0.900590598583221 1.506167531013489 0.444596409797668 -0.877064466476440 0.770845115184784 0.531792998313904 0.998201966285706 -0.841482937335968 -0.736271739006042 0.078390732407570
-1.058928370475769 0.172095268964767 -0.468495577573776 0.234767109155655 0.181143730878830 1.200670480728149 -0.319128245115280 -0.121757663786411 -0.142432123422623 -0.999612927436829 1.407786130905151 -1.057767391204834 -1.552307844161987 -0.647913873195648 -0.226637572050095 -0.421505451202393 0.177961185574532 0.328141748905182 -1.585383534431458 1.468691706657410 -1.877874374389648 1.459312796592712 0.829777359962463 0.340224623680115 0.869993448257446 0.328708916902542 -0.792663931846619 1.208651542663574 1.093558311462402 0.269714921712875 -0.003299172734842 0.111564658582211 -0.063885666429996 -1.059730768203735 0.080071426928043
0.096545197069645 1.210692644119263 0.354566335678101 -0.430897027254105 0.005531971342862 0.167451307177544 -0.092238798737526 -0.100741595029831 -0.406439393758774 0.034446608275175 0.480830162763596 0.037679165601730 -0.287982732057571 0.631100058555603 0.158710226416588 -0.657609879970551 -0.835080742835999 0.499245584011078 -1.832262516021729 -1.137271761894226 1.990017414093018 0.953934073448181 -0.202818840742111 -0.611016273498535 0.225884616374969 -0.365113943815231 0.285188764333725 0.229587867856026 0.385159552097321 1.015309810638428 0.738886237144470 0.144878894090652 -0.953462183475494 -0.207217112183571 0.438215911388397
-0.154443651437759 0.015187328681350 -1.412556767463684 -1.073952198028564 -0.119866356253624 -1.248390197753906 0.725344002246857 1.067336320877075 1.078650474548340 -0.020496454089880 -0.798225343227386 -1.716988563537598 -0.222390830516815 -2.461508274078369 -1.542487263679504 0.233715295791626 -1.090282797813416 -1.110383987426758 1.672972202301025 -0.462288796901703 1.551676988601685 2.289205789566040 -1.308336138725281 0.284335523843765 -2.271705627441406 -1.073462843894958 0.564070105552673 1.296763062477112 0.729121088981628 -0.103757254779339 -0.275241702795029 0.057197514921427 -1.008697152137756 0.887780189514160 -0.583249151706696
1.068807959556580 -1.570715188980103 0.085522182285786 -2.198125362396240 0.910954952239990 -0.037167854607105 -1.129045724868774 -1.110636234283447 -0.162619695067406 -0.688140749931335 -1.203732609748840 -1.368355035781860 -0.674022316932678 0.712054789066315 -1.124680399894714 0.527933418750763 1.708945155143738 -0.419319123029709 -0.369370549917221 -1.887534141540527 -1.121641397476196 -1.494926333427429 0.780804216861725 1.837056756019592 0.453174531459808 -0.273760885000229 -0.460690349340439 -0.287246018648148 2.016172885894775 -0.024177229031920 0.433195978403091 -0.266739547252655 -0.012865517288446 1.613529443740845 -0.239758387207985
-0.652974247932434 -0.719907462596893 1.042600631713867 0.354851067066193 1.013602137565613 1.399961233139038 -1.098921060562134 -0.777212440967560 -1.728627681732178 -1.209382891654968 0.856018483638763 -0.216263860464096 0.863490462303162 -1.119376420974731 0.352589428424835 0.520249605178833 -1.018976330757141 0.593445897102356 0.306926846504211 0.361513376235962 1.194892287254333 -0.719124257564545 -0.856526613235474 1.738078594207764 -1.211753487586975 -0.463617861270905 0.588490962982178 0.815888583660126 0.144259527325630 1.209547042846680 0.090536534786224 -0.809736728668213 0.666399478912354 0.693368434906006 1.631776094436646
-1.166772484779358 1.465419411659241 -1.681924462318420 0.709412813186646 1.166313648223877 1.006052732467651 2.283255338668823 -0.281574457883835 -0.165376797318459 -0.433423966169357 -0.710667133331299 -0.014471220783889 2.293912172317505 -0.767890632152557 0.553388833999634 1.365071177482605 0.452808856964111 1.700340390205383 -0.230169802904129 -0.602431833744049 -0.313754200935364 1.221333742141724 -1.751546859741211 -2.112713098526001 0.886744678020477 0.415626257658005 0.484947681427002 -0.255400389432907 -1.963558793067932 2.007498264312744 -0.202481314539909 0.055960245430470 -0.861924827098846 0.005973792634904 -0.069490708410740
-1.661489963531494 0.255260288715363 -0.468867689371109 -0.599951803684235 -1.455101609230042 0.964106976985931 -0.566392779350281 -0.276935338973999 -0.197420805692673 1.365867137908936 0.801977097988129 0.514876961708069 0.210315644741058 -1.223757386207581 -0.365252912044525 0.355022221803665 -0.109949104487896 -1.741332769393921 -2.908279895782471 -0.798214852809906 0.492571175098419 0.733942627906799 -0.923036038875580 -0.286444425582886 -0.449592560529709 1.608621597290039 -0.606324493885040 1.843683719635010 -0.685020267963409 -0.769112765789032 1.049211263656616 -1.831842541694641 0.179949015378952 -1.733824610710144 0.731725454330444
-1.280072450637817 -0.476328819990158 -0.346370488405228 -0.078720845282078 1.105358839035034 -0.497479826211929 0.428370267152786 -0.006059409119189 0.376859635114670 0.149635106325150 1.212136745452881 1.574580788612366 -0.397032409906387 1.552083134651184 -0.306417196989059 0.329713702201843 0.751728475093842 0.593860626220703 0.230837464332581 1.335001945495605 1.811921954154968 0.649835526943207 0.919561445713043 0.903811156749725 0.335367560386658 -0.561697125434875 -0.245908275246620 -1.095204591751099 -0.720613420009613 -0.018494680523872 -0.755422234535217 -1.544165134429932 -0.617445707321167 -0.317247539758682 -0.122201517224312
-0.013411844149232 -0.633839249610901 -0.545828700065613 -0.741425573825836 -0.030014781281352 -0.224792450666428 0.638747334480286 0.088910512626171 1.354269742965698 0.429630428552628 0.472658902406693 0.190489873290062 -1.201992750167847 0.039573363959789 0.394551038742065 -1.628644585609436 -1.000703692436218 -1.210846304893494 -1.113255739212036 1.148671507835388 -0.058454278856516 0.452279031276703 -1.610139250755310 -0.675334811210632 0.887320160865784 1.816228508949280 -1.340057253837585 -1.174572706222534 -2.042648553848267 -0.898464560508728 1.610115051269531 1.636652708053589 -0.497826963663101 0.389033496379852 0.260508686304092
0.078998565673828 -2.017802953720093 -1.502544760704041 -0.517326891422272 -0.522161424160004 -0.291544377803802 1.223817229270935 0.035397101193666 1.961860775947571 0.581926941871643 0.027495471760631 0.330002427101135 -0.648407578468323 -0.169739633798599 0.804822027683258 0.647410690784454 -1.234402775764465 -0.128977015614510 0.878040969371796 1.098767042160034 -0.536989629268646 0.015543486922979 -0.071574158966541 -1.055069327354431 0.637340843677521 0.805263042449951 0.100665427744389 1.348880171775818 -0.057448837906122 0.922729790210724 -0.243346258997917 -0.494440227746964 -0.965752542018890 -1.793194532394409 1.570781588554382
1.005737662315369 0.669456124305725 -0.934713065624237 0.994289398193359 0.389598816633224 1.653394222259521 -2.026861429214478 0.834985554218292 0.630947172641754 -0.225808084011078 -0.186584576964378 1.657201051712036 0.850553810596466 1.250707626342773 -1.121298432350159 -1.355564236640930 0.275864899158478 -0.448147386312485 0.536345064640045 0.666857838630676 -1.227431058883667 -2.447648763656616 -0.827836513519287 -0.169206917285919 0.482749819755554 -0.373742163181305 2.929236650466919 -0.232914462685585 1.289868831634521 0.385967254638672 -1.631953120231628 -0.353550404310226 1.373154401779175 2.342538356781006 -0.329823195934296
1.517946243286133 0.472753167152405 0.514572083950043 -1.039018273353577 -1.727243304252625 0.564424812793732 0.271193355321884 0.694105803966522 -0.319157093763351 1.709344625473022 1.783106684684753 -0.103744946420193 -1.384229063987732 0.742265224456787 -0.203121617436409 -1.367682933807373 1.221532702445984 2.091583967208862 -0.334795176982880 -1.127602458000183 -0.620738685131073 -0.516711950302124 1.780807018280029 -0.306384027004242 2.076531410217285 -0.842249691486359 0.320656985044479 1.302037119865417 0.058988794684410 -0.010715583339334 -1.331002235412598 0.097689434885979 -1.228660225868225 0.892420709133148 -0.224404171109200
0.755526125431061 0.792933404445648 0.520607948303223 -0.609638988971710 1.121039509773254 1.088335990905762 -1.416937589645386 -0.361062347888947 -0.986296117305756 -0.789990901947021 0.376288563013077 1.985049605369568 0.885220587253571 -0.401676118373871 0.569455027580261 0.336489737033844 -0.677241265773773 1.109104275703430 1.025003433227539 -1.316734194755554 0.311387777328491 -1.435354828834534 1.292151927947998 -0.384772986173630 -2.567395925521851 -0.338866680860519 -1.883385300636292 0.048305064439774 -1.583693385124207 0.505546212196350 0.349851459264755 -2.182188272476196 0.688352763652802 0.581969976425171 0.379739403724670
-0.480467289686203 0.671895503997803 0.894104480743408 1.938545346260071 0.267102509737015 -1.611499667167664 -0.229638949036598 0.085196137428284 0.976404845714569 0.150659292936325 0.900953412055969 0.209224730730057 -0.988222599029541 -0.964771389961243 0.724477589130402 -0.036218240857124 -1.946433186531067 -1.282535672187805 -0.020236417651176 -1.700228691101074 1.533355116844177 -0.043568361550570 -1.180659770965576 1.741899490356445 -0.022411061450839 0.160169884562492 1.480606555938721 -1.119525551795959 -0.411511540412903 1.874953389167786 -0.950900435447693 -0.438250660896301 0.932392477989197 0.221952855587006 0.026971876621246
0.417546808719635 -0.914047360420227 -1.610310077667236 1.321040272712708 0.095658682286739 1.160893678665161 -0.826557159423828 -0.461668401956558 -0.749349117279053 -0.859851837158203 -0.483071208000183 0.031446136534214 -0.005004396196455 -2.232200860977173 0.615218341350555 -0.136392638087273 1.148419857025146 0.815694630146027 -1.217648506164551 -0.691823482513428 -1.141675114631653 -1.447757244110107 -0.009773309342563 -0.833338260650635 0.865455687046051 0.022867958992720 0.010327262803912 1.961371183395386 -0.877301633358002 0.334293901920319 -1.281363606452942 0.128169417381287 1.638147115707397 -0.438691675662994 2.038795709609985
0.685795724391937 0.292824953794479 -2.377105712890625 0.072177156805992 0.268521845340729 -0.504930019378662 0.763949513435364 -1.437003850936890 -1.583222389221191 -0.441034346818924 1.864636301994324 -0.445235162973404 -0.533390462398529 0.398946911096573 0.411076426506042 -0.667268812656403 -0.084927402436733 0.618018448352814 0.042382400482893 0.640866100788116 0.755244195461273 0.648639678955078 -0.461837112903595 -0.165095314383507 -0.314248770475388 -0.421933561563492 0.098982945084572 1.083728671073914 -0.731238424777985 0.219331473112106 1.571216702461243 0.272449582815170 -1.390068292617798 0.311656594276428 -0.251548022031784
0.034470919519663 -0.215095177292824 -1.655068159103394 0.445752322673798 -1.913700580596924 0.832153320312500 -0.499926656484604 -0.702054858207703 -0.762312471866608 -0.445040345191956 0.943443119525909 -1.027794480323792 -0.047199673950672 0.229408681392670 -1.054463863372803 -0.716786265373230 0.680461108684540 0.253687441349030 -1.016396880149841 0.313484132289886 -0.047530684620142 -0.476604551076889 0.391006588935852 0.550995051860809 -0.638744890689850 0.730574786663055 2.233367681503296 -0.015119267627597 0.940409898757935 0.603241145610809 -0.527850329875946 1.099997520446777 -0.188463300466537 0.376132786273956 -0.681155204772949
1.014085292816162 -0.589588403701782 0.789752960205078 0.758968532085419 0.955545186996460 0.597676813602448 1.158873081207275 -0.588989555835724 1.675289034843445 1.828503727912903 -0.475607067346573 -0.191145271062851 2.322712898254395 -0.031271696090698 -1.040194869041443 0.670597374439240 -0.613306403160095 -0.349370718002319 0.291370332241058 -1.041388154029846 -1.062166810035706 1.141918778419495 1.118634104728699 0.520117700099945 0.085094816982746 -1.443040251731873 -0.923114478588104 0.689074218273163 1.352976679801941 -0.449862688779831 -0.836807966232300 -0.522046208381653 -0.688935697078705 -1.675192832946777 0.855467796325684
0.472719818353653 -0.908250272274017 -0.032658290117979 0.251257300376892 0.153455391526222 -0.006326312199235 -1.002233624458313 0.251631736755371 0.847890853881836 0.166882038116455 -0.666241705417633 -1.737269878387451 1.369634151458740 0.261237949132919 -0.383711516857147 -0.220097899436951 0.855391621589661 -0.008395079523325 -2.006980419158936 1.342194795608521 -0.616804540157318 -1.793296813964844 -0.022643163800240 1.047980904579163 -0.275859951972961 0.292919069528580 -0.103522703051567 0.483415126800537 -1.080167531967163 -0.081672966480255 -0.502082169055939 -0.918452322483063 0.218081966042519 -0.565920054912567 1.088426232337952
0.049579400569201 -0.235697925090790 -0.963284432888031 0.881869077682495 -1.485503196716309 0.426235169172287 1.334324479103088 -0.843029022216797 -0.516842484474182 0.211513549089432 0.205162659287453 -0.472184866666794 -0.036262024194002 0.104782417416573 0.195061981678009 -0.859893858432770 -0.784978508949280 -0.631676733493805 0.513447940349579 -0.706496000289917 1.349885344505310 -0.718976140022278 0.109975434839725 -0.843918859958649 0.929938852787018 -0.891396403312683 -1.745368480682373 0.024272818118334 -0.474329829216003 0.467996597290039 1.225908637046814 0.304408073425293 -0.594534218311310 0.408364236354828 -1.429211854934692
-0.141622439026833 -0.254848152399063 -0.048857975751162 1.415735125541687 2.014505624771118 -0.361059367656708 0.009917315095663 -0.134041801095009 0.791429102420807 2.266572475433350 0.368115067481995 0.873563051223755 1.699124455451965 1.808857321739197 -0.353964865207672 -0.378242224454880 -0.206022948026657 0.377533465623856 0.945962190628052 0.110846564173698 -0.924855232238770 0.308339059352875 0.123806461691856 -0.751711130142212 -0.688394546508789 0.595555305480957 -0.889535069465637 0.739709794521332 1.526428818702698 -0.123206287622452 -0.423523306846619 -1.177935719490051 1.088809370994568 -1.621151447296143 -0.316379219293594
-0.138953074812889 -1.021948933601379 0.074059732258320 -0.818577885627747 1.120457410812378 1.794437050819397 -0.655430018901825 0.532871305942535 -1.856141805648804 -1.334718227386475 -0.129845410585403 0.525542318820953 0.558207094669342 -0.885110378265381 0.538845658302307 0.579754889011383 -1.018269181251526 -0.160075828433037 0.366999387741089 0.515231966972351 -0.000734693370759 -0.590595245361328 -0.484854936599731 -0.089287444949150 1.082545757293701 -2.577454090118408 -0.583402752876282 1.030751943588257 0.185135886073112 -1.312777996063232 0.186358690261841 -1.710011720657349 -0.576051950454712 1.528226375579834 1.067281842231750
1.449563980102539 1.280999302864075 -0.674698650836945 -1.148083567619324 -0.559686660766602 -0.279172301292419 -1.859506964683533 -1.575175523757935 -0.163115516304970 -0.927959442138672 -1.376894116401672 0.546392142772675 0.761833131313324 -0.150415003299713 0.692415654659271 0.218796864151955 -0.950287520885468 -1.505459666252136 -0.757613420486450 0.006093716248870 0.719523131847382 -0.267130851745605 1.235518336296082 -0.484073579311371 -0.578655600547791 0.503769814968109 2.060055255889893 -0.408412963151932 -0.435966372489929 1.203929781913757 -1.419817328453064 1.695010423660278 -0.782236039638519 -1.157471776008606 -1.576171755790710
-1.557660698890686 1.400154232978821 -1.289571166038513 0.113702468574047 -0.864302337169647 0.070106536149979 1.065876722335815 -0.777697920799255 -1.154893875122070 0.754864692687988 -1.457788228988647 0.473379105329514 0.159517943859100 -0.575911819934845 0.611012399196625 1.569794416427612 2.141200542449951 0.596650898456573 1.457443356513977 -1.131714820861816 -1.982234120368958 0.019534949213266 -0.692725062370300 -0.399341940879822 -0.997601509094238 -0.411546587944031 0.655958831310272 1.382281422615051 1.068456172943115 0.168835237622261 1.496037364006042 -0.865258634090424 -0.140960320830345 0.921124100685120 -0.581268966197968
-0.070015832781792 0.002665206324309 -0.002765863435343 0.166145294904709 -0.524824857711792 2.124478816986084 -0.234215646982193 0.900455296039581 -1.395577073097229 0.198557332158089 0.252104014158249 -0.077375382184982 -1.581589221954346 -2.263098716735840 0.185437679290771 -0.752470910549164 0.674522161483765 0.442878454923630 1.142072439193726 1.132423639297485 -0.408406943082809 -0.703344881534576 0.144600167870522 -0.543537318706512 -1.501104354858398 0.543897867202759 0.206239908933640 -2.190176248550415 0.753645420074463 0.480319380760193 -0.583379805088043 0.808068811893463 0.155931055545807 1.202761173248291 0.731227457523346
-0.751599609851837 1.538340449333191 1.027997136116028 -0.413443595170975 -0.580462872982025 -1.767265200614929 -1.916138529777527 1.484845161437988 -0.315182060003281 -0.574971258640289 -0.798686623573303 0.188608855009079 0.855701982975006 0.122919581830502 0.473710894584656 0.147114008665085 0.522095382213593 -0.050331249833107 0.429454892873764 -1.477128505706787 0.744458198547363 0.533268451690674 1.306792616844177 -0.474910289049149 -0.370679765939713 -1.135835289955139 -0.058690287172794 0.667743146419525 -0.051299136132002 -0.738678455352783 -0.616932570934296 0.385758936405182 0.148746207356453 -0.777314901351929 1.823815107345581
0.947001755237579 0.411997139453888 -0.220524445176125 -0.575783073902130 0.256677091121674 1.159865021705627 0.290019422769547 -0.516570210456848 0.966310143470764 -1.797950983047485 -0.155068516731262 -0.414199560880661 -2.873708486557007 0.217022061347961 -0.671411871910095 -0.535842180252075 1.756815314292908 -0.365814030170441 -0.161287084221840 -1.184685707092285 0.692953228950500 -1.593941569328308 1.326261162757874 0.324644953012466 0.075010366737843 -1.003639578819275 -0.030949750915170 -0.171250149607658 0.096620187163353 -1.519612073898315 -0.554394125938416 -2.151957035064697 -1.048232793807983 -0.591339528560638 0.512036144733429
1.762249827384949 -0.374467521905899 -1.304765462875366 -1.344555616378784 0.615059673786163 0.607382297515869 0.361897617578506 -0.534598886966705 -1.141739010810852 -1.519556522369385 -1.010144352912903 -0.370158374309540 0.352767288684845 -0.809938192367554 0.687320530414581 -1.667030692100525 -1.991832375526428 0.253406614065170 0.347031563520432 -0.107736766338348 1.228325247764587 2.028784990310669 -0.144521921873093 0.460634410381317 0.072290405631065 3.135317325592041 -0.561461031436920 -0.755603909492493 -0.204849600791931 0.292875409126282 0.004597416147590 0.883905351161957 0.801467716693878 -0.420682817697525 0.665550529956818
-1.404876470565796 -1.187294602394104 -0.461374789476395 2.086710214614868 0.171188846230507 0.337492734193802 0.035076227039099 2.491520404815674 -0.788775146007538 1.673056483268738 1.503036499023438 1.421389698982239 -0.374364197254181 0.816764235496521 -0.035279948264360 0.545055568218231 0.418711066246033 -0.770040094852448 -1.616999149322510 -0.748115360736847 -0.046343512833118 -0.422899395227432 -0.425441563129425 0.705204606056213 -0.477423071861267 -0.186626836657524 -0.119848214089870 0.839066922664642 0.170740634202957 -0.490138709545135 0.443787097930908 -0.668169021606445 1.579938650131226 0.325992554426193 0.006067037116736
1.780854225158691 -0.621809899806976 -0.407755792140961 1.015074729919434 -0.119016818702221 -0.339347481727600 -1.053782224655151 -1.100364565849304 1.098152875900269 -0.267226517200470 -1.471361637115479 -0.553259491920471 -0.577388346195221 -1.292059183120728 -0.194344252347946 -1.339818954467773 -0.455288171768188 -0.541746556758881 0.308233410120010 -0.739456176757812 -0.568881273269653 0.143469393253326 -0.471874386072159 -0.962395131587982 -1.507539868354797 0.493313580751419 -0.260359704494476 0.127690628170967 1.112872481346130 0.676711499691010 -0.032456923276186 -2.206663131713867 -0.677771627902985 0.115062825381756 0.585143387317657
-0.277458310127258 -0.479328215122223 -0.102047428488731 0.825759947299957 0.913901925086975 -0.152892947196960 -0.473896712064743 -2.042040348052979 0.483316570520401 -1.258739948272705 -0.227885857224464 -1.205125331878662 0.920483112335205 -1.638531684875488 0.110630564391613 -1.507912874221802 -0.654856026172638 0.936091780662537 -1.165597081184387 -0.602766573429108 -0.884292125701904 -0.210829734802246 0.142012730240822 0.223182857036591 -0.025282807648182 1.227609038352966 -0.658368527889252 -0.525338113307953 0.082397043704987 -2.067245244979858 -1.941638350486755 -0.488966822624207 0.829760313034058 -0.895967185497284 0.616045534610748
-0.227711156010628 -0.146401822566986 -1.083791017532349 -1.311769247055054 0.354350209236145 0.596207082271576 0.403100669384003 1.191340208053589 0.297686964273453 -1.043211936950684 -1.614000797271729 1.044263243675232 0.841881394386292 -1.203144907951355 0.346062004566193 0.651546120643616 1.873036980628967 -0.040458582341671 0.222811579704285 0.879803955554962 1.628743767738342 -0.329551786184311 -0.264177829027176 0.775958478450775 0.302659839391708 -1.130780100822449 -1.540331840515137 0.246514260768890 0.321738541126251 -0.395350754261017 -0.717885076999664 0.197601720690727 0.210513353347778 -1.662132501602173 -0.027860885486007
0.648027718067169 0.100721083581448 0.206528589129448 0.937326312065125 0.334624111652374 -0.544241428375244 -0.097802266478539 -0.767053186893463 2.193321704864502 -1.024635195732117 -0.624946594238281 0.172731861472130 0.168545663356781 -0.752954602241516 0.378386586904526 -0.745856344699860 -1.169215083122253 0.939854979515076 -0.450540482997894 -1.928546071052551 0.558911681175232 -0.192632749676704 0.785600423812866 0.294187515974045 0.506924867630005 -0.080908782780170 -1.343866109848022 0.561278223991394 0.615144252777100 0.934193193912506 0.893797457218170 -0.846981585025787 0.947741210460663 0.474419057369232 0.165750950574875
1.045306801795959 1.467681765556335 -0.041018001735210 0.394650548696518 0.525533616542816 -0.557924687862396 -1.536352276802063 0.471941649913788 1.011508226394653 -0.508856713771820 -0.727985680103302 -0.032216034829617 -1.067414283752441 0.449554443359375 0.793691098690033 -0.270258992910385 0.376628994941711 -0.790109157562256 -0.233991280198097 2.270254850387573 2.443278551101685 -0.662035226821899 0.738667309284210 -0.514639973640442 -0.854614734649658 0.730410397052765 -1.687400937080383 -0.535967648029327 0.588497519493103 0.154487803578377 -0.858794331550598 0.538289308547974 1.212848305702209 -0.900266408920288 -0.743213057518005
1.080139398574829 -0.906486988067627 1.161185145378113 1.758671641349792 -1.084428787231445 -0.536356687545776 1.198277592658997 -0.504868388175964 1.856975793838501 -0.033782292157412 -1.174911618232727 0.255154222249985 -0.097760245203972 0.619134664535522 0.395509243011475 -1.109159708023071 0.884640991687775 0.488371610641479 0.516137421131134 -0.137832403182983 -0.195494323968887 1.550743699073792 1.322090029716492 -0.261946946382523 0.757100164890289 0.566758036613464 1.622001290321350 0.538547635078430 -0.506310999393463 -0.160170227289200 -0.020335745066404 1.023641824722290 0.258033305406570 0.905919432640076 -1.086076736450195
0.941848933696747 -0.951124548912048 2.228717803955078 0.243917465209961 0.187010303139687 -0.130901023745537 -1.144553542137146 1.607383489608765 0.589119255542755 -2.126235961914062 -0.879594326019287 -0.123273760080338 -0.746305823326111 0.966271638870239 0.021883485838771 -0.604649245738983 -1.469802141189575 0.603114545345306 -2.066990375518799 -0.863838434219360 -0.125061690807343 -0.458345204591751 -0.927363395690918 -0.092419475317001 0.925741434097290 0.221107944846153 1.121646881103516 -0.279121369123459 -1.501564621925354 -0.267080336809158 0.100043773651123 0.894527196884155 -0.251838773488998 -0.011245711706579 -0.931841075420380
-0.609789788722992 -1.683527827262878 0.583436429500580 0.278846234083176 0.515987455844879 -1.298639416694641 -0.159318923950195 0.910485625267029 0.039853285998106 0.564688265323639 0.821381509304047 -0.386851638555527 -0.485536813735962 -0.225115850567818 0.920392453670502 -0.270242244005203 -0.235454559326172 0.449926227331161 -1.031280636787415 -1.048025250434875 -0.714043915271759 0.550787866115570 -0.347147524356842 0.409818083047867 -1.933339953422546 1.057990431785583 -0.378706485033035 -1.060641050338745 -0.305193781852722 1.080272078514099 1.341914653778076 0.592295646667480 -0.926831066608429 0.408900350332260 0.655929863452911
-0.388683468103409 -1.038475513458252 2.216634750366211 0.497656971216202 -0.870904564857483 -0.295352101325989 -0.658427298069000 -0.250830680131912 -0.567429840564728 0.012425514869392 -1.295964598655701 -0.523985624313354 1.204868912696838 1.133607149124146 -0.669347822666168 -0.047019626945257 1.907513737678528 -0.069485910236835 0.794234216213226 0.178792923688889 0.368061631917953 3.284603118896484 1.565780043601990 -0.867909193038940 0.098695077002048 1.864764571189880 0.665313005447388 2.358502388000488 -0.874521791934967 -1.125513195991516 0.447434931993484 0.319916069507599 0.153252452611923 0.565894722938538 0.279765814542770
1.330100655555725 0.098583787679672 1.336795926094055 0.718399822711945 0.180284738540649 1.625797510147095 0.630115807056427 -0.180295556783676 -0.153813019394875 -0.763241946697235 -0.348215639591217 1.574538111686707 -1.080611109733582 0.808017551898956 1.372161626815796 0.463589996099472 1.286148428916931 -1.486711621284485 1.320457696914673 -0.237441867589951 1.163065195083618 -0.868312299251556 0.661155104637146 -0.682908117771149 -0.794524550437927 -2.008194446563721 1.065030455589294 -0.617589533329010 0.942783772945404 -1.493935585021973 -1.013713598251343 0.854519963264465 -0.667256057262421 -1.165472388267517 0.230105534195900
-0.542094826698303 0.242696568369865 -0.107002556324005 1.085737943649292 0.660408437252045 -0.212879776954651 -0.907115340232849 -0.207788497209549 -0.126596868038177 0.391511440277100 -0.078543953597546 -0.436588764190674 -0.566694021224976 -0.428673177957535 0.401989519596100 -0.695266067981720 1.713402986526489 0.270206332206726 1.239750504493713 1.509109020233154 0.779817223548889 -1.057448506355286 1.308665156364441 -1.558435797691345 -0.989534676074982 0.283468931913376 0.076717995107174 0.098990291357040 -1.910536050796509 0.036200039088726 -0.017059803009033 -0.000917829049286 -0.150714829564095 2.137720346450806 1.165151596069336
-0.285876542329788 -0.499664336442947 1.146885991096497 0.476251125335693 -1.097791671752930 -0.795094251632690 0.883681416511536 1.177369475364685 0.953944802284241 -0.413651257753372 1.034480333328247 1.073191642761230 -0.082930080592632 -0.702096104621887 0.617222726345062 -0.333357155323029 1.082633018493652 -0.077869452536106 -0.503620505332947 0.585209548473358 -0.140363186597824 -1.537164330482483 0.606281518936157 0.120905235409737 -0.424336731433868 1.093349456787109 1.706153392791748 0.111919343471527 -0.753820061683655 -0.972315609455109 -0.069148831069469 0.402674436569214 0.720059633255005 -1.421741366386414 -0.126906245946884
-1.681323647499084 0.368206560611725 -1.742022752761841 1.130780816078186 0.844730794429779 0.177007704973221 -0.653651595115662 1.003036737442017 0.418450325727463 0.149982780218124 -0.824543833732605 -0.439104914665222 2.125733852386475 0.373727768659592 0.679343461990356 -0.124184243381023 0.875033915042877 -0.246040105819702 -1.677848815917969 0.511199414730072 1.262443184852600 -0.279268354177475 2.086494684219360 -0.653727710247040 -1.288640499114990 0.827020049095154 1.525953412055969 0.440066337585449 -0.580433249473572 0.276659697294235 -0.719166517257690 -0.052713748067617 -0.640970706939697 -0.165704652667046 -2.144375085830688
-0.207557633519173 -1.064088225364685 -0.143766000866890 0.580384671688080 2.298722267150879 1.117314934730530 0.562033653259277 0.985246419906616 2.350883960723877 0.107643604278564 0.058457124978304 -0.529842972755432 0.333744525909424 0.903608262538910 0.802140951156616 -1.019290685653687 0.387398064136505 0.813027381896973 -0.818794846534729 2.166276216506958 -2.533158779144287 -1.008016347885132 -0.716300308704376 -0.349704951047897 -0.660573661327362 -1.611782908439636 -0.794590890407562 0.904160022735596 0.589377880096436 -0.541127920150757 -1.995639681816101 1.318243503570557 -0.045483067631721 0.780055224895477 -0.015800056979060
0.597518920898438 -1.252240300178528 0.071957111358643 -1.173510313034058 -0.336256653070450 -0.483875125646591 1.426220417022705 -1.678254842758179 -0.120517194271088 3.084783554077148 -1.012298345565796 0.273736327886581 -0.735672593116760 2.021888494491577 1.653074145317078 -1.434606194496155 1.410555601119995 0.766648173332214 0.088976927101612 -0.705893278121948 -1.109295248985291 -0.333185076713562 -0.013730694539845 0.884556889533997 0.809739530086517 1.664994001388550 0.192559689283371 -0.773682713508606 -0.660904347896576 -0.052178304642439 1.342955470085144 -0.210033163428307 -2.239524364471436 -0.094810187816620 -0.574227333068848
0.449144780635834 1.182970404624939 0.818713486194611 -0.469317436218262 -0.847712755203247 0.937878310680389 -0.540389239788055 2.106087207794189 0.157814368605614 -0.119692407548428 0.292202979326248 1.154618501663208 2.370783805847168 0.417398452758789 1.778056621551514 -1.624964475631714 0.795246064662933 -0.836207270622253 0.882914721965790 0.313831508159637 0.550393640995026 -0.441658765077591 -0.240523114800453 1.186096549034119 0.496694296598434 -1.312204480171204 1.269245624542236 -0.528842747211456 0.805107533931732 -0.108363188803196 -0.126902014017105 -0.567677915096283 1.888378143310547 -0.245123520493507 -1.073784708976746
-0.275398164987564 0.364357143640518 1.385564446449280 0.185887873172760 0.295901745557785 0.042720634490252 -0.678280949592590 0.192423522472382 0.559846222400665 0.599024534225464 0.233934625983238 -1.548779845237732 -1.190138816833496 0.955559849739075 -1.041200995445251 -1.230001926422119 1.157116889953613 0.009320934303105 0.511502623558044 -0.302717268466949 0.163278385996819 -0.203020811080933 1.763704061508179 -0.744621038436890 -0.560968935489655 -1.231442809104919 0.156227901577950 -0.888739347457886 0.110045127570629 -0.569286346435547 -0.669653594493866 -0.600850224494934 -0.959894239902496 0.362248986959457 -0.000688042840920
-1.319943785667419 -0.950444161891937 -0.043546866625547 -0.048083975911140 -0.009967311285436 -0.577573418617249 0.393998146057129 -1.055051565170288 0.702068269252777 -0.821416497230530 0.880586862564087 1.389473438262939 -1.869326233863831 -0.179383248090744 -1.562106728553772 -1.112079620361328 0.025911111384630 1.313889384269714 0.648096323013306 -2.409886837005615 0.146363824605942 1.190257430076599 1.525691986083984 -1.545911908149719 0.401812136173248 1.554453730583191 2.165278434753418 0.817572116851807 -2.359617471694946 0.990331828594208 1.737302064895630 -0.769224464893341 0.647766828536987 -0.296405553817749 0.254878997802734
-0.648177146911621 -0.254277914762497 0.670448482036591 0.027119273319840 0.962467610836029 -0.346504062414169 0.149605751037598 -0.499428838491440 -0.362091302871704 -0.712077140808105 0.003135710721835 0.485200494527817 1.432222962379456 0.556040346622467 -0.995308160781860 -1.481842279434204 0.700205147266388 3.019111633300781 -0.838530480861664 -1.160630106925964 -1.230195164680481 0.372633725404739 -0.229627594351768 -0.107931405305862 -0.977015674114227 1.309005260467529 0.894089162349701 0.127395257353783 -0.229340001940727 0.525786578655243 1.034241318702698 0.650433123111725 1.723179340362549 0.516111731529236 -0.740858554840088
0.547182142734528 -1.260540008544922 0.647220313549042 0.679174602031708 -0.032631978392601 -0.339088618755341 -1.015073180198669 0.053288266062737 -0.077467791736126 -0.644901096820831 -1.572647213935852 1.092756271362305 0.343924343585968 -0.988311648368835 -0.915781557559967 1.153772950172424 -0.222655877470970 0.067937724292278 -0.309653550386429 -0.238898962736130 1.701100945472717 1.038971543312073 -1.770743608474731 -0.520230591297150 -1.719061493873596 0.170200318098068 -0.489956706762314 1.192342877388000 1.375997543334961 0.003876234637573 -1.321656107902527 0.082556702196598 1.454520344734192 -1.313040256500244 -0.195353791117668
-1.255842447280884 0.808022379875183 1.636389017105103 0.798317909240723 -1.509526133537292 2.016026973724365 0.240839168429375 -1.128213047981262 0.398710906505585 1.965548157691956 0.705234467983246 0.487892836332321 1.181384325027466 0.508890211582184 -1.350194215774536 -1.781068325042725 0.774514496326447 0.701177060604095 1.179167032241821 -0.746966660022736 0.782281041145325 -0.650384068489075 0.517345905303955 1.036611437797546 -0.677645504474640 1.322892189025879 0.551906347274780 0.294249117374420 1.791119575500488 0.412752926349640 -1.432835817337036 -0.015535279177129 0.532836377620697 0.195367574691772 -0.067514538764954
-0.076804429292679 -0.880695998668671 -0.013498320244253 0.182972267270088 1.526828527450562 0.159975692629814 0.214660346508026 -0.311008483171463 -0.949466109275818 -0.349711894989014 0.551385462284088 -0.415393352508545 0.336456000804901 -1.502706050872803 -0.219416275620461 -0.151888534426689 0.090731754899025 -1.111886978149414 -0.429105222225189 0.188252508640289 0.337390124797821 0.913508653640747 -0.246255710721016 1.743975758552551 -0.806796431541443 -0.539391875267029 0.205303609371185 0.027305867522955 -0.137094855308533 -0.176965892314911 0.401754617691040 3.558959245681763 -0.138345047831535 -1.771151900291443 0.369258671998978
0.662290275096893 1.483010888099670 -0.036253497004509 0.284164726734161 -0.190319880843163 -1.654132723808289 -0.598046600818634 0.569869041442871 -1.307587265968323 -0.741074323654175 -0.443869262933731 -2.019338130950928 0.251174658536911 0.428056687116623 0.163467034697533 -1.380625963211060 0.577478766441345 -0.646743535995483 0.740263581275940 -0.489422351121902 0.604898691177368 0.801254570484161 0.879478275775909 0.012657547369599 0.004890118259937 -0.340298324823380 -0.020418621599674 0.977614223957062 0.011559431441128 -0.219384461641312 -0.572075784206390 -0.413625925779343 -0.069532193243504 1.424631118774414 -0.073876507580280
-0.109876140952110 -0.754093706607819 -1.150052189826965 -0.714682817459106 0.698663592338562 -0.461535036563873 1.063123703002930 -0.778988480567932 -0.477217942476273 -0.555435121059418 0.810953378677368 1.890620350837708 0.058420673012733 -0.183946713805199 -0.572465777397156 0.602519452571869 2.242009401321411 0.596640467643738 -0.492196470499039 -0.732930600643158 -0.897320926189423 1.122461080551147 -0.255868136882782 0.575149476528168 1.927952527999878 0.203228563070297 0.112936064600945 1.441721796989441 0.213439270853996 0.918592214584351 -1.029260158538818 -0.658295869827271 0.621575236320496 1.911655664443970 -1.224785804748535
-0.268006384372711 0.018560236319900 -0.771226942539215 -0.022471910342574 -0.085760064423084 1.460163831710815 0.339276880025864 0.645607650279999 -0.928772807121277 -0.267210751771927 0.017071468755603 1.472763895988464 -0.201239287853241 1.149278998374939 1.170538544654846 0.505220472812653 -3.102319002151489 -0.053806092590094 -0.373723089694977 -0.014278951101005 0.629398941993713 -0.147732526063919 -1.932421803474426 0.307058751583099 0.627588927745819 -0.500497639179230 -1.661096811294556 -0.647287487983704 0.671245396137238 0.438913822174072 -0.370651632547379 -0.166448876261711 -0.123171001672745 0.570860147476196 1.897067070007324
0.224616408348083 -0.900907754898071 -0.818738639354706 -0.539983510971069 -1.012638807296753 -0.394043773412704 -1.301321506500244 0.140965297818184 0.800757408142090 0.309778690338135 1.294308900833130 0.824174940586090 -0.528299152851105 0.585020959377289 -0.598812639713287 1.029719471931458 -0.865337491035461 1.136252641677856 0.635760664939880 -0.748645186424255 0.595953941345215 -0.241989627480507 -0.911162197589874 -0.837234377861023 0.149238139390945 0.252519249916077 -0.790318429470062 -0.842011213302612 -0.451952904462814 -1.506520867347717 -0.717055022716522 -0.529569685459137 0.884049654006958 0.232122823596001 -0.533822238445282
-0.021851126104593 -0.104801416397095 -1.381680250167847 -0.013262094929814 -1.490330338478088 -0.818273603916168 0.296872466802597 -0.747958242893219 -0.436912983655930 0.418695628643036 0.406622499227524 -0.144313260912895 -1.186581134796143 -0.458069324493408 0.675451636314392 -0.773141503334045 -0.343884676694870 0.685278534889221 0.789743304252625 -0.539123177528381 1.237970232963562 0.698395252227783 3.047752141952515 -1.247933745384216 -0.397760480642319 0.977208673954010 -0.606432735919952 -1.060525178909302 -0.742185831069946 0.740607917308807 1.138538360595703 1.314726710319519 -0.818374872207642 -1.228489398956299 1.189278721809387
1.143327713012695 -0.045698888599873 1.745999574661255 -0.671347796916962 0.597205102443695 0.743394315242767 -0.062620788812637 -1.074344754219055 -1.739478111267090 1.178359627723694 0.444668948650360 -0.968037903308868 -1.193722128868103 -0.324761837720871 -0.340865135192871 0.576401650905609 0.911342620849609 -0.003437645733356 -0.795800507068634 1.906119346618652 0.600427031517029 0.114468663930893 -0.458171844482422 -0.192840591073036 -0.624893248081207 -0.335733473300934 -0.413283616304398 2.880179405212402 -1.028573632240295 0.255267471075058 0.881709337234497 0.822574973106384 -0.057655900716782 0.249005332589149 0.707776427268982
-0.410772919654846 0.711472034454346 0.382193356752396 -0.435261517763138 0.751473546028137 -1.834558963775635 -0.609155893325806 0.445593327283859 0.626450777053833 1.858079910278320 -1.099266290664673 0.565483808517456 0.512855350971222 0.925343751907349 0.722844719886780 2.006914138793945 0.040620956569910 0.172645568847656 0.746591627597809 1.500848054885864 -0.590372562408447 -0.943863451480865 -0.649328708648682 0.541552901268005 -0.215436950325966 -0.628002166748047 0.282435715198517 -1.677370429039001 1.160883784294128 0.122406870126724 -1.147313117980957 -0.206406205892563 0.337610006332397 -0.460312515497208 -1.032186985015869
1.615065813064575 0.136073857545853 -0.678543865680695 -1.777147173881531 1.343961477279663 -1.346863031387329 0.849572420120239 -0.447206020355225 -0.684396147727966 -0.337729960680008 0.926622867584229 -1.463938832283020 -2.159221649169922 -0.147207215428352 0.037973821163177 0.088803470134735 0.475856363773346 0.445790529251099 -1.168810963630676 -0.190706536173820 -1.757538914680481 1.429602146148682 -0.010751235298812 -0.307522565126419 -0.122532106935978 -0.110894180834293 1.693006038665771 0.910705864429474 -2.220941066741943 -0.087665058672428 -0.391176134347916 -2.087445974349976 1.176885247230530 -0.234569072723389 0.715121388435364
0.167711749672890 1.677296400070190 -0.393635123968124 -0.023404808714986 1.415747284889221 -1.398386597633362 0.803913295269012 -0.505260109901428 0.341479718685150 0.020776920020580 -0.630049407482147 0.198526531457901 -0.465854942798615 1.702970504760742 0.258806765079498 -0.086749941110611 -0.415936350822449 1.180152893066406 -0.087309591472149 1.198597431182861 -0.790823459625244 -2.102082967758179 0.095504291355610 -0.298287600278854 0.516300261020660 -0.997433423995972 0.374227762222290 -1.361888408660889 1.213003277778625 -0.736902534961700 2.022108554840088 0.609928429126740 0.494126707315445 0.895942389965057 0.465703994035721
-0.218575730919838 0.259031027555466 -1.021174430847168 1.020082354545593 -0.120483838021755 -0.227346748113632 0.096659153699875 1.159046649932861 -0.282363384962082 -2.382702589035034 -0.085198238492012 0.026855237782001 -0.392826795578003 1.206212639808655 -2.266454935073853 2.057538747787476 0.399316877126694 0.808232903480530 -0.714431703090668 0.021148316562176 0.108633831143379 -0.485280334949493 -1.038228631019592 -0.723276853561401 0.035851616412401 -0.518675327301025 0.238888725638390 -1.685592293739319 -0.716127395629883 0.935007989406586 -0.131309360265732 -0.211678624153137 -1.643894076347351 -0.596742749214172 -1.242276549339294
-1.385747790336609 -0.401058763265610 -1.240126729011536 -0.550420165061951 -1.260819673538208 -0.633643984794617 -0.974892139434814 0.844515323638916 0.199689656496048 1.449959635734558 -0.252342492341995 -0.559971272945404 -0.353706359863281 1.306547641754150 0.003759729210287 -0.212774395942688 1.517360806465149 0.234528243541718 -0.443627327680588 0.162976905703545 1.732839465141296 -0.860542595386505 -0.757208347320557 -0.773898780345917 0.832069039344788 -0.342307925224304 1.551709771156311 0.838317215442657 -0.154928475618362 0.407708108425140 -0.213491797447205 1.064877510070801 0.445356756448746 0.949116051197052 -0.611587584018707
-2.916118621826172 1.310550212860107 -0.422688871622086 -0.922658801078796 -1.198422193527222 -0.330862462520599 1.010969519615173 1.255761861801147 0.845500409603119 1.442373394966125 0.516608238220215 -0.836994767189026 -0.640530526638031 -0.608654201030731 0.830847024917603 -1.502900719642639 -0.683752000331879 -0.751808524131775 0.903927862644196 0.598450362682343 -1.308696985244751 -0.088589280843735 -0.441613525152206 -0.285460412502289 1.195267677307129 0.495773047208786 1.611722469329834 -0.343963980674744 -0.315574824810028 0.415359646081924 -1.251823186874390 0.942716240882874 -0.421260714530945 -1.761211633682251 -0.445602625608444
-1.711574673652649 -0.911172032356262 0.033210441470146 -1.784861445426941 1.008916616439819 -1.557862758636475 1.875720024108887 -0.331698715686798 0.885653138160706 -0.056797154247761 -0.369834452867508 0.944695770740509 0.811706602573395 -1.800886273384094 1.130626797676086 0.298306226730347 -0.389513880014420 1.582817196846008 -0.633442819118500 0.638492226600647 -0.253200143575668 1.382986545562744 -0.986817300319672 -1.582099914550781 -2.088355779647827 0.660420656204224 0.191538959741592 -1.698748111724854 -0.987406253814697 -0.234899789094925 -0.316612094640732 0.055708076804876 0.599930107593536 1.265261530876160 0.289871692657471
1.564252018928528 -0.791652977466583 0.173493772745132 0.269379794597626 0.479373306035995 -0.117335721850395 0.702780425548553 -0.041304662823677 -0.944196224212646 0.351473510265350 -0.010026197880507 -2.274824619293213 0.545887947082520 0.246536776423454 1.163886189460754 0.173130691051483 1.038313031196594 -0.351069241762161 0.635819613933563 0.680345714092255 -0.936963975429535 -0.643379509449005 0.111912786960602 0.795551300048828 -0.119469285011292 -0.207653358578682 -0.721679091453552 0.290300577878952 0.190840706229210 0.299051910638809 1.417435050010681 -0.877495765686035 1.810373425483704 -0.450995713472366 -0.608858883380890
0.142060697078705 0.193809062242508 -0.065101824700832 -0.595283091068268 0.693249166011810 0.922024548053741 -0.906931400299072 -0.080882713198662 -1.029796123504639 0.658759832382202 0.690082132816315 -0.456992119550705 0.257664263248444 0.426419764757156 -0.014377483166754 0.713697612285614 0.856849730014801 0.585897743701935 -1.316555976867676 0.757108867168427 -0.060450494289398 0.137145102024078 1.953278660774231 -0.805640041828156 -0.053051620721817 -0.159632816910744 -0.716737806797028 -1.007464170455933 0.866979062557220 -0.362899035215378 -0.147662922739983 -0.369587153196335 0.169905394315720 -0.247704952955246 -1.880712151527405
-1.599539041519165 -0.747595548629761 0.493681132793427 1.745052337646484 1.057855725288391 0.050970304757357 0.568930208683014 -0.462646961212158 -1.678642868995667 -2.253097534179688 -0.531890094280243 -0.799539327621460 1.077484369277954 1.179736495018005 0.811049342155457 1.120126247406006 -0.832600176334381 0.934414505958557 1.612414479255676 0.141114413738251 0.707986831665039 0.853393793106079 -0.546772539615631 -0.606590330600739 -1.066715598106384 -0.373659670352936 2.011731624603271 -0.129083737730980 0.373137325048447 0.184223398566246 1.137594819068909 -0.661270797252655 -1.598401546478271 -0.747706890106201 -0.520683407783508
0.286039292812347 0.776198804378510 -1.580559611320496 -0.034420467913151 -0.653979599475861 0.631425976753235 0.558747172355652 0.976342558860779 -2.782033920288086 0.173535421490669 1.109517097473145 -0.400476515293121 -1.688861608505249 0.829135596752167 -0.377779364585876 0.363533228635788 -1.537882804870605 -0.718767404556274 -0.102119095623493 0.161756470799446 -0.076676554977894 0.233660578727722 -0.357605069875717 -1.480085730552673 -0.724281013011932 -1.471533298492432 1.282840132713318 -0.462000906467438 -0.336456865072250 -0.260097205638885 0.871708035469055 -0.022124681621790 0.749736666679382 -1.021898150444031 1.149067878723145
1.061333894729614 2.766463041305542 1.510206460952759 1.168351173400879 2.219385147094727 -0.171044617891312 1.077969551086426 -0.529065072536469 0.328870922327042 -0.224862068891525 -0.344769984483719 0.070866107940674 -0.747395098209381 0.894684314727783 -0.869185626506805 1.090770363807678 1.962261676788330 0.691650271415710 0.755683183670044 -0.707074701786041 -2.732315540313721 1.805718779563904 0.547328948974609 0.181064575910568 0.266661524772644 -1.637032985687256 -0.698538422584534 -0.455884367227554 -0.673031449317932 0.791711211204529 0.512342453002930 0.945143818855286 -0.166700720787048 -1.774060487747192 0.420737981796265
0.656841397285461 0.209181621670723 0.769583940505981 0.343225896358490 0.664126455783844 0.053783144801855 -0.716643393039703 0.038745034486055 1.860077261924744 1.101680636405945 -1.393596053123474 0.588710963726044 -0.139307245612144 0.621966242790222 -0.512739002704620 -1.164924263954163 -0.313491672277451 -0.735061526298523 0.050806075334549 -0.333733052015305 -1.517980575561523 0.398390352725983 -0.688209652900696 -0.767628967761993 -0.522184610366821 0.675327062606812 -0.332495123147964 -0.207691311836243 -0.900410056114197 0.837637007236481 -0.878274679183960 -0.685638725757599 1.799472332000732 0.333787441253662 -1.002780437469482
0.392228484153748 -0.574922680854797 1.121091961860657 -0.436066687107086 1.965060114860535 1.092527031898499 1.392555832862854 -2.349439620971680 1.816056966781616 0.539608299732208 -1.580267786979675 0.691992402076721 1.417619109153748 0.890863120555878 1.525017261505127 1.069332957267761 -0.693128228187561 0.366543710231781 1.011696696281433 -1.331351518630981 -1.650489568710327 1.771053194999695 1.161616206169128 1.108585715293884 0.933138191699982 0.039855714887381 0.980395257472992 0.179848089814186 0.068838030099869 -1.195108652114868 0.456018239259720 -0.271208047866821 1.968555331230164 -1.264235258102417 0.003420342924073
0.774645209312439 2.010327816009521 0.782973825931549 1.438736915588379 -1.170595884323120 -0.695266485214233 -1.229564428329468 -0.107057251036167 -2.098641395568848 -0.871017336845398 0.209769681096077 1.508756041526794 -0.531064093112946 -0.711354851722717 0.210296720266342 -0.381152212619781 1.728945851325989 1.121692061424255 0.343073308467865 -0.858052790164948 1.414335846900940 -1.251054525375366 -0.392963409423828 0.259970486164093 0.662948668003082 -1.348718523979187 -0.255144834518433 -0.849449813365936 1.430523276329041 -0.773808598518372 0.517323911190033 0.217460572719574 -1.078764677047729 -0.445305317640305 -0.232546970248222
0.416610032320023 1.509288191795349 0.118749037384987 0.797566413879395 0.459783971309662 0.075214929878712 -0.904192149639130 0.878279983997345 -0.655048847198486 -1.922849059104919 0.291058093309402 0.914475142955780 0.740721404552460 0.540561020374298 0.561959207057953 0.077367961406708 -0.112570330500603 -0.572042405605316 -0.277767241001129 0.440128594636917 0.751628875732422 0.871543645858765 1.087403893470764 -1.005696415901184 -0.397880107164383 0.925473272800446 -0.605387449264526 0.052843172103167 -0.457280188798904 0.333691507577896 -0.728888511657715 -0.508399665355682 -0.686400055885315 0.950746476650238 -0.338180422782898
0.015803290531039 -0.280947387218475 0.843347668647766 -1.350720882415771 -2.222530126571655 1.019880652427673 0.792107284069061 -0.226521238684654 0.567426979541779 1.138444066047668 0.558953642845154 -1.333761453628540 0.481536388397217 -1.358043670654297 1.879972934722900 -0.090440399944782 -0.293156027793884 0.015027076937258 1.318474173545837 0.876486659049988 0.038001216948032 -0.116657592356205 -1.943603157997131 0.600412368774414 0.605176270008087 -0.520289242267609 0.638445198535919 -0.126113265752792 -0.182950377464294 0.993453443050385 0.441583842039108 1.712856411933899 -1.172415733337402 0.326499819755554 0.567939639091492
1.674968123435974 -0.478324919939041 -2.045870065689087 0.046953521668911 -0.382509738206863 2.745538949966431 -1.145113110542297 -0.856075227260590 -0.884197771549225 -0.645392060279846 -0.984274029731750 0.139977440237999 -0.476009547710419 0.658878982067108 1.833944797515869 -2.605074644088745 1.855570197105408 1.428628802299500 0.159094378352165 -0.187178343534470 1.990536928176880 -0.657639443874359 0.060536406934261 -0.222638949751854 0.406073540449142 -0.060405567288399 0.117671445012093 -0.172797277569771 0.627148926258087 1.144622802734375 -0.884092271327972 -0.606949567794800 -0.633104383945465 0.670966863632202 0.277696818113327
1.336309313774109 0.081285215914249 -0.362264901399612 -0.932951569557190 1.340196609497070 -0.623837828636169 0.891961693763733 0.843800604343414 -1.317228436470032 -1.364391922950745 0.009111569263041 0.186221256852150 -0.602582812309265 0.966410517692566 -1.318746447563171 -0.291993468999863 -0.594028234481812 1.526206254959106 0.498711079359055 0.641902983188629 0.402296125888824 -1.493711352348328 -0.035754319280386 0.415525734424591 -0.571824312210083 0.102714739739895 -0.802553653717041 0.672237634658813 0.140212386846542 -0.046322036534548 -0.815836191177368 -0.547231554985046 -1.040059685707092 -1.031041979789734 0.393777340650558
1.698008656501770 -1.225208997726440 0.236306026577950 -0.373007059097290 -0.321267008781433 -1.502959132194519 1.133861184120178 -0.205835714936256 0.803150296211243 -0.097858205437660 -0.088513925671577 -0.017982622608542 0.850239753723145 0.494108945131302 0.472959190607071 1.075619697570801 1.187418699264526 0.653316855430603 1.969698309898376 0.339148104190826 1.104474186897278 1.836809396743774 2.138966798782349 -1.790901541709900 -1.467399954795837 -0.461118429899216 -1.718023538589478 0.699956715106964 -0.326194286346436 0.431461125612259 -1.402464270591736 1.037732958793640 -0.770982563495636 -0.636921107769012 -0.235832542181015
-1.408644676208496 -0.490108877420425 -0.420831888914108 -0.377431333065033 -0.143969580531120 -0.032881554216146 -0.600642263889313 2.843878746032715 0.621061503887177 0.339170128107071 0.465324640274048 -0.656674265861511 -1.267543196678162 0.945780694484711 -1.097741365432739 -0.821702241897583 -0.994361460208893 0.745220601558685 -1.684648752212524 -0.551525890827179 1.839452981948853 1.226472020149231 0.420156687498093 1.172229409217834 -2.344555854797363 0.128730356693268 0.611828744411469 0.913250625133514 -0.528245151042938 0.124226965010166 0.600441694259644 -0.804386079311371 -0.852569401264191 0.692217588424683 -0.491633325815201
0.533754587173462 -0.711489796638489 0.596528828144073 -0.491359174251556 0.865778148174286 -1.397748947143555 -1.345852613449097 0.851742506027222 0.161207765340805 0.807568430900574 0.624224245548248 0.773560285568237 1.955598711967468 -0.771285653114319 0.716159999370575 0.543802440166473 -0.043755672872066 -0.199732676148415 -1.549795627593994 -1.568018674850464 0.173843190073967 0.182390809059143 1.254171013832092 0.330816060304642 -0.500403881072998 -1.594693899154663 0.936686396598816 -0.924628317356110 0.675755321979523 -0.136280819773674 0.130167528986931 0.204451128840446 1.090233325958252 1.026926636695862 1.109305262565613
1.103896021842957 2.047266721725464 0.792843222618103 -0.441094815731049 -0.337866187095642 -0.096683271229267 0.985176205635071 -0.812165021896362 -0.268095314502716 -1.196776747703552 -1.770839571952820 -1.399391174316406 -1.194706201553345 0.256322592496872 -0.177350088953972 -1.170928239822388 0.643137276172638 0.964446663856506 1.144461274147034 -1.267073392868042 0.646369993686676 0.151195496320724 -1.053019046783447 0.386055529117584 -0.543535947799683 -0.085402905941010 -0.896940827369690 -1.464458107948303 -0.213528409600258 0.354225695133209 0.629009962081909 -0.018734546378255 0.837530732154846 -0.203405931591988 -0.158129855990410
-2.647606134414673 -0.898172676563263 1.703943490982056 0.296146303415298 -0.255446612834930 -0.400771826505661 -0.245995715260506 1.357803106307983 0.643018066883087 1.900184750556946 1.920387625694275 0.024899512529373 0.668908238410950 -0.877457976341248 0.392283588647842 -0.670529782772064 0.961382687091827 -0.394981652498245 -0.804495751857758 0.282320737838745 -0.326162248849869 0.075521849095821 1.135390400886536 0.588495910167694 0.226657047867775 -1.888901591300964 2.125543117523193 0.632478058338165 0.482222974300385 -0.306537359952927 -0.079373732209206 -1.853143453598022 -0.137749463319778 -0.460711717605591 -0.050060946494341
-0.586949825286865 -1.049043655395508 1.285102009773254 1.102120161056519 0.305524200201035 0.969357907772064 1.269148588180542 0.886769413948059 1.459333777427673 0.686442971229553 -0.008132413960993 -0.003178740385920 -1.468879103660583 -1.469612836837769 0.056309960782528 0.328543961048126 0.910564780235291 1.581831812858582 1.642307400703430 1.411415457725525 -0.885509312152863 -0.067750409245491 -0.037793695926666 0.052599832415581 0.346889555454254 1.622902989387512 0.028421379625797 -0.141038686037064 0.144623845815659 0.712440133094788 -0.169422104954720 -0.412956714630127 -0.323874920606613 1.179069995880127 -0.480753719806671
-1.317404031753540 -0.065065354108810 -0.510693967342377 0.704805672168732 -3.191734075546265 -0.112057857215405 0.829095602035522 -0.139340430498123 0.199614524841309 0.671159744262695 -0.638952672481537 0.327871352434158 0.301766425371170 -1.502394199371338 -0.459173530340195 1.497122287750244 -1.166547894477844 -1.743367671966553 1.596940159797668 -0.634964585304260 0.487303465604782 0.663183093070984 -0.444341570138931 0.745956122875214 -0.406144112348557 0.206961378455162 -1.242228627204895 -0.753473877906799 -1.000275492668152 0.907394051551819 -1.076177239418030 -0.581737756729126 -1.024748682975769 -1.935476303100586 0.866084218025208
-0.284567505121231 -0.152369484305382 0.233028367161751 0.101397342979908 0.080883160233498 -0.133901730179787 0.436300337314606 1.509243726730347 0.347340285778046 0.750334262847900 -0.384564340114594 -0.278286784887314 1.105440139770508 0.036956105381250 -1.521798133850098 0.222990229725838 -0.114070475101471 -0.426527589559555 0.411795288324356 -0.435148149728775 0.499723821878433 -0.255992919206619 -2.870900630950928 -0.206625863909721 0.255278944969177 0.040983378887177 -1.140548229217529 -1.237198948860168 -0.073501512408257 -0.461842566728592 0.578607976436615 -0.181350126862526 -0.558310508728027 0.297909528017044 0.104522019624710
-1.663870453834534 -0.786762416362762 0.085466675460339 -1.475450396537781 -1.366420745849609 -0.365612357854843 -0.728626132011414 0.322167277336121 0.871950030326843 -0.510930716991425 1.078895926475525 0.083972923457623 1.130552887916565 -1.682839632034302 -0.779366075992584 -1.523557662963867 1.082542538642883 -1.377451181411743 -1.753276467323303 -0.273139208555222 1.259869456291199 0.247721895575523 -0.056708000600338 -1.232046008110046 0.683191895484924 1.156350731849670 -0.644406020641327 0.343870878219604 1.334511876106262 -0.763034105300903 1.025223255157471 -2.176520347595215 0.562459290027618 -0.457893371582031 -1.635578751564026
-0.868241071701050 0.713397204875946 -0.268431067466736 0.646991610527039 0.572077453136444 -0.156502664089203 -0.502389848232269 -0.403099954128265 -0.095304049551487 0.162120088934898 0.171343341469765 -0.250460982322693 0.706419706344604 1.302219867706299 -1.542357802391052 -0.976469039916992 1.783056855201721 -1.124035596847534 -2.002802848815918 2.140021324157715 -0.069188870489597 0.344751447439194 0.705737531185150 -1.040426969528198 0.180940359830856 0.051467400044203 0.983564496040344 0.733223855495453 -1.051917195320129 -0.391045928001404 -0.406133025884628 1.043336391448975 -0.154002681374550 -0.014951325021684 2.294216871261597
1.085797309875488 0.515135109424591 -0.902527630329132 0.343290328979492 0.594487130641937 1.546357631683350 1.721450686454773 0.856981515884399 0.752892911434174 -0.704755187034607 -1.234255194664001 -0.157068416476250 1.182735919952393 -1.690436959266663 1.083381891250610 1.736775398254395 -0.573581576347351 -1.122282981872559 -1.296955108642578 -1.446192622184753 -0.969023942947388 -0.296442419290543 -1.171369194984436 1.619231820106506 0.888131439685822 -0.276045918464661 -0.744790911674500 -0.898241400718689 -1.214737653732300 0.734177529811859 0.859114766120911 0.366230666637421 -0.629296123981476 -0.711275041103363 -0.924626946449280
1.768673658370972 0.719364285469055 0.562211930751801 0.167231723666191 0.094195030629635 -1.057970523834229 0.713133513927460 1.364940881729126 -0.466712296009064 -1.952691316604614 0.419011116027832 -0.139305144548416 -0.170068755745888 -0.197994410991669 1.324211120605469 1.406666755676270 -0.046881448477507 -0.783044695854187 -0.003583611221984 1.227304100990295 -0.773471176624298 1.073770880699158 0.602126181125641 -0.600831866264343 -0.346295922994614 -0.136088266968727 -1.653507351875305 0.063526287674904 -0.652772605419159 2.087747573852539 -1.124916434288025 0.639956295490265 -0.448309600353241 0.239449977874756 0.149605244398117
0.316436856985092 1.032013535499573 -0.865013599395752 -0.231598347425461 -1.425076842308044 -0.228685975074768 -0.474009484052658 -0.894606530666351 1.390423178672791 0.565610229969025 -0.256023764610291 -1.095595717430115 -0.434069067239761 -0.841133594512939 -0.751934826374054 2.169705152511597 1.595922827720642 0.679935991764069 -0.446494549512863 -0.662052869796753 -0.598437130451202 -0.831655859947205 0.875972509384155 1.151919245719910 0.012965615838766 0.890837848186493 1.479679226875305 0.561843395233154 -0.948605418205261 -1.068885087966919 -1.416251301765442 0.144905671477318 -0.609721004962921 -1.141495108604431 0.988410413265228
-1.906003236770630 0.610710859298706 -0.280493795871735 0.885696649551392 -1.051220297813416 1.276154398918152 -0.255143254995346 0.326600521802902 -1.082590222358704 0.427498310804367 1.122757792472839 0.240896582603455 -0.204677775502205 0.388097226619720 -1.356932401657104 0.807243525981903 0.025771979242563 -0.768583536148071 -1.338623404502869 -1.327244162559509 -0.687228858470917 -0.141384378075600 -0.492844879627228 -0.107297182083130 0.853199481964111 -1.008590459823608 -0.386663913726807 -1.678297400474548 0.073718413710594 0.029115162789822 0.208857327699661 0.891401052474976 -1.056198239326477 -0.703652322292328 0.791341602802277
0.576780378818512 0.664067625999451 1.359961152076721 -1.542227625846863 0.792878866195679 1.392964243888855 0.168557912111282 -0.664831101894379 0.765919148921967 -1.456260204315186 -1.542214751243591 0.199978113174438 -0.555182158946991 1.593549847602844 0.442365586757660 0.463146209716797 -1.356838345527649 0.098940297961235 0.408654242753983 -1.252406239509583 -0.178002163767815 0.744036436080933 1.979466676712036 1.141667604446411 0.085329525172710 1.871309638023376 0.334715187549591 0.862787604331970 0.538226664066315 1.055594205856323 0.624714434146881 0.399365782737732 0.119884990155697 0.688160419464111 -1.194787144660950
-0.840370714664459 -0.120791003108025 0.267207741737366 1.170178413391113 -1.530865430831909 0.775078237056732 0.557248830795288 0.768641829490662 0.391228675842285 -0.611507117748260 -0.259173601865768 -1.066985487937927 0.381205558776855 -1.150390982627869 -0.032343357801437 0.943020105361938 -1.638840913772583 0.109551452100277 -0.444971233606339 -0.355097979307175 0.571187376976013 -1.453301906585693 0.144476443529129 0.286221563816071 0.412907004356384 0.131659373641014 -0.265995383262634 0.558584749698639 -0.359869539737701 1.745230078697205 -1.929340958595276 0.231881201267242 -1.268042325973511 2.792404413223267 0.656693577766418
0.775298476219177 -0.177306592464447 0.538403630256653 1.240464091300964 0.308616191148758 -0.726823508739471 -0.515803217887878 -0.374556273221970 1.092007160186768 1.206096053123474 -1.063016891479492 1.343213081359863 1.077143311500549 -0.294700235128403 0.368723690509796 -1.696525931358337 0.974410593509674 0.071516707539558 -0.707302331924438 0.058035716414452 1.142274379730225 0.493490487337112 0.755599856376648 0.175158634781837 0.648602664470673 -0.681027472019196 0.163510814309120 -0.814432561397552 0.785963952541351 0.625454723834991 -0.060945227742195 -0.366305112838745 2.440897464752197 1.172237753868103 0.685304522514343
1.621835708618164 0.182663545012474 -1.062476158142090 0.199272423982620 -0.865990281105042 0.472858011722565 -1.146687030792236 -0.300768196582794 1.148828864097595 -0.092051200568676 -1.366570949554443 -0.140524193644524 -0.676699876785278 0.347233057022095 1.462457299232483 1.196889162063599 2.274924516677856 0.316899895668030 -0.418449878692627 -0.889640152454376 0.057643145322800 -1.088028669357300 -0.039213385432959 -0.756141543388367 -0.687610149383545 -0.735380530357361 1.049173116683960 -0.791722595691681 -0.285874187946320 -0.211601927876472 0.798973083496094 2.201181173324585 -1.507125139236450 0.496773809194565 -0.464924156665802
0.049466002732515 0.982801675796509 1.601473689079285 0.266035377979279 0.527673006057739 0.402798563241959 -1.644135355949402 -0.378373652696609 0.237951874732971 0.234925657510757 -0.222294256091118 1.473024249076843 1.148583889007568 0.976881563663483 0.331270545721054 -0.821272313594818 -0.387133836746216 0.927223742008209 -0.041612733155489 -0.947676420211792 1.673921227455139 1.638013243675232 0.280210047960281 0.040460217744112 0.353877604007721 -0.560673773288727 1.058800101280212 -0.427813172340393 0.967485964298248 -1.074483752250671 0.985714256763458 1.490836381912231 -1.122512459754944 -2.255117654800415 -0.855110526084900
2.983878135681152 -1.199540972709656 1.093086600303650 0.811449825763702 -1.416617393493652 -0.243343800306320 -0.930292725563049 0.541002213954926 -0.689188003540039 0.665080904960632 -1.613187193870544 -0.582143783569336 0.394496649503708 0.718139171600342 -0.934499919414520 0.614033222198486 0.524250268936157 0.850348591804504 0.876587688922882 -1.788802623748779 -0.339544177055359 -0.281263053417206 -0.235955044627190 0.156930997967720 0.099403321743011 -1.148514032363892 -0.665587723255157 -2.357873439788818 1.107680439949036 0.825210630893707 -1.053326368331909 2.420568466186523 0.452932327985764 1.283714413642883 -0.249539583921432
-1.301686882972717 -0.848859846591949 -0.124545402824879 -0.816302120685577 -0.509795069694519 0.235446661710739 -0.982815742492676 -1.783242344856262 -0.238609060645103 0.528811872005463 -0.018412344157696 0.321369439363480 0.073718532919884 0.301535367965698 0.417063474655151 -1.732872366905212 1.382334947586060 -0.908237397670746 0.545903444290161 -0.420241534709930 -0.797126054763794 -1.213475108146667 0.988912761211395 0.798275351524353 0.571148037910461 0.294525057077408 2.066287994384766 -0.678893387317657 -0.371636658906937 0.147181138396263 1.547316789627075 -1.138606667518616 -0.272550731897354 -0.028612142428756 -0.090972796082497
0.240203812718391 -1.406236410140991 0.489442408084869 -0.870779335498810 -0.378860116004944 -1.716891765594482 -0.938855528831482 -0.375260889530182 -1.495993733406067 -0.378651589155197 -1.373027801513672 1.891086935997009 -0.394174337387085 -1.286140322685242 -1.857751727104187 1.382119297981262 0.702668011188507 0.526449263095856 2.285770654678345 0.868756771087646 -0.617275476455688 0.184501290321350 0.709951400756836 -2.007484912872314 -0.456164240837097 0.473450422286987 -1.107115507125854 -1.168005347251892 2.187697172164917 -0.269678890705109 0.877321481704712 0.184813112020493 -0.742463111877441 -0.372095644474030 0.429575026035309
0.171497836709023 -0.294674664735794 -1.135817527770996 -0.757033944129944 -1.289486885070801 -0.414312034845352 1.445439696311951 0.940476000308990 1.208395361900330 1.247635602951050 0.580430030822754 0.532606124877930 -0.105285525321960 -0.016570411622524 0.184374675154686 0.374185353517532 -0.104728855192661 -0.005882806610316 0.129484638571739 -0.995021998882294 2.791327714920044 -0.384962260723114 -0.793193042278290 1.373413085937500 0.678054809570312 -0.300100535154343 -2.005072832107544 -0.339526265859604 -0.552835881710052 -0.996677041053772 0.046825211495161 -0.333368837833405 -0.424927085638046 -2.726942062377930 -0.435297936201096
-0.509583950042725 1.163579821586609 -1.865186095237732 -0.248275190591812 -0.409104913473129 1.293030142784119 1.605715394020081 -0.620182514190674 -0.653332054615021 0.029789479449391 -0.107012249529362 -0.559971392154694 -1.313144207000732 1.067416548728943 -0.921970009803772 -1.637386679649353 0.872272431850433 -0.408973515033722 -0.093907169997692 -0.558352887630463 -0.970010817050934 1.670871734619141 1.436898708343506 0.151442527770996 0.288987725973129 1.264481782913208 1.444257497787476 1.141518115997314 -0.649617850780487 0.226524189114571 0.053116090595722 -0.754802584648132 -0.000405328406487 0.828163921833038 -0.433667600154877
0.575322151184082 0.584889471530914 -0.549720585346222 0.594943940639496 -1.453224182128906 -0.357207387685776 0.895776093006134 -0.358395785093307 1.138666749000549 1.302783966064453 0.334859639406204 -0.255584359169006 1.524565815925598 -0.315086454153061 0.299581766128540 -0.336877673864365 0.303926318883896 1.118922829627991 -1.624127149581909 0.649638473987579 -0.256075620651245 1.039801239967346 0.804692447185516 -0.086508795619011 0.128521859645844 0.377007246017456 0.602444767951965 -0.866818070411682 -1.082646250724792 1.526442885398865 -0.973142802715302 0.154345527291298 0.799035727977753 -0.884338319301605 -0.024556307122111
-1.656639933586121 0.228420823812485 2.748178720474243 -1.187090158462524 -1.085208535194397 0.836989402770996 -1.466932177543640 0.401936650276184 -0.843190431594849 -0.861463129520416 -0.928102254867554 -0.566021323204041 1.374782204627991 -1.654010176658630 -2.362858772277832 0.536755979061127 -1.876015305519104 -0.381764590740204 0.088036902248859 0.116114296019077 0.166113033890724 1.569398283958435 -0.594334542751312 -0.780669569969177 1.346008062362671 1.287431359291077 -0.121520161628723 -1.981296658515930 0.661421120166779 0.114674881100655 0.140255197882652 -1.071807026863098 1.512661933898926 1.072742700576782 -0.106000646948814
