-2.971828937530518 1.706951022148132 -0.430498957633972 -2.282022476196289 0.523657321929932 0.000376340845833 -1.203863620758057 3.528305768966675 0.443386971950531 0.584821283817291 0.840654134750366 0.550986945629120 0.386295527219772 0.912430882453918 -0.841022610664368 1.228196978569031 -1.866102099418640 1.414586544036865 -1.878090858459473 -0.467356353998184 -0.757608771324158 0.421505987644196 -0.482745230197906 -1.119793057441711 0.305609881877899 1.038561224937439 0.520606040954590 -0.500600695610046 1.218231201171875 0.211728915572166 -1.061346530914307 -1.944087505340576 -0.959566771984100 0.548888027667999 -0.990100741386414
-0.382610797882080 1.503708720207214 1.826695680618286 0.556106805801392 1.644509315490723 0.497345626354218 -1.506652474403381 1.766135215759277 -0.356944113969803 -0.171260759234428 0.406763106584549 -0.428402245044708 -1.129923462867737 1.427441000938416 -1.402737736701965 1.482534766197205 -1.155851602554321 1.619039535522461 0.958104372024536 0.774696469306946 0.194011449813843 0.168692916631699 0.306078314781189 1.074288964271545 -1.032681584358215 1.092997670173645 0.776892602443695 -1.312806606292725 0.709869086742401 0.994360327720642 -0.269412100315094 -0.649103045463562 -0.137254953384399 -0.295350998640060 -0.772467076778412
-0.221545517444611 0.507444560527802 -0.679400742053986 -1.611530661582947 0.522961497306824 -0.889045298099518 0.261960804462433 0.030234752222896 0.001268301275559 -1.398745894432068 1.466558098793030 -0.102809168398380 -0.009704916737974 -0.841998338699341 -0.206669926643372 1.067218065261841 0.173157513141632 -0.687309384346008 0.311101019382477 0.235808059573174 -1.065773963928223 0.361954361200333 0.377555787563324 -0.244304314255714 -0.585045993328094 2.081215143203735 -0.118619084358215 0.490345358848572 0.834885835647583 0.889382958412170 0.414826959371567 0.050729349255562 -0.964379608631134 -2.011085033416748 0.524524390697479
2.133249759674072 -0.082195021212101 0.838772535324097 -1.323288917541504 0.070130243897438 1.219965696334839 0.425088077783585 -1.232757449150085 -0.619536340236664 1.513334870338440 1.995356202125549 -0.658467948436737 -0.413857221603394 -0.225029051303864 -0.689006984233856 0.988235175609589 0.740381598472595 -2.099017620086670 1.258219480514526 -0.398978173732758 -1.095235109329224 -1.070285081863403 0.640437364578247 1.619876623153687 0.525806188583374 -0.296934694051743 -0.068130984902382 -0.283112436532974 -0.470546871423721 -1.765468955039978 -0.165644928812981 0.231230154633522 -0.083913661539555 -1.773092865943909 -1.072124242782593
1.024766445159912 -0.711576581001282 0.708102405071259 0.828814625740051 1.352595925331116 1.619953751564026 0.343592941761017 -0.911174058914185 -0.995213627815247 0.745499849319458 0.737133860588074 1.252779960632324 0.850316941738129 -0.416509151458740 -0.749866724014282 1.063172817230225 0.007272402755916 -1.425224900245667 -0.078076191246510 -0.513784587383270 1.137512683868408 -1.024573683738708 -1.029961943626404 -1.012918233871460 0.005534987431020 -0.934715092182159 -0.988210260868073 1.380144357681274 -0.117268763482571 0.931672215461731 1.326691269874573 -1.017305850982666 -1.857525587081909 0.901452004909515 0.149493947625160
-0.033573638647795 -0.607584416866302 -1.004781603813171 -0.282557129859924 -0.271061599254608 1.320956468582153 1.160837888717651 0.345727175474167 -0.113561443984509 -0.890981733798981 0.290041446685791 -2.101655006408691 -1.127854466438293 -0.819112837314606 0.533377289772034 0.138146370649338 1.691044449806213 1.411436080932617 -0.980366289615631 -0.757758140563965 -0.378210842609406 1.721147775650024 0.031043892726302 -0.426999062299728 -0.386801332235336 -0.608948409557343 1.165198922157288 -0.132587924599648 -0.022761134430766 1.184821128845215 -1.032160401344299 -0.703941941261292 0.881272852420807 1.427622437477112 -0.924537301063538
-0.801842868328094 -0.785486936569214 0.787727117538452 0.078565172851086 1.705312609672546 -0.809836626052856 -0.459427237510681 -1.179762363433838 0.381150275468826 -0.006411941256374 0.530221104621887 0.998991370201111 1.073081493377686 1.250609874725342 0.595215797424316 -0.268320530653000 -0.366444855928421 -1.055520296096802 0.662315726280212 0.291564732789993 0.040889021009207 -1.190750956535339 0.016656484454870 -0.683773338794708 0.281524091959000 -0.147873446345329 -0.289584249258041 -1.174454212188721 0.436818659305573 0.432835042476654 0.996861219406128 0.125170156359673 0.470159798860550 0.078137613832951 1.175284504890442
0.211262419819832 0.011049699969590 0.464057683944702 0.526275038719177 -0.635929822921753 -0.704649627208710 -0.175416976213455 -2.476839542388916 -0.853613674640656 0.441441982984543 -0.676367282867432 0.518502235412598 0.513143599033356 -0.079907037317753 0.430882692337036 -1.115217208862305 -0.666738986968994 1.021418929100037 -0.197536215186119 -0.888168692588806 -0.358318448066711 1.818630814552307 0.214059159159660 0.258752644062042 -0.785717368125916 0.169743314385414 1.580687642097473 0.483826607465744 -1.290079355239868 -0.803923010826111 0.683470666408539 1.092618703842163 -1.262463212013245 -0.019109345972538 -1.056509494781494
-0.992276847362518 -0.366001099348068 0.620337069034576 0.716740131378174 0.536574363708496 0.212123900651932 1.701403379440308 1.624967336654663 2.141206026077271 0.615545451641083 1.362140536308289 1.091197729110718 0.210437297821045 1.368084669113159 -0.062405209988356 -0.263500273227692 -1.356164813041687 -0.534155905246735 0.525611996650696 0.041552592068911 0.751102030277252 0.364889591932297 0.926180839538574 -0.193160668015480 -0.729118883609772 -0.332527101039886 0.113406479358673 0.375278711318970 -0.008395212702453 0.574458301067352 -0.023028554394841 -0.593324363231659 0.794475317001343 2.225565433502197 -0.840029418468475
-0.471194624900818 0.314684092998505 -0.059988237917423 0.939414918422699 -1.348707079887390 0.053696818649769 0.840654134750366 -0.675656676292419 0.026462806388736 -2.063392400741577 -1.936574220657349 1.006685614585876 -1.859256148338318 0.932935953140259 1.406571745872498 1.441352486610413 0.168999463319778 0.257477164268494 0.121203310787678 -1.827018380165100 0.157137036323547 -1.331228613853455 -1.050534129142761 -1.000715017318726 -0.462109535932541 -0.506016135215759 1.123289823532104 0.479993194341660 -0.034391045570374 -0.492824167013168 -0.269905924797058 -0.869928836822510 0.815466642379761 -0.661585688591003 -0.219328463077545
-0.065306849777699 -2.227151632308960 -0.541233897209167 -0.973358273506165 -0.049861140549183 0.530336618423462 1.554437518119812 0.688200354576111 -0.473732531070709 0.503939390182495 -0.269422799348831 -0.285887569189072 0.110900811851025 0.433899074792862 0.010300252586603 -0.594860315322876 0.858049869537354 0.381187736988068 -0.028987621888518 0.446632683277130 0.187565490603447 -0.523514866828918 0.804699122905731 2.167978763580322 -0.839099407196045 -1.007329940795898 -1.890364170074463 -0.295391410589218 1.244276404380798 -0.635882735252380 -0.073919750750065 0.882718503475189 1.477073431015015 0.649804532527924 -0.113961577415466
-1.210944414138794 0.226951599121094 -1.618104577064514 0.503265798091888 -0.329155951738358 1.387159585952759 -0.631874263286591 1.050974607467651 0.092365466058254 0.158421531319618 1.607143998146057 -1.248031139373779 -1.125319242477417 0.955610036849976 -0.317039579153061 2.166573047637939 -0.701312541961670 -0.632308304309845 -0.235092401504517 0.109358526766300 -0.064113356173038 -1.438519001007080 -1.774132132530212 -0.643637239933014 0.532410442829132 -0.602082848548889 0.053134571760893 -0.175124481320381 -0.134629353880882 -1.044075369834900 -0.335964888334274 1.625668048858643 -0.813175797462463 0.836330831050873 -0.468482106924057
-1.082505345344543 0.841033101081848 0.259279191493988 -0.060935080051422 0.430300891399384 0.830987751483917 0.283563077449799 0.288340657949448 1.016003131866455 1.153585433959961 -0.159862294793129 -0.005689735524356 1.099233865737915 0.149578273296356 2.415360212326050 -0.818998217582703 0.420115381479263 -0.798116862773895 1.125295639038086 0.106507152318954 0.211094483733177 0.422109872102737 -0.583129823207855 1.028880715370178 1.416175842285156 1.527130007743835 0.451479136943817 -1.151054263114929 -0.455910712480545 0.673245787620544 0.870317757129669 -0.343903422355652 -1.852422356605530 -1.049121856689453 0.538240432739258
-0.512926459312439 0.123288139700890 -0.182065695524216 2.151898622512817 -1.454687476158142 -1.026739358901978 0.264445394277573 -0.883231341838837 -0.264727622270584 0.394437313079834 -1.251201510429382 -0.115758426487446 0.507103741168976 -2.443511724472046 0.149825379252434 -0.704692006111145 -0.505994260311127 2.459683895111084 0.240826442837715 -0.584350824356079 -0.389025896787643 -0.691522181034088 0.306101381778717 0.704188227653503 -1.868530750274658 -0.291918486356735 0.671747088432312 1.436730742454529 -1.145288467407227 -1.106062531471252 -0.588812232017517 0.262487471103668 0.596369504928589 0.314735352993011 -1.295564413070679
-0.239454388618469 -0.203296557068825 0.168722793459892 0.059440966695547 -0.280027151107788 0.153502747416496 -0.435291796922684 -0.911166429519653 1.143774271011353 -0.641944408416748 2.010617494583130 0.005078801885247 1.737744569778442 -0.255576133728027 -0.547548830509186 0.536781668663025 0.408723771572113 -0.067941762506962 -0.463653922080994 -0.358323991298676 0.325964182615280 -0.603248357772827 -0.927007794380188 -0.470219433307648 -0.640877544879913 -0.666143238544464 -0.343930929899216 1.512905836105347 -1.321911692619324 -0.802471458911896 0.000053894254961 -0.394114434719086 0.171517476439476 -0.211859494447708 0.056354206055403
-1.764202952384949 -0.688794255256653 -2.035026311874390 0.063702918589115 -0.072734989225864 -0.345416486263275 0.703057825565338 -0.535860776901245 -0.986274421215057 -0.899821460247040 0.286916762590408 -0.547002136707306 0.500235080718994 -0.183406427502632 0.115085929632187 -1.003177046775818 0.714697062969208 -0.217001691460609 0.481541365385056 -0.925313234329224 -0.890168070793152 -0.548877060413361 0.257241070270538 1.031412005424500 -0.171327188611031 -0.665835201740265 -1.365667700767517 0.254067212343216 0.758673727512360 -0.127003043889999 0.063010700047016 -0.390013903379440 0.586914896965027 0.075152873992920 -0.243532285094261
1.703775644302368 -1.599986314773560 1.436632275581360 -0.991691708564758 -0.629468977451324 -1.030391693115234 -0.023073183372617 0.180740669369698 -0.012528927065432 0.842477262020111 0.763952672481537 -0.986186981201172 -1.952581524848938 -0.343494236469269 0.205970719456673 -0.605797767639160 -0.375134706497192 -0.183743044734001 -0.031815502792597 -0.299252808094025 -1.075463175773621 -0.129082486033440 0.025844248011708 -0.195825606584549 -0.338192790746689 -0.156187355518341 -1.785366177558899 0.390723794698715 -0.782259106636047 1.187800884246826 1.566000819206238 0.715496003627777 -1.126067996025085 1.085431218147278 0.647266626358032
0.353860110044479 0.299690186977386 -0.032481826841831 0.338538140058517 0.738771378993988 0.758510828018188 -1.852282524108887 0.275496184825897 -0.275628983974457 -0.554572105407715 -1.360890269279480 -0.583748281002045 -0.272429436445236 0.645031809806824 1.030253648757935 -2.117630004882812 0.447149962186813 -0.639244616031647 0.938436090946198 0.302652478218079 1.913982152938843 -1.596721529960632 -1.049020409584045 -0.208862647414207 0.506308794021606 1.078298807144165 -0.625822544097900 0.945920526981354 -0.603342473506927 -0.031410589814186 0.701827466487885 0.826934754848480 0.691936671733856 0.401290804147720 1.071395754814148
-0.900431871414185 0.002352594165131 -0.017949964851141 -0.132601171731949 0.308142274618149 1.146001219749451 0.018477078527212 1.495376110076904 0.201417356729507 -0.271190136671066 -0.505651354789734 0.295413225889206 -1.012935280799866 -0.912263095378876 0.089842431247234 0.872336864471436 1.686214208602905 1.257241368293762 -1.758959650993347 -0.175831809639931 -0.693160295486450 0.100247107446194 0.383765459060669 0.547296762466431 -1.089304208755493 -1.046440243721008 -0.560712099075317 -0.159126937389374 -0.677072107791901 -0.984757363796234 1.830711364746094 2.346274137496948 0.005366990342736 -0.559069097042084 0.054977085441351
0.309819936752319 -2.125808477401733 -0.259760737419128 0.348676681518555 -1.546373486518860 0.853548765182495 0.120550274848938 -0.450024813413620 0.892039179801941 0.286417365074158 -0.293994545936584 0.522297859191895 -0.771562397480011 -0.043721701949835 -0.010770328342915 0.936326682567596 -1.040663719177246 0.635581254959106 -0.207369774580002 0.646960973739624 -1.242455363273621 0.535899937152863 -0.698863983154297 0.253337413072586 0.181021720170975 -0.931650996208191 -1.304659843444824 -0.485906779766083 -1.616138458251953 -0.785834908485413 -0.652104496955872 0.478818267583847 -1.485863327980042 1.295727133750916 0.285966306924820
0.335160791873932 -2.621442079544067 -0.097500108182430 -0.845550477504730 -0.052847020328045 0.866169393062592 -0.031820643693209 0.715924143791199 -1.006730079650879 -1.103638887405396 -0.979235172271729 1.435123682022095 0.345985710620880 -1.147992730140686 -1.303797602653503 0.458816289901733 0.062467969954014 -0.299283742904663 1.085039496421814 -0.065036393702030 -0.814721226692200 2.494204998016357 0.587905943393707 0.738625228404999 1.034231781959534 -0.738499462604523 -0.994596123695374 -0.265782743692398 2.568372726440430 -0.411086380481720 -0.440445154905319 -0.509857237339020 3.140112161636353 -0.120154164731503 -1.406236290931702
-0.418829500675201 -1.794799804687500 -0.300775915384293 0.729862749576569 0.832367539405823 -1.287999153137207 1.645373225212097 1.218931913375854 0.202638506889343 0.700403332710266 1.109740138053894 -0.061226122081280 -2.232963085174561 0.852643072605133 0.164870634675026 -1.075989961624146 1.196875333786011 1.173423647880554 -1.376593112945557 -0.403081238269806 -1.070336580276489 -0.419317394495010 -1.077669858932495 0.721717357635498 1.778198719024658 -1.189569830894470 0.454596549272537 -0.691226601600647 -0.388975620269775 1.152576565742493 -0.074319355189800 0.229447156190872 0.769971489906311 0.010180234909058 0.714624941349030
-0.110233008861542 1.438412070274353 0.002441619522870 -2.253884077072144 -0.644641041755676 0.178640067577362 1.928357362747192 0.720776021480560 -1.118218064308167 -0.059892032295465 0.380398660898209 1.561128020286560 0.255400508642197 -0.810148835182190 -0.339558124542236 1.107926130294800 0.664775788784027 0.116478309035301 -0.358667969703674 -0.238620549440384 0.334689438343048 -0.500282526016235 -0.867159128189087 0.803959965705872 -0.001567047089338 -1.760223507881165 -2.157694816589355 -0.151294380426407 -0.680882930755615 -0.179168134927750 1.584129214286804 -0.412742376327515 0.256821751594543 -0.728233098983765 1.262379884719849
0.259963095188141 -0.134545013308525 -0.515766382217407 -0.941500902175903 0.210441187024117 0.393526941537857 -0.134599193930626 0.211943730711937 1.168080210685730 -0.164853215217590 1.530955433845520 0.963420510292053 0.541323781013489 -0.853222191333771 0.410577148199081 1.424973845481873 1.164117813110352 -0.204270988702774 -0.228169843554497 0.323631167411804 -0.936347246170044 -0.363392621278763 -1.046353578567505 0.165889412164688 -1.622980237007141 -1.203302264213562 1.833003878593445 0.456661760807037 -0.664284646511078 -1.663505792617798 0.798562586307526 0.655405640602112 -1.306333780288696 -0.105504244565964 -0.107506744563580
1.012097477912903 1.278429031372070 1.198528528213501 0.643164813518524 1.499627947807312 0.173506230115891 1.209671497344971 0.539111733436584 -1.261566400527954 0.335908561944962 0.716420054435730 0.618464708328247 2.486264705657959 0.438485145568848 0.089962467551231 -2.944272518157959 -0.781333088874817 0.607240617275238 -0.036586500704288 -1.901745438575745 -2.711435556411743 0.835921823978424 -1.262177228927612 0.409345805644989 -1.476838469505310 0.204767957329750 -0.419094592332840 0.069069467484951 1.011789441108704 -2.915486812591553 -1.421991705894470 1.000827908515930 2.658219575881958 -1.814197301864624 1.417004823684692
0.336062073707581 0.041278395801783 -0.273109495639801 1.122267842292786 1.131349682807922 -1.122492551803589 -1.034533262252808 1.367183446884155 0.089157812297344 -0.460001260042191 -0.113888412714005 0.811587572097778 0.015391501598060 1.649631738662720 -0.522351026535034 1.741339087486267 -1.176993608474731 0.340493798255920 -1.145954370498657 1.366556286811829 -0.805003225803375 0.245528221130371 0.318836003541946 0.757213950157166 1.156387448310852 0.728444516658783 1.762744069099426 -1.108245849609375 -1.073909521102905 1.056205749511719 -0.709970474243164 1.983326196670532 -0.125341102480888 -0.400009155273438 -1.604836225509644
-0.089448034763336 -0.778808474540710 3.445500850677490 -2.208106040954590 -1.060692906379700 0.761776983737946 0.001339412294328 1.427613258361816 0.536780178546906 1.028289079666138 1.534547328948975 1.431215763092041 0.780992865562439 -1.881784439086914 1.171917438507080 1.546478986740112 -0.129593417048454 1.438709616661072 0.558257579803467 -1.204197883605957 -0.302173048257828 0.755050361156464 3.074995756149292 -0.341097265481949 -0.187124878168106 1.783388614654541 -1.153904914855957 -0.247696101665497 -0.677940189838409 1.581133842468262 0.436322271823883 -0.273935616016388 -1.506550431251526 1.675521612167358 -0.276908934116364
0.122748240828514 -0.718344151973724 -0.055593553930521 1.782615780830383 -0.720254957675934 0.837913691997528 0.165024638175964 -0.237783417105675 -1.126056313514709 1.122457504272461 -0.916536808013916 0.549352645874023 0.095120757818222 -0.846204102039337 -0.117999389767647 -0.959438145160675 1.854401826858521 1.325497746467590 -1.612760066986084 -1.122948288917542 -0.432543277740479 -0.289152443408966 -0.733381807804108 -1.970891475677490 0.601536810398102 -0.812695920467377 -0.847212553024292 -0.224524125456810 0.872259676456451 2.118089914321899 0.124557442963123 -0.599258303642273 -0.313712775707245 -0.696886301040649 1.714514017105103
-1.899443030357361 -0.206893488764763 1.052432894706726 -0.609924197196960 -0.532103180885315 0.264938384294510 0.039910670369864 2.439131975173950 -0.241735443472862 0.253264576196671 1.897835016250610 -0.866093575954437 1.205515980720520 -0.504955351352692 0.545126914978027 -0.809439301490784 1.255065083503723 -0.687858700752258 0.072383552789688 0.517928302288055 0.871306002140045 0.533803045749664 0.133392244577408 0.929297387599945 -0.225308701395988 0.526303887367249 0.897123277187347 1.754318952560425 -0.362766802310944 -0.289115369319916 -2.118153572082520 1.278200387954712 0.244636252522469 -0.552403330802917 0.426473110914230
0.987740755081177 -0.176094442605972 -0.564525604248047 0.124531097710133 2.052539587020874 -1.019175887107849 -0.513012766838074 -0.588087320327759 0.820356309413910 0.751911699771881 0.281235754489899 0.043221201747656 0.322764217853546 -0.280837506055832 -0.468816637992859 -1.736379861831665 0.030004506930709 -0.621761858463287 -0.074644252657890 0.602892935276031 1.178118228912354 -2.071885824203491 -0.986362099647522 0.477210640907288 -0.009735892526805 0.447604149580002 -1.002478599548340 -0.482976973056793 -0.325455099344254 0.842040002346039 -0.128007113933563 1.384808778762817 -0.985495984554291 -1.158409476280212 -0.793739616870880
1.543260335922241 0.318848878145218 0.545629680156708 0.363721340894699 0.345206260681152 0.150342285633087 -1.963953137397766 0.614564776420593 -0.622532308101654 0.619139850139618 1.345720052719116 -0.210108265280724 1.228250980377197 2.168628215789795 1.021702051162720 -0.176413714885712 0.072357788681984 -0.656358599662781 0.270994871854782 -0.538213551044464 -0.941614985466003 -1.036335349082947 -0.166364803910255 -0.296990334987640 -0.883147776126862 0.129189312458038 2.795030593872070 0.231221958994865 -1.036195278167725 1.370981335639954 -0.684536814689636 0.034127961844206 -0.165533795952797 -1.316401362419128 -1.055667281150818
0.210824280977249 -1.329867243766785 0.364664614200592 0.569664239883423 0.668373823165894 0.486037164926529 0.033304668962955 0.045051563531160 -0.865364074707031 -1.359732151031494 2.891802310943604 0.599185585975647 -0.058982487767935 0.207317367196083 1.095552921295166 -0.751516997814178 1.205725431442261 -0.271836787462234 -0.041124109178782 0.023485457524657 -0.763913035392761 -1.968938231468201 0.454970598220825 0.388239085674286 0.387374281883240 -0.073085516691208 0.176439702510834 -1.529259562492371 -0.043434657156467 -0.931953370571136 -1.796818017959595 0.118354678153992 -0.929827272891998 0.686757266521454 0.734421133995056
1.972926974296570 0.286041289567947 -2.303702354431152 -0.277539908885956 0.402925074100494 -1.017883539199829 2.707562923431396 0.214866086840630 -0.724302470684052 -1.367342710494995 -0.647259771823883 -1.543612003326416 -1.246969938278198 0.411699891090393 0.462473034858704 -0.274335235357285 -1.118711113929749 -1.430340051651001 0.469982057809830 0.015478753484786 -0.899819135665894 0.088319368660450 0.817467689514160 -0.996817469596863 0.675601184368134 -1.221638917922974 -0.655402302742004 -0.892075598239899 -0.844467937946320 -1.624382853507996 -0.665423810482025 -0.357692539691925 -0.158267259597778 1.036323189735413 -1.680588126182556
-0.671874105930328 -0.595177888870239 -1.111059904098511 -0.452554881572723 0.603301882743835 0.090808600187302 -0.115819931030273 0.254938691854477 0.708643198013306 -0.012764466926455 -0.758191049098969 -0.340620607137680 1.340511441230774 0.116111904382706 -0.770688474178314 -1.095447421073914 0.534630060195923 0.346913188695908 -0.914629101753235 -0.164201185107231 0.215759187936783 0.435637801885605 1.876427292823792 0.118513315916061 -1.086971163749695 -0.986379742622375 2.554789066314697 -0.036146100610495 -0.342082172632217 -0.020717695355415 -0.596361339092255 0.113510780036449 0.624783754348755 0.279138714075089 1.216867685317993
0.251612037420273 0.757311522960663 0.728925704956055 0.910062849521637 -1.165629386901855 1.135516405105591 0.630241930484772 0.106439493596554 1.726433753967285 1.445127606391907 -0.670499444007874 -1.307065486907959 0.470948725938797 -1.456385731697083 0.530657052993774 0.294034570455551 0.174545675516129 1.511518955230713 0.357059121131897 1.309248805046082 1.266432523727417 -0.724116742610931 -0.290652632713318 -1.172123789787292 -0.357972383499146 -0.126051172614098 -0.380648672580719 1.067424654960632 0.585302710533142 -0.991767466068268 -1.274104356765747 0.548448622226715 0.408515602350235 -0.213165342807770 -0.065293177962303
-0.230413451790810 -0.371634721755981 0.051626279950142 0.681358456611633 0.691799223423004 1.702204108238220 -0.258173316717148 0.548799693584442 0.862775325775146 0.685975551605225 2.234899997711182 -1.119953989982605 0.516888260841370 -0.896376192569733 0.615770161151886 0.539522707462311 0.711582005023956 -0.118999138474464 -0.910618960857391 0.117084845900536 0.289042890071869 -0.674742341041565 -0.857519447803497 0.058464709669352 -2.160426139831543 0.504350125789642 2.002525806427002 -1.474887728691101 -1.085138797760010 -0.017099129036069 -2.539463043212891 -0.552762866020203 -0.653151810169220 -1.881199717521667 -1.315558910369873
-0.085475035011768 0.290913611650467 -0.108968444168568 -0.938677072525024 0.374400347471237 -0.133973345160484 -2.033866643905640 1.027286529541016 0.182417735457420 -0.889816761016846 1.660421729087830 0.611270785331726 0.848979055881500 -1.429970145225525 0.397486835718155 1.046942353248596 -0.327689170837402 0.253862470388412 -0.206741183996201 0.635183215141296 0.348698735237122 0.191994577646255 1.743902802467346 -1.191074967384338 -1.094879269599915 1.163667082786560 -1.069419264793396 -0.208863586187363 -1.309890747070312 0.048446901142597 0.452504307031631 0.495173692703247 0.431453794240952 1.537361979484558 1.720904469490051
0.893098294734955 -1.295015573501587 -0.064510725438595 -0.099016860127449 1.362074971199036 -1.337924599647522 1.679462552070618 1.646371722221375 1.328621387481689 0.316614389419556 -1.316904306411743 1.372629880905151 1.086770892143250 1.755147695541382 -0.158026874065399 1.242015242576599 2.521665811538696 -1.368327021598816 -0.669325172901154 2.158629417419434 0.624865591526031 0.087648563086987 -0.368999361991882 0.456129044294357 1.143768668174744 -1.304313898086548 -0.231052264571190 -0.061601929366589 -0.986806631088257 0.457694619894028 0.629392683506012 -1.036538481712341 -0.344637304544449 0.262247532606125 1.231895089149475
0.111689001321793 -1.930837273597717 -0.311519294977188 -1.812834978103638 0.346540123224258 0.696806907653809 1.834374666213989 -2.162411212921143 2.276605844497681 0.284334391355515 0.577530503273010 -0.696001648902893 -1.455863714218140 -0.564849317073822 -1.187870860099792 0.826841652393341 0.037594024091959 -0.683353722095490 -0.340789824724197 -1.616386294364929 2.749508619308472 -0.219412907958031 -0.181958466768265 1.020413875579834 0.438109517097473 0.010444914922118 0.712123095989227 -0.314010351896286 0.452165842056274 -0.561518251895905 -0.250020444393158 -1.870408058166504 -1.216609716415405 -0.128041759133339 -0.068891867995262
-0.248487591743469 0.322487741708755 -1.660503983497620 -0.741419136524200 0.742575883865356 0.079487331211567 -0.619114458560944 0.006097534205765 -1.554408192634583 -1.022088646888733 -0.880875587463379 -0.655114054679871 0.464331984519958 -0.116146273910999 -0.337904930114746 1.561999320983887 0.030554527416825 0.146721899509430 -0.930275022983551 1.275208950042725 -0.971098005771637 0.082080692052841 1.220850110054016 0.324129551649094 0.307331532239914 0.174285396933556 0.922576665878296 -0.705551445484161 2.077912807464600 0.465456575155258 -0.420715987682343 -0.629892766475677 -0.175157383084297 -0.153291627764702 0.652732312679291
0.329427331686020 0.389930754899979 -0.351770877838135 1.364912629127502 -1.847240447998047 -1.605418801307678 -0.128496721386909 0.255599826574326 -1.077333807945251 0.295742720365524 -0.356941729784012 0.130748167634010 0.632879734039307 -1.183849215507507 -1.208999752998352 0.603171467781067 -0.525520682334900 0.766023457050323 -0.354003936052322 -0.694465517997742 0.154531955718994 0.853173017501831 -2.123523235321045 0.443298548460007 -0.403313726186752 0.935780465602875 -1.094008445739746 -1.119820833206177 0.907427489757538 -0.880902290344238 -1.035151839256287 0.353038847446442 0.239545255899429 -1.089090943336487 -0.450009405612946
0.124733924865723 -1.360303640365601 -2.035265922546387 0.350121051073074 0.381591767072678 -0.484059989452362 0.216800823807716 0.497940123081207 -0.319030195474625 -1.592633247375488 -1.243068218231201 0.310327023267746 -2.933429479598999 -2.363039493560791 -0.069812178611755 -0.981073439121246 0.011986240744591 0.632353365421295 -0.957415699958801 1.355750203132629 0.615295052528381 -1.640010595321655 -0.813324213027954 2.093650579452515 -0.787179827690125 -0.425656348466873 -0.047967825084925 0.179326459765434 0.492901265621185 0.941406488418579 -1.331655979156494 -0.026431590318680 2.566324949264526 -0.394273996353149 -1.232554197311401
-2.348309993743896 -0.607049226760864 1.870971918106079 -0.623076438903809 -1.107176065444946 -1.097985744476318 0.330904930830002 -0.536365449428558 1.388118028640747 0.069246351718903 1.275119662284851 -0.085533402860165 0.317310094833374 0.168555155396461 -0.470863133668900 0.966841518878937 1.870445847511292 -0.658142745494843 0.145953059196472 0.008206238970160 0.186164125800133 -0.378622293472290 0.680729568004608 -0.810222029685974 -1.236768722534180 0.491192787885666 -0.071508243680000 1.980080604553223 0.448855847120285 -1.305924177169800 -1.221121191978455 0.170958474278450 1.264371037483215 1.422189354896545 1.484187245368958
-0.723064601421356 0.707663059234619 -0.542044341564178 -0.748115956783295 0.039779886603355 0.905896544456482 -1.142428517341614 -1.194622397422791 0.670717477798462 -0.152440637350082 -0.343150407075882 -0.792451739311218 0.591178297996521 -1.239111661911011 -0.044724296778440 0.783661484718323 1.963129162788391 2.310364007949829 -0.516596436500549 -0.192381411790848 0.674571514129639 1.022639513015747 0.777504801750183 0.330796122550964 0.422692865133286 1.564708590507507 0.138909533619881 -0.122462339699268 -0.563574433326721 -0.065627075731754 -0.028154101222754 0.046427361667156 -0.161398783326149 -0.699882924556732 -0.031154479831457
0.563407480716705 -2.094536781311035 -0.120838224887848 -0.340766280889511 0.144760087132454 -0.818847954273224 -0.465905964374542 0.310323327779770 -0.869873523712158 -1.162675023078918 0.237823888659477 0.503710627555847 -0.376394391059875 0.776699066162109 1.162985444068909 2.199992895126343 -1.875773668289185 1.213055968284607 0.104707203805447 1.940103173255920 -1.017801046371460 0.673874318599701 0.445725172758102 -0.069957748055458 -0.240522563457489 0.508485794067383 1.029422640800476 -0.113708615303040 -0.799247860908508 -0.921708047389984 -0.575948059558868 0.575289666652679 0.487555801868439 -0.608690619468689 -0.807533383369446
-0.754387974739075 -0.012827233411372 1.004095792770386 0.430468410253525 -1.559823274612427 -0.100176475942135 0.044899541884661 -0.862453520298004 1.076363205909729 -0.121673889458179 0.220414608716965 -0.116857230663300 -0.340396642684937 -0.090241342782974 0.766566157341003 0.479354798793793 -1.250060439109802 -0.120644696056843 0.412466704845428 -1.910896301269531 -0.543745338916779 -0.386761426925659 0.029408374801278 0.548860371112823 -0.704323947429657 1.393659949302673 -1.176937103271484 0.932040393352509 2.131165504455566 -0.647499680519104 -0.384846210479736 1.020377159118652 -0.759075820446014 -1.209455132484436 0.425864189863205
1.004475593566895 -0.536957740783691 -0.198030561208725 1.075102448463440 -1.816866040229797 -1.480702877044678 -0.409473866224289 -0.906181216239929 0.042300458997488 0.306970357894897 0.765660226345062 0.066398262977600 -0.922097265720367 0.531930565834045 0.773111641407013 -0.314659535884857 -0.689167916774750 1.041609406471252 0.314195513725281 -1.661569833755493 0.992230653762817 1.939412117004395 -0.938662409782410 1.439739227294922 0.793250143527985 1.017331838607788 -0.127117544412613 -0.599971294403076 -0.329789698123932 -1.000162482261658 -0.626831591129303 -1.540539264678955 -0.005524104926735 0.258847385644913 -0.406429111957550
-1.072731256484985 0.172661662101746 1.202218770980835 -1.105280280113220 0.566241323947906 -0.413828164339066 0.430151849985123 -0.876005947589874 1.124839782714844 0.686453044414520 0.260152310132980 -0.395390480756760 -0.429875284433365 -0.262864142656326 -0.956537485122681 -0.893472015857697 -0.773729443550110 -0.358870387077332 -0.483088910579681 0.615117788314819 1.117908596992493 1.077112913131714 1.471733808517456 -0.539300143718719 -0.048159871250391 1.224525928497314 -1.219416737556458 1.144803285598755 2.598470211029053 -2.325433492660522 0.553049385547638 -0.821072697639465 0.393116533756256 -1.536781430244446 0.026177836582065
0.777547955513000 1.251317977905273 -1.029511451721191 1.568555951118469 -0.144381344318390 1.930599927902222 0.712188065052032 -1.054682612419128 0.465162992477417 -1.421520352363586 -1.052374124526978 0.522629737854004 -0.099018923938274 -0.078835375607014 0.963507890701294 1.249678850173950 -1.189669609069824 -0.071946099400520 -0.189028099179268 0.622127652168274 1.263154864311218 -1.533728122711182 -0.867042779922485 -1.615363240242004 -1.068449497222900 -1.188744664192200 0.249845117330551 0.249065518379211 -0.144035816192627 0.026925291866064 2.840340614318848 -0.240197613835335 1.297541856765747 -0.436981111764908 -0.029789172112942
-0.038446668535471 0.653392195701599 0.920124650001526 -0.798489570617676 -0.954497456550598 -1.176030755043030 -0.514733135700226 -2.215759277343750 0.441960155963898 -1.304999113082886 0.633856773376465 -0.294111102819443 -0.211629286408424 0.501303017139435 -0.690258979797363 0.008194394409657 -1.163344144821167 -0.904418826103210 -0.492486804723740 0.778601586818695 -0.398541927337646 1.063113331794739 0.457989573478699 0.359380632638931 -0.019559329375625 0.463461875915527 0.160289123654366 0.760833144187927 2.316593647003174 -1.476817846298218 0.778935611248016 0.360884696245193 0.289156228303909 -0.945525228977203 -0.929857850074768
2.083696365356445 0.648094475269318 -0.309910237789154 1.402014017105103 1.370648264884949 0.553032338619232 -0.205569341778755 -0.683765590190887 -0.202075451612473 -0.359274238348007 -0.315733909606934 0.301837712526321 0.033231653273106 0.081228710711002 -0.047282170504332 -2.512143850326538 -0.196861371397972 0.308575928211212 0.477849453687668 -1.633226752281189 -1.252650380134583 0.095411173999310 -1.161812067031860 -0.189025774598122 0.421224713325500 0.076220750808716 -0.099823355674744 -0.127417176961899 -0.216500490903854 0.295417040586472 0.017828654497862 0.135674804449081 -2.447975397109985 1.079787015914917 -0.419827520847321
0.382170557975769 -1.328854918479919 0.255318641662598 1.021736979484558 -0.132446438074112 -1.077337026596069 1.231668233871460 0.217355102300644 -1.406033515930176 -2.130146980285645 -0.733315944671631 1.148682713508606 -0.960884273052216 -0.441219806671143 0.569165229797363 0.030139487236738 1.070127725601196 1.014096856117249 -0.634492278099060 2.571150541305542 0.721378445625305 0.068188630044460 -0.021799491718411 -0.343403548002243 -0.127073064446449 -1.380666613578796 1.357215166091919 2.410959005355835 -0.074974149465561 1.591058731079102 0.611086487770081 -1.443314909934998 -0.152062475681305 1.802362084388733 0.356712102890015
-0.061146374791861 -0.029326971620321 0.323076605796814 0.691851854324341 -0.609004616737366 -0.656407296657562 0.457314252853394 -0.055077720433474 1.017218470573425 -1.018464922904968 -1.783132314682007 0.556713998317719 -0.241760537028313 -0.905163407325745 0.119942925870419 -0.688039600849152 -1.135452151298523 0.036803644150496 -0.699955165386200 -0.126850813627243 0.558647155761719 0.776935636997223 -1.117489457130432 1.199032902717590 0.696388542652130 0.866121828556061 -0.055644549429417 -0.380580991506577 -0.894131481647491 0.130046382546425 -1.302233934402466 0.433286964893341 1.174335837364197 -1.022301197052002 -1.988948106765747
-0.348656624555588 -0.088440224528313 0.056837137788534 -0.099761456251144 0.836484491825104 1.495702624320984 0.727059304714203 -1.736887931823730 0.981523454189301 2.102946043014526 0.343287318944931 -0.258119463920593 0.975879371166229 -1.073694348335266 -0.023679789155722 0.966793477535248 -0.210160523653030 0.552015066146851 0.453073024749756 -0.262829840183258 -0.500506281852722 -0.071983896195889 0.000030587551009 0.288883924484253 -1.680263161659241 1.729029893875122 2.189215183258057 1.620439171791077 0.933787524700165 -0.516760170459747 0.379338502883911 0.493110209703445 -1.622364163398743 0.232071831822395 0.604670822620392
0.101654738187790 -0.906302332878113 -0.343108952045441 1.326008796691895 0.316000431776047 1.497060298919678 0.985681474208832 0.103905670344830 -0.637054145336151 0.471098303794861 -1.762798309326172 1.632978796958923 -0.459542036056519 -0.717576980590820 1.195982098579407 0.571239113807678 0.603938758373260 0.860512554645538 0.910895228385925 0.095213666558266 0.784460783004761 0.681121051311493 -0.978803038597107 -1.379559159278870 -1.631071209907532 1.143936157226562 -0.519777655601501 1.086344718933105 -0.775590062141418 -0.295367717742920 0.695380747318268 -0.028588656336069 1.275423288345337 -2.172590494155884 -1.089000821113586
-3.324794530868530 1.100367069244385 -0.620706021785736 1.607426524162292 0.409797579050064 1.475389361381531 0.698044717311859 -0.833203673362732 0.137304574251175 -1.154513835906982 1.606660246849060 0.845040023326874 -0.351570308208466 -1.771880984306335 0.116340659558773 -1.098465561866760 -0.279458016157150 0.609669148921967 -0.471312403678894 -0.423402190208435 0.147538542747498 0.338539361953735 -0.329993367195129 -0.017577219754457 0.780911862850189 -0.149776682257652 0.993695795536041 -0.776422917842865 1.447409987449646 -0.836009562015533 -0.257559746503830 0.218282118439674 1.149322390556335 -0.931996285915375 -1.731954813003540
1.925798058509827 2.412887334823608 0.259068369865417 0.173929914832115 0.314703613519669 -0.334317266941071 0.058950126171112 0.712869882583618 -0.710531830787659 0.618495881557465 -0.498389154672623 -0.240449666976929 -1.729863047599792 -0.282925844192505 0.857301771640778 0.443787068128586 0.251267611980438 -0.254042744636536 1.529623270034790 -0.484965860843658 0.355076611042023 -0.857119560241699 -0.244188398122787 1.132414460182190 -1.543042063713074 -0.272769957780838 -0.666544198989868 1.058863162994385 -0.713872849941254 -0.255325675010681 1.650336742401123 -0.267732322216034 -0.399105370044708 0.977341473102570 -1.162178397178650
-2.076644897460938 -1.202714800834656 2.325415849685669 0.039190981537104 -0.252813428640366 -0.523274481296539 1.014191031455994 0.317119091749191 -0.262923717498779 0.011232008226216 -1.046752214431763 0.045288234949112 -0.569398999214172 -1.252615332603455 0.243201315402985 0.360615760087967 1.433048129081726 2.360208749771118 0.629371821880341 -0.395400881767273 0.815804123878479 1.159476399421692 0.275382965803146 -0.704730331897736 -1.914158344268799 -0.364972174167633 -0.667354464530945 -1.309612751007080 0.611521899700165 0.066921748220921 -0.596242070198059 -0.908819854259491 -0.209200516343117 1.714889526367188 0.438700318336487
0.195700004696846 0.221397265791893 0.493337243795395 1.328666090965271 -0.871349573135376 1.459444761276245 1.741014122962952 0.593797206878662 -0.868029177188873 -0.674333155155182 -1.572450280189514 -0.119391515851021 -0.439128041267395 -0.399379193782806 -1.262792110443115 0.571552395820618 1.166603565216064 -1.655472755432129 -1.982195973396301 0.588611364364624 1.054803013801575 0.102407142519951 0.558639824390411 -0.572368860244751 -1.079450488090515 -1.614447593688965 0.338134109973907 -0.684731006622314 0.401379764080048 -0.125482887029648 1.026488065719604 0.340044170618057 0.112675011157990 1.197749018669128 0.336374044418335
0.141423761844635 -0.973269641399384 0.521931707859039 0.542058229446411 -0.624039649963379 1.041262507438660 0.586353361606598 -1.006108164787292 0.171610310673714 1.821460843086243 1.833934783935547 0.175294503569603 -1.210649371147156 0.335962474346161 -0.519080996513367 0.920112311840057 0.256635814905167 -0.933028697967529 0.079682573676109 0.067448809742928 1.012278318405151 2.410505056381226 -0.742002844810486 2.579159736633301 -0.948877334594727 -1.800666093826294 -1.566191434860229 1.542248487472534 -0.259316474199295 -0.135286986827850 0.199442267417908 0.820893883705139 -0.613520503044128 -2.120527982711792 0.924048542976379
0.166760131716728 1.866034865379333 1.368079423904419 -0.533445060253143 -0.311380952596664 -0.709968328475952 1.088790893554688 0.470443964004517 1.032800197601318 -1.093953728675842 -0.412538379430771 -1.308158159255981 -0.926311731338501 -0.717839598655701 -0.017229335382581 -0.154944688081741 -0.024376418441534 1.127937912940979 -0.634882628917694 -0.464255988597870 0.607939898967743 -1.414140224456787 1.178909301757812 0.417031884193420 1.199611902236938 1.285699129104614 0.718311369419098 -1.094336390495300 -1.141170501708984 -1.049525856971741 -1.867611169815063 -0.371952205896378 0.013186912983656 1.227823495864868 -0.687445282936096
2.361849546432495 0.603186011314392 -0.620984613895416 -1.468572974205017 0.787450671195984 1.111053347587585 0.476080805063248 0.324130624532700 -0.245008021593094 0.244066476821899 0.809259951114655 0.645310878753662 -1.242705106735229 1.063369870185852 -0.976537644863129 -0.384759068489075 0.032104428857565 -0.819017589092255 -0.583063483238220 -0.340055972337723 -0.058837410062551 -0.847481131553650 -0.845580101013184 0.391523480415344 -0.504475951194763 -0.331134229898453 1.617430329322815 0.771968543529510 -0.691384553909302 -0.794149458408356 -0.359716147184372 1.078158497810364 0.951765835285187 0.208227649331093 1.430918455123901
-1.323392033576965 -0.911368072032928 0.140830576419830 2.120666265487671 0.664046823978424 0.719863593578339 0.594195306301117 0.960777640342712 1.088311910629272 -1.604164838790894 -1.600432872772217 -1.196671962738037 0.682986021041870 -0.159134984016418 -0.792638361454010 1.155691981315613 -0.849326908588409 -0.582091569900513 -1.087447404861450 -0.779532551765442 -0.942095339298248 -0.838007032871246 0.783500969409943 0.305534064769745 0.003536937758327 -1.774762034416199 1.139483451843262 -0.384465813636780 -0.764167606830597 -0.169194474816322 0.508458495140076 1.347030162811279 0.027036743238568 -1.470496773719788 1.066600561141968
0.049083776772022 -0.503828167915344 0.940731346607208 0.546115458011627 -0.311015278100967 -1.232074499130249 -0.764283001422882 1.357475757598877 -1.745733618736267 -0.257115036249161 -0.198591649532318 0.716881155967712 -1.461519479751587 0.648124814033508 -0.612599730491638 -0.941541790962219 1.969108343124390 0.300907313823700 0.293271392583847 -0.060615211725235 -0.332527965307236 -1.136945009231567 0.447282731533051 1.646895051002502 1.683213949203491 -2.237340688705444 -1.416384458541870 0.712118506431580 0.164203852415085 0.600773751735687 1.856215834617615 0.348629117012024 -1.420602083206177 1.435862421989441 0.109345071017742
-0.646848917007446 1.857033610343933 2.291952848434448 0.309694528579712 1.073568701744080 -0.016966242343187 -0.286346852779388 -0.162210464477539 -0.338985592126846 1.212846398353577 0.606142938137054 -0.290131449699402 -1.957341909408569 -0.087615557014942 -1.534267902374268 0.448965221643448 -1.968901872634888 -1.212875366210938 -0.102231964468956 1.147850394248962 -0.771701216697693 2.131361007690430 -1.450323581695557 1.512613415718079 0.015129960142076 0.433543115854263 -2.249883174896240 -1.321953177452087 -0.179004266858101 -0.505621731281281 0.948330283164978 0.460504889488220 1.946203231811523 -0.357546448707581 0.021232532337308
-1.100365400314331 0.181565284729004 -0.492982357740402 0.008858015760779 -0.859390854835510 0.988422095775604 0.543882906436920 -1.526978135108948 0.176389440894127 -1.345639228820801 0.478042423725128 -0.391849219799042 -0.739767014980316 -0.877875447273254 0.292959511280060 -0.150068357586861 -0.508342862129211 -0.500802457332611 -1.093460202217102 -0.446002840995789 -1.293340682983398 -0.498822271823883 -0.460239797830582 1.824784040451050 2.544425010681152 0.037561073899269 -0.552545189857483 0.308742582798004 -1.562628149986267 1.189573407173157 -0.818272173404694 0.182330682873726 1.781628251075745 0.613180935382843 1.235483169555664
-1.247218847274780 1.017363309860229 -0.531873106956482 1.119956970214844 0.577529251575470 -1.323694348335266 -0.667494118213654 -0.577576279640198 0.071440994739532 -1.135322928428650 -0.207119062542915 0.101200282573700 0.854045987129211 0.615925788879395 1.887234210968018 1.664558768272400 -1.341859459877014 1.368991374969482 0.803415417671204 2.181879281997681 0.369814842939377 -0.776422798633575 -1.219327807426453 -0.881639957427979 -0.513762414455414 -1.270603656768799 -0.675254523754120 0.037757471203804 0.511934041976929 0.316702067852020 0.079014688730240 0.840262949466705 -1.205632209777832 0.296650499105453 0.289365887641907
0.864469468593597 1.136015415191650 0.183413356542587 -0.259959518909454 -1.996984601020813 -0.281984001398087 -1.774369239807129 -0.608658730983734 1.100719690322876 0.350891590118408 -0.526978433132172 -1.399178981781006 0.675206184387207 1.153843998908997 -1.313993692398071 -0.593897461891174 -0.898764848709106 -1.631954550743103 -0.911053419113159 0.303535223007202 0.948922276496887 -2.257577657699585 -0.423994272947311 0.254684120416641 -0.199012026190758 -0.393219381570816 1.092338562011719 1.399916887283325 -1.473122000694275 1.647379398345947 -1.063768744468689 -0.857882678508759 1.564099311828613 -0.483931958675385 -1.082186579704285
1.494695067405701 -1.097178101539612 1.026092529296875 0.528492271900177 1.402445554733276 -1.340598106384277 0.605547308921814 1.553322315216064 0.619695901870728 -0.855547785758972 -0.257469236850739 -0.448889940977097 -0.633857727050781 0.941074609756470 0.235832527279854 0.330566525459290 -1.380564570426941 -1.573320388793945 0.190172091126442 -0.269549220800400 0.833855569362640 -1.719871759414673 -0.661766529083252 -0.689270734786987 2.175909280776978 -0.612909734249115 -1.541117787361145 -0.976979255676270 0.662117242813110 1.947162032127380 -0.515177965164185 0.245075732469559 -1.025779604911804 1.691859602928162 1.789402484893799
-0.090640887618065 -1.003863692283630 0.939887464046478 1.935336947441101 -0.088820271193981 -1.810302019119263 -0.214889049530029 0.229511156678200 0.432024061679840 0.918136656284332 0.464723199605942 -1.423201203346252 1.509733915328979 1.789299488067627 1.754096031188965 -0.752376377582550 -0.848218858242035 -0.677028834819794 0.406620740890503 1.902432203292847 -0.108706630766392 2.196896553039551 -1.034529328346252 0.386736512184143 0.526959180831909 -0.372321605682373 0.289243638515472 -0.436892628669739 0.107564248144627 -0.994089484214783 -0.400459080934525 0.091527819633484 -0.473921954631805 -1.297277688980103 0.104608789086342
-0.777608752250671 0.427535027265549 -0.035318758338690 0.467552989721298 1.205323934555054 -0.756385326385498 1.488822221755981 0.209710493683815 0.577070653438568 -1.204229831695557 0.382994294166565 0.940780341625214 -1.027143478393555 -2.404903173446655 -0.411790966987610 0.529437959194183 1.170363426208496 -0.191307321190834 0.576719462871552 0.560795366764069 0.717613220214844 1.734625697135925 0.574003279209137 -0.478253513574600 -0.270312041044235 -0.156230032444000 -0.200619861483574 0.513802707195282 0.414179354906082 0.001989226555452 0.126854479312897 0.895267128944397 0.639059245586395 0.828198790550232 0.450872480869293
1.496776580810547 0.418613791465759 -0.319174051284790 1.217365860939026 -1.246872544288635 -0.239295229315758 -0.741057872772217 -0.502317368984222 0.094195216894150 1.303566455841064 -2.475683927536011 -1.175652265548706 0.030836822465062 -0.466131865978241 0.538954496383667 -0.130466714501381 0.804003655910492 2.523376703262329 -1.290905237197876 -1.324266076087952 1.138400316238403 -0.115030817687511 0.005148851312697 -0.003805959597230 0.136450082063675 0.901592910289764 -0.795198202133179 -0.748193919658661 0.674271881580353 -0.196553513407707 0.637841582298279 -0.221111327409744 -1.070923805236816 0.180341616272926 0.462866902351379
0.460267096757889 0.422486931085587 0.773747146129608 -1.271630406379700 -0.056331805884838 -1.528189063072205 -0.627980828285217 -0.401415914297104 0.040859900414944 0.914229750633240 -1.301908135414124 -1.273542284965515 -1.169833540916443 -1.384698987007141 -0.592631340026855 1.118105769157410 0.755477070808411 0.341050088405609 2.064252376556396 -1.925357937812805 -1.015857696533203 0.261122316122055 0.135098665952682 -1.545994520187378 -0.049163714051247 2.011791229248047 -2.248306512832642 -1.454460382461548 -0.601303100585938 0.288531690835953 -0.356746226549149 0.326254159212112 0.808300197124481 0.825893759727478 0.046281401067972
1.284195780754089 0.030151782557368 0.016414014622569 -0.420763432979584 1.219980239868164 -0.027919981628656 -0.535198628902435 -0.620620310306549 -0.547259449958801 -1.317892789840698 -2.485707759857178 2.087431192398071 0.110051870346069 -1.041477203369141 -2.155907154083252 -0.346040338277817 -0.006916501093656 0.161995485424995 1.343976974487305 0.174056589603424 0.341056883335114 0.371973246335983 0.859327197074890 0.893780350685120 -1.328402042388916 0.396648675203323 -0.043563932180405 0.908082067966461 -0.546790540218353 -0.560739696025848 0.799244999885559 0.195760607719421 -1.018403649330139 -1.330664038658142 -0.399817198514938
0.581800282001495 -1.311716198921204 -0.941376745700836 0.096589379012585 -1.768520236015320 -1.121577978134155 0.181712001562119 -0.761871695518494 0.294384688138962 0.214546829462051 -0.538895726203918 -0.127613648772240 -0.535022377967834 0.599357664585114 -1.032998681068420 -0.794094204902649 0.732377707958221 -0.193927779793739 -0.498142421245575 0.397430449724197 -1.908952355384827 1.520066738128662 0.623153865337372 -2.387316226959229 -0.291582494974136 -0.376288473606110 -1.107967615127563 0.871939659118652 -0.295336723327637 -0.731859862804413 -0.326593488454819 0.224960520863533 0.569682300090790 0.655361533164978 -1.398180723190308
0.448056906461716 -0.215804561972618 0.367962628602982 0.258784353733063 1.268431425094604 1.074977874755859 -0.541153013706207 -0.302465617656708 -0.758912742137909 -0.846816122531891 -0.605713725090027 -0.024817688390613 -1.181523323059082 -1.224649190902710 -0.330655425786972 -0.307029515504837 -0.955821096897125 1.421698689460754 -0.662902653217316 1.316399812698364 -1.539019703865051 0.755258977413177 1.322986602783203 -0.195144504308701 2.358442544937134 0.115016162395477 0.055550724267960 0.942419648170471 -0.127048179507256 0.125088691711426 1.458580493927002 -0.585333943367004 -0.930049121379852 1.447752952575684 0.914066553115845
0.663966715335846 2.638983249664307 -0.909538865089417 -0.016142504289746 1.728468179702759 1.339931488037109 -1.021906375885010 0.857650756835938 -1.126007199287415 -0.273982554674149 -0.115608818829060 0.184199750423431 -0.843656361103058 -0.309136420488358 -1.379206776618958 -0.324419528245926 -1.156365633010864 0.949181079864502 -0.465925544500351 -1.327297449111938 -0.484736263751984 -1.005127429962158 -0.223760217428207 -0.538320779800415 -0.290262848138809 -0.118081063032150 -0.740846037864685 0.917853057384491 -1.115905165672302 -0.960522651672363 1.449651718139648 -0.619374096393585 -1.251254200935364 -0.872233629226685 1.295023202896118
-0.166988536715508 -1.304119467735291 0.506819903850555 -0.044709622859955 -0.684022724628448 0.566898941993713 0.136491790413857 0.021909469738603 -0.236105591058731 -0.617575228214264 -0.071252405643463 2.712872266769409 0.090656451880932 -0.133540868759155 0.773760139942169 -0.471202194690704 -0.104804776608944 0.177520319819450 -1.566183686256409 1.169719934463501 0.405356734991074 -1.668688416481018 -0.531238615512848 0.328544080257416 -0.990060091018677 -1.016002297401428 -1.390730738639832 0.427419155836105 -0.196401759982109 1.506684780120850 0.764494538307190 -0.199076995253563 1.170759201049805 0.758280813694000 -0.421611726284027
0.207983031868935 -2.199471950531006 -0.852095663547516 -0.616962254047394 0.844060659408569 -1.469733953475952 1.117417454719543 -0.855082631111145 1.615636825561523 -0.279669314622879 1.860895037651062 -0.017299257218838 0.522194981575012 0.628401100635529 2.440323114395142 1.158496618270874 0.952258110046387 0.473699718713760 0.496036738157272 0.046083740890026 0.693712115287781 -0.124128319323063 0.578261494636536 0.391749322414398 0.537034511566162 -0.826163053512573 -0.918319106101990 -2.128454685211182 -0.824552237987518 0.064595639705658 -0.467771321535110 0.672780215740204 -0.705863475799561 0.926135540008545 -0.008961241692305
0.371448874473572 1.142908096313477 -0.715098559856415 -0.272010535001755 -1.763455629348755 0.089485168457031 0.014707147143781 -0.257433623075485 0.063481211662292 -0.296363055706024 1.487413525581360 1.521115303039551 0.279940605163574 1.476619601249695 -1.307069897651672 0.137467265129089 -1.035517454147339 -0.300783604383469 0.549287140369415 0.550283074378967 -1.827108979225159 -0.107359267771244 0.211893424391747 -0.163543194532394 0.429679065942764 1.760391592979431 -0.854068756103516 1.541541576385498 -0.225166395306587 -1.133522391319275 -0.168999746441841 0.955997765064240 -0.297821283340454 1.591407537460327 -1.350627422332764
-1.081869363784790 -0.123105138540268 -0.626428723335266 0.644405484199524 -0.323153287172318 -1.270341634750366 -0.701299011707306 0.200675293803215 -1.295121431350708 -1.007376790046692 1.250387072563171 -0.075464308261871 0.242750808596611 -1.603250980377197 -0.685928165912628 1.171969532966614 2.750289678573608 1.721199870109558 0.281548500061035 0.649562716484070 -1.702042341232300 -0.289916634559631 -1.867934942245483 1.071644544601440 0.217964276671410 -0.661483526229858 1.229011654853821 -0.548403799533844 0.414649814367294 0.851338565349579 1.417081356048584 -1.711494803428650 1.758392453193665 -0.482289791107178 2.257375478744507
-0.587606072425842 1.144309878349304 0.277483254671097 0.778830289840698 0.294762492179871 2.171874046325684 0.079147897660732 -0.367358773946762 0.884034991264343 0.961003363132477 0.350753813982010 -0.151912122964859 0.537186145782471 -1.286887407302856 1.637344360351562 1.417475700378418 -0.424623370170593 -0.630430579185486 0.091943658888340 -0.233776748180389 1.303736090660095 -1.096493363380432 -0.020706659182906 -1.461151838302612 -1.844099998474121 0.801324307918549 0.673546314239502 0.054400298744440 -1.073063373565674 1.074542760848999 -1.441584706306458 0.099389478564262 -0.147740259766579 1.418810725212097 -1.166151881217957
-1.783880710601807 1.636731028556824 -0.947398900985718 0.349140644073486 1.755957484245300 1.302631378173828 0.067805282771587 0.442618340253830 1.235918879508972 -0.225153461098671 -0.235769093036652 1.066601276397705 1.142673015594482 -0.751663744449615 0.966894209384918 -0.794249117374420 1.356472492218018 -0.718166112899780 0.949792087078094 1.419524312019348 0.702055096626282 -0.661583840847015 -0.636525511741638 -0.695088386535645 0.313832938671112 1.242639660835266 -1.558583974838257 2.289797782897949 0.603345334529877 0.949648678302765 -0.502750456333160 0.183330729603767 2.273165941238403 1.320836544036865 0.328037112951279
0.557222425937653 0.436540246009827 1.267135739326477 -0.620481848716736 -1.597203731536865 -0.932442545890808 -0.466302245855331 1.387959957122803 -1.417519807815552 0.039245329797268 1.163585901260376 -0.786680877208710 -0.833605587482452 0.655547857284546 0.144074648618698 -1.427585601806641 -0.145800516009331 0.337508678436279 -0.391538679599762 1.743912935256958 -0.174509659409523 0.878690421581268 0.054578479379416 -0.014117381535470 0.790648221969604 0.098200060427189 0.592272758483887 2.015696048736572 0.620630264282227 2.614069223403931 0.167307212948799 -0.422435194253922 0.026056945323944 0.738578736782074 0.217005431652069
-0.167494356632233 0.931069135665894 -0.915779411792755 -1.106626987457275 -0.223675593733788 0.775494158267975 -0.111080639064312 0.894904017448425 -0.983137369155884 -0.628663957118988 -0.579718053340912 0.540742099285126 -0.339063078165054 -1.102709531784058 -1.251328706741333 0.030480789020658 -0.067680634558201 -0.075049228966236 -0.554051637649536 0.729355275630951 -0.190565824508667 0.803904891014099 0.396976351737976 0.440184354782104 0.618387103080750 -0.258056491613388 0.499670833349228 -1.392393589019775 1.839888334274292 -0.754958093166351 0.748081684112549 1.740117669105530 0.856973409652710 -0.382695376873016 1.090831398963928
-0.465928226709366 -0.212409958243370 0.992830812931061 -0.302661508321762 1.939770340919495 -2.464907646179199 -0.825481712818146 0.640787541866302 1.488186955451965 -1.290550351142883 0.491358190774918 0.397006809711456 0.922475516796112 0.749888122081757 -0.257397413253784 -1.278356313705444 0.049626190215349 1.560194134712219 -0.359901040792465 -1.685346484184265 -2.171092033386230 -1.525090813636780 0.150781407952309 0.842650890350342 -0.173426806926727 0.384220868349075 0.483868896961212 -0.347107499837875 -0.380647987127304 -1.183699488639832 -1.915063261985779 -2.037899971008301 0.899571597576141 2.121682405471802 0.830137193202972
-0.359653443098068 0.016456698998809 -0.481767177581787 0.107262082397938 0.057437337934971 -0.154206603765488 -0.098588109016418 2.354249000549316 -2.354762792587280 1.912645220756531 0.174921005964279 2.829133749008179 -0.515655934810638 -1.221896290779114 0.437708348035812 -0.027860073372722 0.385656982660294 0.786342501640320 0.243987470865250 -0.506497263908386 0.165950328111649 1.382645010948181 2.285949945449829 0.871607303619385 0.945930719375610 1.126275897026062 1.081367373466492 -0.466714829206467 0.703168332576752 -0.592643976211548 -0.289115071296692 1.148150205612183 1.338868618011475 -0.455916792154312 0.590449690818787
-0.813430607318878 -2.084814548492432 0.907553613185883 -1.894126772880554 0.385438859462738 -0.843047976493835 -0.896095156669617 1.046647787094116 1.605031371116638 0.451306790113449 0.042037695646286 -0.160144761204720 1.637896418571472 0.648826837539673 0.063157416880131 -0.463282465934753 -0.902208566665649 -0.643304049968719 -0.215605914592743 -0.380851328372955 0.788062810897827 0.071062929928303 -0.369968891143799 0.568453431129456 0.740361511707306 0.083564773201942 2.597034454345703 -0.023657234385610 0.086875557899475 0.518307983875275 1.466543674468994 0.774544835090637 0.477583289146423 0.612743437290192 -0.652701199054718
1.222193837165833 0.756254851818085 -0.839913070201874 -1.898566246032715 0.401034563779831 0.378501921892166 2.113302946090698 0.142278656363487 -1.508692622184753 -0.567578077316284 0.898464381694794 -0.593345165252686 1.484793901443481 -1.784358263015747 -0.968908727169037 1.560104846954346 0.942859649658203 0.162473425269127 0.138881087303162 -0.419707357883453 0.356308311223984 -0.970791935920715 1.153435826301575 -1.251906275749207 -0.321519285440445 -0.581777691841125 0.498285502195358 -1.311718940734863 0.721793293952942 -0.541949868202209 -1.876809954643250 0.560258328914642 -1.946103692054749 -0.739920496940613 -0.632240474224091
-0.024367885664105 -0.406393170356750 -1.065030694007874 -0.280105918645859 -0.624618470668793 -0.327314168214798 -0.042004872113466 0.603460669517517 -1.123163819313049 -0.598485708236694 -0.021742342039943 0.271885007619858 -0.534778714179993 -0.193864807486534 0.955930233001709 1.036360144615173 2.149377107620239 1.001993298530579 -0.191985055804253 -0.052849009633064 -1.042617082595825 -0.115475930273533 1.874586582183838 -0.346027582883835 -0.193742901086807 0.834205508232117 -0.240869224071503 0.228712067008018 0.127150058746338 0.992746055126190 0.574834048748016 -0.739170432090759 -0.686604142189026 0.240955188870430 1.490611910820007
0.059053793549538 -0.617109715938568 -1.028216958045959 -0.469342380762100 -1.057002663612366 -1.818134546279907 1.423386216163635 1.144963860511780 1.289896607398987 0.755020558834076 -0.847456514835358 -0.848746836185455 -2.139849424362183 1.363063693046570 1.028698444366455 0.628189086914062 -0.989208817481995 1.039388179779053 -0.595521092414856 -1.118692517280579 0.179865092039108 0.450868934392929 1.545091629028320 -1.187198996543884 0.745227813720703 -0.242934659123421 2.399053812026978 -0.590768814086914 -0.071759223937988 -0.570412278175354 -1.250262141227722 0.834961950778961 -0.035538628697395 -0.904402613639832 -0.333415091037750
1.370293259620667 -0.287076145410538 0.670115351676941 -0.087227441370487 -0.068450853228569 -1.384714007377625 -0.939107656478882 1.639176964759827 -1.565449237823486 -0.077232606709003 2.670983076095581 0.136999070644379 -1.342249989509583 1.427132844924927 -0.554557979106903 2.037325382232666 0.013222651556134 -1.631663084030151 0.246996477246284 -0.332335025072098 -0.502761304378510 0.910758554935455 -1.370990991592407 0.412795901298523 0.933557987213135 0.999522209167480 -1.269376158714294 -1.324919581413269 1.514959454536438 0.972948074340820 -0.781750082969666 1.761934041976929 0.309922695159912 0.963781774044037 0.573172390460968
2.422532320022583 -0.284249275922775 -1.180582880973816 -0.970455944538116 -1.403744816780090 0.799135565757751 0.503303885459900 0.904894292354584 -0.384451955556870 -0.528462231159210 1.444789648056030 0.341827332973480 -0.430410563945770 1.055688977241516 -0.908674836158752 1.826309084892273 -1.493373155593872 -1.195522546768188 -0.771182596683502 -1.073184609413147 0.221720576286316 -0.321646541357040 1.304311394691467 -0.638153254985809 -0.762463569641113 -1.209122657775879 -1.402336359024048 -0.750118672847748 -0.791915774345398 0.585183084011078 1.358470320701599 -0.289235115051270 0.550023376941681 0.799347221851349 1.462954521179199
-1.133506298065186 -0.347065925598145 0.860544204711914 -1.039579868316650 -0.326902210712433 -0.524865925312042 -1.154053211212158 0.077680841088295 0.911543011665344 0.846848368644714 1.489826917648315 -1.299846529960632 -0.069339737296104 0.204599812626839 -0.759809732437134 -0.856352686882019 -2.262593269348145 0.092600397765636 0.085840225219727 1.130172371864319 -0.813092827796936 -0.813474297523499 0.104128755629063 0.263336956501007 -0.091685049235821 -1.370465636253357 -0.478215932846069 1.631091952323914 0.961885750293732 0.427680253982544 1.389048218727112 1.296411037445068 -1.687949419021606 -0.230990871787071 -0.812721908092499
0.347710549831390 -0.269923627376556 -0.595429420471191 1.096984267234802 -1.877009510993958 -0.333687365055084 -0.834424734115601 -1.154549598693848 -0.454889327287674 -0.306188434362411 0.102763675153255 0.878311932086945 -1.570863604545593 0.777881383895874 0.040342528373003 3.399669408798218 1.793155670166016 -2.616741895675659 2.313530206680298 -0.194114893674850 2.218891859054565 0.986313283443451 -0.244363859295845 -1.059645175933838 -0.482513725757599 0.876181721687317 -0.815685510635376 -0.820160508155823 -0.017341906204820 0.339208632707596 -0.423450231552124 -0.590657174587250 -1.348801374435425 1.415738344192505 -0.385768175125122
1.333422541618347 1.228267669677734 -0.760527491569519 1.167721390724182 -0.441254585981369 -0.994900047779083 -0.861141264438629 0.176531970500946 0.777536153793335 1.082669854164124 -0.433238834142685 0.000418915413320 -0.146999925374985 0.007633734028786 -1.114811062812805 0.293737590312958 1.197660923004150 0.902371704578400 -1.637591123580933 0.027839219197631 0.446754127740860 -0.667793095111847 -0.725799143314362 -0.194410324096680 -0.772054731845856 -0.035452775657177 -0.740251183509827 -2.042784929275513 1.684223771095276 0.064796917140484 -1.048267602920532 0.709480345249176 -0.495733737945557 -0.811125159263611 -0.496497631072998
1.188160419464111 0.758327126502991 0.880892395973206 0.926042377948761 0.485186606645584 0.377632796764374 0.714616775512695 1.354353308677673 1.350036978721619 1.374532938003540 0.106315657496452 -0.591569423675537 1.353151917457581 0.342102169990540 0.131919875741005 2.484841108322144 0.415497958660126 -0.394790589809418 1.461690783500671 -0.245474174618721 -0.742782413959503 -0.579322218894958 1.946679830551147 -0.292817026376724 0.655995547771454 0.183682575821877 1.739477038383484 -0.582486867904663 -0.849801301956177 2.096314191818237 0.289666503667831 -0.911476016044617 0.447476208209991 -1.117272734642029 0.193680733442307
-0.234123989939690 -0.149461776018143 0.039829339832067 1.914167642593384 -0.891290664672852 -0.053131408989429 1.070468783378601 2.222265005111694 -0.970866322517395 -0.907073795795441 -0.842405617237091 1.263794660568237 -0.115900203585625 1.190630197525024 0.247690260410309 -0.149352490901947 -0.949407815933228 -1.131677389144897 -0.494406521320343 -1.960766077041626 0.093405216932297 -0.119500093162060 2.060913801193237 -1.194207549095154 2.278585910797119 0.004607635550201 1.363588094711304 0.318215787410736 1.627438664436340 0.536766707897186 -1.664055824279785 -0.758812248706818 -0.011419676244259 1.698212862014771 0.978423893451691
0.407463312149048 -2.380179882049561 -1.220613837242126 -0.261981517076492 -0.153077572584152 -2.292352914810181 -1.204551577568054 -0.116870611906052 -0.599428832530975 0.435821771621704 0.983850955963135 -0.085230775177479 0.849650323390961 0.152376323938370 1.054509997367859 -0.474026083946228 1.833239316940308 -0.850658535957336 -0.641283094882965 0.524309873580933 0.363092213869095 1.599106311798096 -2.432896852493286 -2.262115955352783 0.525035142898560 1.079829812049866 0.813370227813721 -2.341607809066772 -0.016426676884294 0.664450943470001 -0.263394832611084 1.004700183868408 0.836582124233246 -0.488277882337570 2.095256567001343
-1.464388012886047 -2.105490446090698 -0.475926339626312 0.885098338127136 -1.031858682632446 -0.637812376022339 0.849124312400818 1.410529255867004 -0.018751939758658 -1.045548796653748 0.462705582380295 -0.285753756761551 0.987924873828888 0.688019514083862 0.183926060795784 1.599113821983337 -0.103564128279686 -1.314241647720337 0.294742256402969 -0.132470309734344 -1.363435387611389 -0.624153077602386 -0.762314796447754 -0.123145490884781 -0.721463739871979 0.939643621444702 0.312576502561569 2.331430912017822 -1.280849099159241 1.030322909355164 -0.510049104690552 -0.975951075553894 -0.330686986446381 1.252647876739502 -0.288972705602646
-0.372480064630508 1.890860676765442 -0.560469508171082 -0.418869733810425 -0.931031227111816 0.708573698997498 -0.582723677158356 -0.605293393135071 -0.505525529384613 1.535069942474365 0.764820516109467 -1.642480969429016 1.037089228630066 0.486314803361893 0.879953622817993 0.237033113837242 1.148622989654541 0.368399918079376 0.229066371917725 0.317185878753662 -0.743128538131714 0.573813021183014 1.516356825828552 -0.436515986919403 0.496309071779251 0.414778083562851 -0.722909212112427 -0.963492512702942 -0.473092913627625 -0.082940183579922 -0.361967772245407 0.477441102266312 0.242942422628403 0.719881713390350 0.208799540996552
1.117206096649170 1.089401006698608 0.307771325111389 -0.139561161398888 -0.592186868190765 -0.085221268236637 -0.123454444110394 -0.846786022186279 0.312276244163513 -0.285200029611588 -1.442772507667542 0.449129253625870 0.371437847614288 1.398329257965088 -0.566696941852570 0.272819459438324 -0.387526661157608 -1.190765619277954 -1.851454019546509 -1.211281538009644 1.154325842857361 -1.989846587181091 1.150505065917969 -2.749855756759644 0.309640705585480 1.322898864746094 -0.569671213626862 0.581426024436951 -0.671371281147003 -0.659518659114838 0.092072099447250 -2.529850482940674 -0.902165710926056 0.807794153690338 -0.803704857826233
1.237363815307617 -0.408375889062881 -1.001980304718018 -1.198631882667542 -0.014923715963960 -1.605151891708374 -0.170108914375305 0.229177445173264 0.625145435333252 -0.353831470012665 0.129529848694801 -0.213620468974113 -0.450584620237350 -0.152866214513779 1.258753180503845 -1.381132483482361 0.111928321421146 -0.154317185282707 0.468166291713715 -1.217830181121826 1.706267714500427 1.832914948463440 -1.734238982200623 -0.399135082960129 0.324412167072296 -0.233269050717354 0.340933114290237 -2.589833259582520 -1.387562751770020 0.754741787910461 1.439975023269653 -0.201428622007370 -0.004364099819213 0.898348569869995 -1.242447614669800
2.143362045288086 0.573253095149994 -0.169672727584839 0.510002672672272 -1.319129824638367 1.532824754714966 -1.108667016029358 0.940688848495483 0.068621873855591 -0.708220481872559 0.667038679122925 0.199489980936050 2.186910629272461 -0.240344256162643 0.809488475322723 -0.135523736476898 -1.793356299400330 -0.272639483213425 -1.659559488296509 -1.367222666740417 0.334613204002380 -0.536672413349152 0.606623291969299 -1.768006563186646 -1.040977358818054 -0.729496538639069 -0.156853899359703 -1.107623219490051 -0.364353120326996 -0.380130857229233 -0.337160915136337 -0.515892982482910 0.396812498569489 0.129740342497826 -0.944839775562286
-0.009362118318677 1.238384008407593 -0.545289874076843 -0.810678303241730 0.668629705905914 -0.169897601008415 2.031491994857788 0.045381281524897 -0.359322190284729 -2.126691818237305 1.428156852722168 1.166363239288330 -1.386833548545837 -0.391480177640915 -0.712567269802094 -0.729933917522430 0.033219277858734 0.749134480953217 1.297868967056274 -0.780337989330292 -1.126394033432007 -1.088981866836548 0.043291844427586 0.374738454818726 0.144130021333694 -1.133335828781128 1.017215013504028 0.794236660003662 -1.639804840087891 -0.592989742755890 2.016169071197510 1.369373679161072 -0.644871830940247 -0.359731495380402 -0.047231946140528
2.522160768508911 -0.572601556777954 -0.782591581344604 -0.163035273551941 -0.747603297233582 -0.728260874748230 -0.111528307199478 -0.603205263614655 -0.918561518192291 0.192243471741676 -0.457646906375885 0.376063585281372 -0.994991481304169 -0.247908979654312 -0.231871619820595 -1.223175168037415 0.388087153434753 -1.242735862731934 0.811304390430450 0.352140575647354 -0.353259176015854 -0.063554018735886 -0.208597332239151 0.488895416259766 1.128506302833557 -0.891257047653198 -0.390558838844299 0.686088621616364 -0.442647427320480 0.582761168479919 0.809458553791046 0.564866781234741 -0.825388491153717 0.523773193359375 -1.109409093856812
-0.490201264619827 0.002029418013990 0.566052913665771 0.136212751269341 0.340672343969345 0.453747868537903 0.844100475311279 -0.445986837148666 0.977985799312592 0.278507709503174 -0.335526287555695 0.346241623163223 -0.637446224689484 -0.591404199600220 0.285768091678619 0.825309276580811 0.084144935011864 -0.010050488635898 0.566087484359741 0.844051718711853 -1.016966223716736 -0.258928686380386 -1.393108010292053 -1.275836229324341 0.055069003254175 0.458851218223572 -0.393107235431671 0.084481321275234 -0.683392524719238 0.038649424910545 0.202191308140755 -1.901229262351990 -0.841678440570831 -0.946043670177460 -1.903221249580383
0.393514037132263 -0.977972388267517 -1.700698971748352 -0.471703529357910 0.142273113131523 -0.953834176063538 -0.155447244644165 -0.432401061058044 -0.667993843555450 0.486160606145859 1.053612709045410 0.203904047608376 -0.836585104465485 -1.692588925361633 -1.276917695999146 1.214005827903748 -0.150785580277443 0.486538589000702 2.775710344314575 -1.768292546272278 0.380511939525604 1.535108447074890 -1.180868029594421 -1.426566720008850 -1.056221485137939 -0.331252664327621 -2.176222324371338 -1.128886818885803 0.680416941642761 -0.614538848400116 -1.403382062911987 1.402646064758301 -0.494505256414413 0.693389177322388 2.142551898956299
0.347021698951721 -0.920722842216492 0.644189000129700 -0.124824665486813 0.398951083421707 0.036621551960707 0.364519268274307 1.640912532806396 0.953769266605377 0.866515994071960 0.282936155796051 -2.574144840240479 1.249280810356140 0.699286341667175 1.074268579483032 -0.010708554647863 -1.002921938896179 0.833815634250641 1.156018376350403 -0.783478140830994 0.438976883888245 1.080417037010193 -3.361881732940674 1.309797286987305 1.310302019119263 -1.932963371276855 -0.985384166240692 -0.672110915184021 -1.539282679557800 0.373048216104507 -0.790022552013397 -0.062924116849899 -1.132458329200745 -0.567062973976135 -1.324517965316772
0.521343290805817 0.432581484317780 1.168242931365967 0.983955442905426 0.856174111366272 1.080037117004395 1.510921597480774 2.070983409881592 0.708924651145935 -1.228947401046753 -0.474790722131729 0.660597681999207 -0.937166392803192 -1.056178689002991 1.291181445121765 0.625649094581604 0.320325016975403 -0.800416111946106 0.403253942728043 -0.701135456562042 -0.523044884204865 -1.263014316558838 0.639510035514832 0.067165009677410 -0.167418837547302 3.247603893280029 -1.241500377655029 0.865531384944916 -0.922733426094055 -0.175266250967979 -0.589414894580841 -0.590320765972137 0.111461028456688 -0.295613586902618 -0.656889677047729
0.581349372863770 0.049129877239466 2.027218103408813 -0.224089130759239 0.568466246128082 1.066785573959351 0.733551442623138 -0.490074098110199 0.265100181102753 -0.706801772117615 0.375975728034973 -1.153688073158264 -0.172743484377861 1.445027828216553 0.405753314495087 2.067257404327393 -1.540622115135193 0.739192545413971 0.560917139053345 -0.778486669063568 -0.883468210697174 0.284728109836578 0.970448195934296 -0.416912555694580 -0.109006777405739 0.144843205809593 -0.516797840595245 -0.481604486703873 1.188153982162476 -0.144799798727036 -1.093451023101807 -1.381894588470459 0.613719224929810 0.180387139320374 -1.223613739013672
0.285181671380997 -0.908322930335999 1.541381478309631 -0.870352804660797 -0.178425982594490 -0.135048896074295 0.608731985092163 0.901211977005005 0.870717227458954 -0.780986070632935 -1.385124325752258 -0.318666577339172 -0.692496955394745 1.049558520317078 -1.158714532852173 0.563457965850830 0.618306756019592 0.259974420070648 -0.824367344379425 0.672295153141022 -1.283975720405579 -0.626740455627441 -0.824443757534027 0.520545244216919 1.788462519645691 -0.065322428941727 0.908746361732483 -0.197498455643654 0.111017517745495 -1.274482131004333 -0.342633128166199 -1.455244064331055 0.207690760493279 -1.402439475059509 0.290799826383591
0.051581446081400 -0.081459447741508 0.926071047782898 -0.984895348548889 0.434249788522720 -0.973902940750122 0.216643616557121 -0.209148123860359 -1.390762805938721 -0.665242552757263 1.191997766494751 -0.274033039808273 -0.732312977313995 -0.579508304595947 -1.132853984832764 -0.866796255111694 -0.788397014141083 1.694800019264221 -0.891831934452057 -1.933069109916687 1.363425731658936 0.461696922779083 1.567999720573425 1.768361330032349 1.268571496009827 1.355017304420471 -0.324443936347961 -0.478705972433090 0.220266878604889 0.434540629386902 -0.667068123817444 1.034577131271362 1.648035764694214 0.471078872680664 0.175008654594421
1.706446647644043 0.582717061042786 -0.133237838745117 -1.914652228355408 -0.110069036483765 0.818832993507385 1.143178462982178 -1.941298246383667 -0.282619029283524 1.843451738357544 -0.683253288269043 1.694790482521057 -1.905739903450012 -0.450652629137039 0.363063484430313 -0.065498560667038 0.303139865398407 0.089261181652546 -1.208933591842651 0.092043481767178 1.537643432617188 -0.006127078086138 0.230350285768509 0.892657697200775 0.521022915840149 0.238749623298645 -0.273762196302414 -1.777301669120789 0.603533744812012 -1.122519612312317 -0.459076046943665 -0.194632276892662 -2.325574159622192 0.147947385907173 -0.492011129856110
-1.421955108642578 0.486762851476669 0.306547850370407 0.697869539260864 0.519997537136078 -0.963973104953766 1.612155675888062 0.318024456501007 0.923760354518890 -0.321286529302597 -1.301360011100769 -0.683577775955200 0.948670089244843 -0.944047093391418 -0.642325401306152 -0.521697700023651 -0.014394363388419 1.380377292633057 -0.348455339670181 1.168365716934204 -0.381534576416016 -0.080069027841091 2.027748346328735 -0.492506563663483 0.794251859188080 1.819564580917358 -1.864230155944824 -0.116092428565025 -0.324503511190414 0.485402196645737 0.355969518423080 -2.857437372207642 0.503439307212830 -1.459450960159302 -1.141135931015015
0.585418045520782 0.180700138211250 0.609412372112274 2.152324676513672 0.965135812759399 0.507125437259674 1.516814708709717 -0.096227250993252 0.679160594940186 -0.399026632308960 -0.285296082496643 0.658185482025146 -0.674230873584747 0.550859987735748 0.573692202568054 2.110258579254150 -0.567497372627258 -0.478572338819504 -1.071944475173950 -0.133658349514008 -2.644963979721069 2.802323579788208 -0.302594810724258 -0.758806884288788 0.441702127456665 -0.261366665363312 -0.052558597177267 -0.035751897841692 -0.075011543929577 -0.984626471996307 -0.079827457666397 -0.265271484851837 0.832185924053192 0.718762457370758 0.560317039489746
