0.186464384198189 0.202086985111237 -0.919767677783966 0.394187927246094 -0.052851624786854 0.040581073611975 -0.053901612758636 0.589675784111023 1.490649700164795 -1.096648454666138 0.609885156154633 -2.045122623443604 -0.481762766838074 -0.671757876873016 -1.150389313697815 -0.368950277566910 1.065503001213074 -0.838825762271881 -0.757879376411438 0.623813569545746 -1.144644021987915 -0.521945655345917 0.234694853425026 -0.020793789997697 -0.768168866634369 -1.182152152061462 -0.024997027590871 1.905784487724304 -0.677998542785645 -1.413963079452515 -0.775518357753754 -0.302692204713821 -0.496948957443237 -0.614015161991119 -0.634623587131500
0.287624180316925 0.450804948806763 -0.100326776504517 0.875491738319397 0.982296407222748 -0.789903700351715 0.007038891781121 -0.305885523557663 -1.079174876213074 1.053100466728210 -1.497485756874084 0.286687642335892 1.493527054786682 -1.228595614433289 0.535008192062378 0.002479475922883 -0.668158292770386 -0.589518070220947 -0.556809425354004 0.033423792570829 1.191335201263428 -0.328110128641129 0.725040733814240 -0.067028306424618 -0.958876669406891 1.005462646484375 1.932970881462097 -1.691778182983398 0.260611027479172 0.710847139358521 -0.740525543689728 1.164576768875122 -0.488072097301483 0.022505206987262 1.650835037231445
0.503832459449768 0.802495777606964 1.181825160980225 0.227493107318878 1.096957325935364 1.746114253997803 -1.283004522323608 1.095494985580444 1.102331876754761 1.569850564002991 -0.338116735219955 0.019672071561217 -1.403486371040344 2.070693492889404 -0.867546975612640 -1.661104321479797 0.584163486957550 -0.603038191795349 0.680936634540558 0.432967603206635 1.191923975944519 -0.461472809314728 -0.485632121562958 1.557351231575012 2.057381391525269 1.206887006759644 -0.670273602008820 0.650349617004395 -1.754596710205078 0.256378650665283 -0.508777379989624 0.917104244232178 1.509629845619202 0.686789453029633 -1.954423189163208
0.675165414810181 0.647950530052185 2.210718870162964 0.276691973209381 2.162498235702515 -0.558676362037659 0.492994517087936 -0.099874071776867 0.682274460792542 2.003449678421021 0.030220098793507 0.884794592857361 1.302942395210266 -0.871544837951660 0.099792607128620 1.660320162773132 -1.593780755996704 0.162845432758331 -0.788333535194397 -0.014718781225383 -0.231395602226257 0.369289547204971 -1.140197634696960 -0.353403478860855 -0.539144039154053 -0.718155860900879 1.564640522003174 0.625913381576538 -0.042166039347649 0.400028645992279 -0.156310066580772 0.906761765480042 -1.706056952476501 0.800551652908325 0.571044445037842
0.653988122940063 0.854888379573822 -1.121628284454346 2.044886827468872 0.631253838539124 1.134793639183044 0.494997680187225 1.169026970863342 1.683034539222717 -1.819099426269531 0.240080937743187 -0.049343638122082 1.696722984313965 1.585230708122253 -0.746034204959869 -1.962802767753601 0.488926649093628 -0.502683460712433 0.556219995021820 0.333709031343460 0.228778555989265 1.001682877540588 2.122492790222168 -0.225877150893211 -0.466978996992111 -0.359791666269302 0.197023198008537 -0.143595471978188 0.201300591230392 -2.146662235260010 0.066415600478649 -0.136124745011330 -0.268255323171616 2.504815101623535 -0.535416066646576
1.160305857658386 0.284215480089188 1.125835299491882 0.610408484935760 -0.548074543476105 -2.795390129089355 0.868538975715637 -1.729348421096802 0.145450294017792 -1.316017508506775 1.014677882194519 0.496203094720840 0.108555048704147 0.641386568546295 -0.515410065650940 -1.422519683837891 -0.404890745878220 -0.348745852708817 1.973606228828430 -2.186901807785034 -0.102890804409981 0.201750308275223 0.826537430286407 1.767633438110352 0.480156064033508 1.191463232040405 0.546172022819519 0.064694166183472 0.827237486839294 0.684003472328186 0.269971877336502 0.673176348209381 0.318358689546585 0.103748276829720 0.643163859844208
0.203854158520699 0.063298046588898 0.350387424230576 -1.176073312759399 0.350826621055603 -0.475652545690536 0.006251695100218 0.370567232370377 1.180870294570923 -0.146161720156670 0.445644944906235 -0.158845022320747 0.519566297531128 -1.147492408752441 0.951255977153778 -1.351850032806396 0.496337980031967 1.246689796447754 1.267363190650940 -0.530154466629028 -0.505335748195648 0.683805465698242 -0.725612342357635 0.188744381070137 -2.499263763427734 1.022632360458374 0.337154537439346 0.567430555820465 -0.239454090595245 0.718704998493195 0.525276064872742 -0.449584811925888 0.057023879140615 -0.032122399657965 0.833822429180145
0.017396597191691 0.996991038322449 0.442231178283691 -0.250026136636734 1.163552522659302 -1.356200337409973 -1.018124341964722 0.979834198951721 0.239546209573746 -0.750552058219910 -0.355527698993683 0.531468093395233 -1.550014495849609 -2.430671691894531 -0.836931407451630 0.001173465629108 0.477674216032028 0.104290157556534 -1.002156138420105 0.687860012054443 0.803975105285645 -0.334272146224976 0.869274079799652 0.604714214801788 -0.542828619480133 -1.139455556869507 1.228092670440674 0.455306798219681 -1.869733929634094 0.315791487693787 0.271713197231293 -1.158274769783020 1.192157864570618 0.635600328445435 -0.459524065256119
1.034980416297913 -0.517639100551605 -0.928369700908661 0.284921050071716 -1.426765322685242 1.052893280982971 0.113122291862965 0.693221032619476 -0.922187030315399 -0.800041675567627 0.013641782104969 1.029014587402344 -0.820152103900909 0.022434009239078 2.896215438842773 -0.279573172330856 0.269513279199600 -1.414205789566040 1.664482116699219 -0.121214129030704 -1.410130262374878 0.163309544324875 -0.129184186458588 -0.068883016705513 -1.079031586647034 2.358700275421143 -0.297829508781433 0.207899868488312 1.077507019042969 -0.466831237077713 0.771577537059784 0.607197344303131 0.424786061048508 0.646076798439026 -0.422533780336380
0.433323144912720 0.249836161732674 2.502861738204956 -1.078247904777527 1.007673144340515 1.531170725822449 0.004500062670559 -0.168664589524269 1.369989395141602 -2.050103425979614 0.807107031345367 -1.362939715385437 -0.433179497718811 -0.219372630119324 1.943095445632935 -1.657155752182007 0.325295716524124 0.183101341128349 1.277259469032288 0.801544487476349 1.361786842346191 -2.535497665405273 0.079112976789474 1.481773018836975 -0.009818353690207 1.129206895828247 1.109874010086060 0.370563089847565 -0.044325564056635 -1.573155999183655 -0.707905173301697 0.217139527201653 -0.157797306776047 -1.805303812026978 0.191040381789207
0.110377959907055 -1.851726293563843 0.128238216042519 -1.509814739227295 -1.587381005287170 0.358373552560806 1.725039482116699 0.625992894172668 1.004280805587769 -0.402690440416336 0.426050335168839 -0.392861396074295 -0.174898266792297 -0.621085405349731 0.232896059751511 -0.744399368762970 0.934058725833893 1.011263370513916 -1.230640172958374 0.321432888507843 -1.140491008758545 -0.564750015735626 -0.288107633590698 0.897750198841095 -0.884506762027740 -1.274614810943604 -0.346623659133911 -0.847685217857361 -1.213070869445801 0.808946251869202 0.541060328483582 -0.570939064025879 0.070035167038441 1.764162063598633 0.195193305611610
0.846309006214142 0.513894855976105 0.571821033954620 -1.193766117095947 -1.486894965171814 0.454900234937668 -2.156987190246582 1.372066617012024 -0.948048174381256 0.402599334716797 0.322534531354904 0.180103406310081 0.193317398428917 -0.951505839824677 -0.000737133086659 0.218704193830490 -1.352085709571838 -0.105045489966869 -0.162016451358795 -0.529182493686676 -0.456741243600845 0.109566837549210 -0.131579115986824 1.183019757270813 -0.809968829154968 -0.468596875667572 0.302798926830292 0.665454208850861 -0.902541041374207 1.223350644111633 0.055780448019505 -0.292389333248138 0.317457497119904 1.884490013122559 -1.455225586891174
-1.224796772003174 -0.260384798049927 -1.514589548110962 0.580428659915924 1.028946161270142 1.930456519126892 0.379234194755554 -0.633214890956879 1.192564845085144 -0.172311916947365 -0.972962498664856 -2.233484506607056 -1.568833351135254 -2.472921133041382 0.072937101125717 -0.499068766832352 -0.172918334603310 0.003276991657913 0.537988185882568 0.431880444288254 -1.634003043174744 1.060532212257385 -0.848935902118683 0.246901065111160 -1.915993452072144 -0.359879344701767 1.239310264587402 -1.215223789215088 0.891394615173340 -0.465513318777084 -0.214036375284195 -0.249827444553375 0.077422566711903 1.769359350204468 0.144285872578621
1.001284837722778 0.067141532897949 0.651989281177521 1.082642316818237 -0.396474897861481 2.031069517135620 -0.729762196540833 0.547641456127167 -0.283683508634567 -1.368338108062744 -0.376632034778595 -1.242369174957275 -1.574321508407593 1.589601874351501 1.277761697769165 -1.466626167297363 -0.508527517318726 -1.202176809310913 0.945353269577026 0.827400207519531 -0.343810886144638 0.544284641742706 -1.020384907722473 -0.655956983566284 -0.451933264732361 1.084443569183350 -2.188206434249878 1.230951428413391 -0.738101720809937 -1.931487202644348 0.815869152545929 0.792084217071533 -0.452194482088089 0.556701421737671 -1.248634815216064
-0.071191154420376 -0.125704675912857 0.311201900243759 0.543457686901093 -2.135310173034668 -0.972613513469696 0.897612452507019 -0.460357815027237 -0.615753293037415 -1.882193684577942 1.369428396224976 -0.502681016921997 -0.271565228700638 -0.041034132242203 -0.471282184123993 -0.057370033115149 3.195369720458984 0.169733613729477 1.007665634155273 -1.414310097694397 -1.032824516296387 -0.341615855693817 -0.187805682420731 1.208138108253479 1.314485907554626 -2.741428613662720 0.193344891071320 -0.687946617603302 -1.252569675445557 0.649958014488220 -1.062684774398804 -0.526269078254700 0.290432989597321 -2.264722824096680 -1.040904879570007
-0.500491261482239 0.045475024729967 -0.402319818735123 -0.456234991550446 -0.380728006362915 0.985777199268341 0.035585772246122 1.725429415702820 -0.110881187021732 -0.818236112594604 0.862749159336090 -0.339576810598373 -0.218591138720512 2.304966688156128 0.341062486171722 0.290558099746704 0.683103680610657 -0.560410439968109 0.243002831935883 -0.013639329001307 -0.009761124849319 -1.667268514633179 0.415121167898178 -0.716408967971802 -0.038151856511831 -1.427269339561462 -0.135475412011147 1.518969774246216 -1.815160632133484 -0.851909577846527 -1.330713629722595 0.662643611431122 0.094661131501198 1.041849732398987 -1.480193853378296
-0.573173165321350 0.406014680862427 1.498018503189087 0.418041884899139 -0.690383613109589 -0.707934498786926 -0.172804981470108 0.218853399157524 0.808359682559967 0.033326927572489 -0.985783874988556 0.921348154544830 1.630982160568237 0.719672620296478 -1.271701097488403 -0.293175697326660 -0.572823047637939 0.387387216091156 -0.355796724557877 -0.358769029378891 0.297496527433395 -0.000222293820116 -1.908959507942200 0.901758193969727 0.054876681417227 0.789120614528656 0.543572902679443 -0.206772819161415 -0.796933412551880 -0.494370758533478 -0.032350406050682 1.780401825904846 0.848150193691254 0.810568273067474 -0.676433861255646
0.507163226604462 1.162921071052551 0.463017046451569 -1.036666512489319 1.710132122039795 -0.290697604417801 0.814300894737244 0.346842914819717 -0.548221826553345 -0.362518757581711 -0.135109052062035 -0.819964349269867 0.457627356052399 1.707166075706482 0.238667547702789 -0.464968413114548 1.144831538200378 0.131059065461159 -0.015857556834817 1.644432425498962 -0.234706282615662 1.347942233085632 1.085896253585815 -0.274661630392075 -0.447377502918243 0.457378417253494 -0.503681898117065 -0.596745014190674 -0.073086835443974 0.756201088428497 0.132498860359192 0.346662104129791 -0.757103741168976 -0.353617250919342 -0.546502470970154
0.030127909034491 0.179837465286255 0.679977536201477 -0.267611384391785 0.224671438336372 -0.146348312497139 1.099046707153320 0.441052287817001 -0.223140910267830 -0.539542317390442 0.637966752052307 -0.322680294513702 0.179363951086998 0.006915619131178 0.242725372314453 1.645472645759583 1.296469211578369 -0.424651712179184 -0.366034418344498 0.895915865898132 -0.432730257511139 -1.031157493591309 1.043552279472351 0.888965368270874 -0.210214480757713 0.704298675060272 -0.717062175273895 -0.975904643535614 -1.376884460449219 1.161568760871887 0.229174941778183 0.683138370513916 0.913689315319061 0.562801539897919 0.970809757709503
0.685168743133545 -0.171072080731392 0.284885197877884 0.861631631851196 0.431875169277191 1.272640943527222 0.986937165260315 0.804017424583435 0.350114673376083 -0.207385599613190 1.639342904090881 -0.542157471179962 0.533955931663513 0.661907732486725 -0.846163868904114 -0.880277812480927 -1.461374640464783 -1.524509906768799 0.812691330909729 -0.182730719447136 1.412456035614014 0.648805439472198 -2.317728757858276 -0.711391985416412 1.624501585960388 -0.145798191428185 -0.001516001182608 -0.963109612464905 -0.340401172637939 1.904436588287354 -1.358120322227478 -1.116516947746277 0.326474070549011 -0.516126275062561 2.990525245666504
0.087244674563408 1.476764798164368 -0.003375377273187 0.093913771212101 -0.532482385635376 1.026322126388550 -0.631925106048584 0.990667581558228 -1.618928432464600 0.873695373535156 -0.447040438652039 0.667127966880798 0.105058245360851 -0.116690650582314 -0.363427519798279 2.575072050094604 0.701893031597137 0.562365233898163 0.169749289751053 0.504523396492004 0.857657849788666 -2.284146785736084 -1.324749708175659 0.301533848047256 -0.009830413386226 1.151553988456726 -0.621875882148743 1.170317292213440 -1.137046098709106 0.851185500621796 0.801232993602753 0.269455581903458 1.356089591979980 0.927179098129272 -0.900175809860229
1.153266906738281 0.792852818965912 -0.637967646121979 -2.472700357437134 -1.516811490058899 0.785359084606171 -2.910925149917603 -0.535454750061035 -0.330433815717697 -1.401306152343750 0.386720508337021 -0.189845696091652 0.548488557338715 -0.474757522344589 -0.128370225429535 0.209069892764091 1.171954274177551 -0.250712662935257 -0.593839168548584 -0.560883462429047 -1.411059379577637 -0.962697625160217 2.251219749450684 -1.480036616325378 -0.589027643203735 0.046443235129118 -0.573451042175293 0.787909388542175 -1.102755069732666 -0.395875394344330 -0.981307744979858 -0.805177807807922 -1.317955613136292 1.101799607276917 -0.149909272789955
0.354776501655579 -0.052739683538675 -1.210435152053833 -1.331026554107666 0.635593771934509 0.386953324079514 -0.501403689384460 0.553380370140076 -0.195343032479286 0.367771029472351 -0.815587580204010 -0.442971050739288 -0.030230501666665 1.182963728904724 0.177842274308205 0.348136603832245 -0.065147273242474 -0.458294868469238 1.742465496063232 0.072858542203903 -1.085909008979797 -0.532339572906494 -0.243261158466339 0.237141519784927 -0.539466738700867 -0.050323750823736 -1.314452528953552 1.199108362197876 0.372138947248459 -0.323558211326599 -0.773303210735321 1.405286669731140 -1.595521926879883 -0.844445407390594 -0.603851974010468
0.285627901554108 -0.098718561232090 -0.152301013469696 0.556455135345459 -0.299774438142776 -0.820235490798950 0.665397286415100 0.216053739190102 -0.447881728410721 -0.863140642642975 0.097224414348602 0.206177592277527 -0.181300356984138 1.041561961174011 -0.998166322708130 -0.070302508771420 -0.408525288105011 0.924151062965393 1.390080928802490 2.427237033843994 1.955250859260559 -1.104957342147827 0.034380014985800 -0.385084748268127 -2.090599060058594 -1.318243145942688 0.190814808011055 -1.124218344688416 0.013733888976276 -1.269759058952332 -0.160072833299637 -0.976134121417999 1.412123680114746 -0.206967070698738 -1.318189144134521
3.154474258422852 -1.327388167381287 0.993666172027588 -0.410215914249420 1.818342328071594 0.589116930961609 0.505458712577820 0.424315303564072 0.128607109189034 0.563996911048889 0.430905908346176 0.875243544578552 -1.279655694961548 -0.057012747973204 0.197787836194038 -1.346480727195740 0.705817461013794 -0.522795915603638 1.190336942672729 -1.378394603729248 -1.127477645874023 -0.869719386100769 -0.604803740978241 -0.750472068786621 0.561205029487610 -1.507013440132141 -0.349128872156143 -0.078211426734924 0.116715066134930 -1.340353608131409 0.242529496550560 -0.310076326131821 -0.128397032618523 2.016311883926392 0.323648840188980
0.309741199016571 -1.082391500473022 -0.432993024587631 1.555746316909790 -1.004919767379761 -0.750696361064911 -0.432204782962799 -1.119030475616455 -0.293544143438339 -0.641760885715485 -0.372482776641846 -0.696994543075562 0.373746633529663 -0.324813902378082 0.413813054561615 0.415114521980286 1.792111873626709 -1.232236981391907 0.546988427639008 -1.403255343437195 0.433029860258102 -0.102334395051003 1.455271124839783 1.246863245964050 -0.647976756095886 -0.162047788500786 -1.846861362457275 0.970513522624969 0.843689620494843 -2.877755641937256 -0.377254694700241 -0.056047622114420 0.094013281166553 -0.362431645393372 0.702916502952576
1.334075331687927 1.951080679893494 2.208021879196167 0.226015359163284 -2.306433439254761 0.038543809205294 0.957883596420288 -0.385989636182785 0.347020834684372 -0.754913151264191 0.186040595173836 0.395260095596313 -1.282134056091309 0.649376332759857 -0.174807786941528 1.320487737655640 0.527879834175110 -0.097855173051357 -0.022677447646856 0.061472669243813 2.917148113250732 0.999727606773376 0.353186100721359 0.268573671579361 -0.089381985366344 -0.470106214284897 0.936408460140228 0.216226890683174 -0.717359662055969 -0.736697971820831 -1.137081503868103 -1.286365151405334 0.940118610858917 -0.036090265959501 0.159434407949448
-0.433398991823196 -1.479966640472412 0.274365186691284 -0.009533640928566 1.508517146110535 0.684600710868835 -0.368803232908249 -0.626484215259552 -0.225705921649933 1.516680955886841 -1.169834136962891 -0.776251614093781 1.230624675750732 -0.768507659435272 1.986420869827271 1.953263282775879 -0.375216335058212 0.758048772811890 -0.533373653888702 0.745435953140259 0.653209209442139 1.663759589195251 1.615372180938721 0.267912477254868 -0.760326981544495 0.277031928300858 0.486295491456985 -0.038357276469469 -0.471399515867233 -0.321339368820190 -1.611516952514648 -1.359468460083008 -0.266831636428833 0.044439002871513 0.685016334056854
0.082557387650013 0.216897428035736 0.493271887302399 1.520181417465210 -0.094335816800594 0.687542140483856 1.998804330825806 -0.368480175733566 -1.441489577293396 -0.190363392233849 -0.253899306058884 -1.236584544181824 0.194869041442871 -0.026929318904877 -0.711157262325287 0.311169207096100 -0.601390242576599 -0.700840055942535 -0.212105467915535 0.066551536321640 0.818319797515869 -0.863668978214264 1.594293832778931 1.237785935401917 0.224610805511475 0.160376295447350 -1.908017158508301 -2.041949748992920 -0.199983701109886 -0.736818969249725 -0.112171031534672 0.929143190383911 -0.903343141078949 -0.741265177726746 -0.033672016113997
-1.240406632423401 -0.826047778129578 1.438488125801086 -0.259535938501358 -0.662575662136078 -0.056397285312414 -2.007403135299683 -0.295302003622055 0.526543498039246 -0.337430536746979 -1.244628190994263 1.051695704460144 -0.237940773367882 0.363560557365417 -0.178467154502869 0.035830851644278 -0.184574946761131 0.007215186953545 -0.045704152435064 1.233611226081848 1.799018859863281 -1.287309527397156 1.484259843826294 1.776987552642822 -0.317996293306351 0.399335503578186 0.289455085992813 -1.470590829849243 -1.738863468170166 0.555851101875305 0.552491664886475 0.768874406814575 -1.332504391670227 -0.384134590625763 -0.184708133339882
0.066005505621433 -0.410154193639755 -0.153492078185081 0.223849177360535 -0.648357212543488 -2.424043416976929 0.254725694656372 -2.539825439453125 -0.052424658089876 -0.142233967781067 0.307351678609848 -1.419216394424438 0.302198946475983 0.212572559714317 -0.480058878660202 -0.136177599430084 0.422296434640884 -0.549795746803284 0.789901971817017 -1.567117452621460 0.732668519020081 -1.085777521133423 0.485158443450928 -0.183406636118889 -0.322232872247696 -0.026267839595675 0.050463337451220 0.345529645681381 1.044656395912170 -0.174684688448906 -0.438714265823364 -0.471401631832123 -0.622712850570679 0.412424683570862 0.290952444076538
-0.409482896327972 0.305220395326614 -2.138095140457153 -1.644265294075012 0.091932050883770 0.803628206253052 0.645944774150848 -2.306151628494263 -0.780573427677155 -0.725702047348022 -0.723022520542145 -0.234850123524666 0.863117575645447 -0.553314149379730 0.067488670349121 1.823396921157837 0.437152117490768 -0.870070040225983 1.994339227676392 1.133568286895752 0.866087794303894 0.040733769536018 -0.810234665870667 0.101688832044601 -1.069573521614075 1.301434278488159 0.962702035903931 0.365763723850250 0.001720977830701 1.275463581085205 0.715229570865631 1.459672451019287 0.707221031188965 1.143872499465942 -0.124276161193848
1.677715778350830 -0.306782662868500 0.314230591058731 -1.431488871574402 -0.532035231590271 -0.983058333396912 -0.448686003684998 -0.868576407432556 -0.494083881378174 0.349244087934494 -0.776116847991943 0.807324171066284 1.066282749176025 -0.359124541282654 0.811855733394623 -1.466069579124451 -1.126757621765137 -0.993671894073486 -0.906427919864655 -0.890666067600250 -0.899538993835449 -1.666260719299316 -0.374612361192703 0.017132192850113 -1.531018018722534 0.188625484704971 0.379195064306259 -0.210169032216072 0.783251285552979 -2.811305522918701 0.352168500423431 0.259245693683624 -1.000821828842163 -0.191490769386292 -0.713378190994263
-0.852602005004883 1.891414284706116 -2.279934644699097 -0.404843628406525 0.796113908290863 -0.358079820871353 1.497608900070190 1.077365279197693 -0.238686546683311 -0.644666850566864 0.287772893905640 0.582114577293396 -0.643842101097107 1.564773917198181 0.221004337072372 1.271094679832458 0.844100534915924 2.402957677841187 -1.177373886108398 0.088573746383190 0.558428108692169 1.690023183822632 1.229354381561279 -0.120893165469170 0.472023785114288 -0.168460518121719 0.467463582754135 0.177229732275009 -0.380463749170303 -0.601168811321259 -0.998996019363403 1.202659845352173 -1.396000027656555 0.695280253887177 -0.171961456537247
1.049699902534485 -0.804191231727600 0.097247987985611 -2.165040969848633 0.838085293769836 -0.739978849887848 -1.403770565986633 -0.495416164398193 -1.598395228385925 -0.853536367416382 1.954046010971069 -0.779795348644257 0.812389552593231 0.281938165426254 0.319329142570496 0.475354731082916 0.895388245582581 -0.962053537368774 -0.554165422916412 1.065186858177185 0.032297678291798 -1.117396473884583 -0.010213418863714 0.353904843330383 1.158015012741089 1.064859151840210 0.835491597652435 -2.399835109710693 1.822951197624207 -0.809415519237518 0.006703030318022 -1.488899111747742 0.582662284374237 0.705078840255737 -1.262825965881348
-0.921072244644165 -0.528768420219421 -0.165524616837502 -1.139258623123169 -0.438304185867310 0.115740671753883 2.124102830886841 0.142860442399979 -1.437340617179871 0.316940635442734 -1.815708041191101 -0.202867433428764 -0.788898706436157 -0.310392051935196 -0.150611281394958 0.213700443506241 1.310637712478638 -1.187993884086609 -0.044760834425688 -0.110205516219139 -0.364735811948776 -0.831860423088074 0.497243821620941 -1.034414887428284 -0.613755464553833 1.039668321609497 -0.148499071598053 0.009878673590720 -0.667626082897186 0.140363454818726 0.474710643291473 -1.457111120223999 0.375382155179977 -0.296336770057678 1.844949364662170
1.967044472694397 0.414975702762604 1.502884984016418 0.613950192928314 0.056671980768442 0.200061216950417 -0.676286160945892 0.439817309379578 -0.264911919832230 -1.440389871597290 2.780667543411255 -1.052441120147705 1.426570653915405 0.026028476655483 0.429363131523132 -0.216432943940163 1.421748876571655 1.106971621513367 1.733404397964478 -1.298089027404785 0.640064895153046 -0.212418034672737 -0.601426899433136 1.275226712226868 1.071733355522156 -0.150526911020279 -0.596182405948639 0.296637833118439 -0.267749309539795 -1.364355087280273 0.151313006877899 1.294895887374878 0.431536614894867 0.147885203361511 -0.529112398624420
2.088117361068726 -0.570164382457733 -0.494614183902740 1.541098833084106 -0.301272273063660 1.102661848068237 0.234956979751587 0.033614888787270 -0.047940704971552 -1.271595597267151 0.713089704513550 0.103232719004154 0.897679507732391 -0.596994936466217 -0.491567403078079 -0.598963975906372 1.525602817535400 -0.623405158519745 1.327973723411560 -1.032114982604980 0.830599546432495 -0.978075861930847 0.560017168521881 0.626620650291443 -1.018758058547974 -1.127676248550415 0.192102789878845 0.147938340902328 -0.773614227771759 0.619528710842133 -0.216846197843552 -0.764479339122772 0.992782056331635 0.345815509557724 0.810292303562164
-0.413328051567078 -0.285152405500412 1.072586417198181 0.389287322759628 -1.965829253196716 -0.524365425109863 -1.719732284545898 1.079274058341980 -0.331799656152725 0.294359683990479 -0.487582653760910 0.109051518142223 0.870492994785309 -0.093362398445606 0.092252478003502 -0.280622333288193 -0.173196360468864 -1.241990685462952 -1.422021865844727 -0.093906648457050 0.239085555076599 -1.375335454940796 0.439324676990509 0.595715343952179 0.184357389807701 -2.269257307052612 -0.119229815900326 0.910084903240204 -1.801579356193542 -0.999136328697205 -0.973525166511536 -1.219773888587952 -1.314419865608215 0.259736925363541 -0.459713160991669
-1.193593382835388 -0.900696814060211 1.204589366912842 0.785349190235138 1.274201154708862 -1.207348465919495 0.167487084865570 1.430006504058838 0.876955568790436 0.811024487018585 -0.871430695056915 -1.585048317909241 -0.547017455101013 1.363174676895142 0.863551199436188 -1.093015432357788 1.163237571716309 -0.977015972137451 0.255730390548706 1.019274473190308 1.229636669158936 1.197455763816833 0.667850375175476 1.255386352539062 0.653579115867615 0.847395718097687 0.862322688102722 0.345330148935318 0.046877052634954 -2.454945802688599 -1.443681120872498 -1.170313715934753 0.072088427841663 1.140597581863403 -1.012145638465881
1.781857013702393 0.569623410701752 1.360408902168274 0.508633613586426 -0.009559215977788 0.993518471717834 0.401005387306213 -0.370733141899109 0.799773871898651 -0.277503192424774 -0.036498166620731 -0.333898693323135 -0.165634617209435 0.262880027294159 -0.947551965713501 -0.178582355380058 0.166259542107582 -0.159112051129341 -1.773871541023254 -0.841609835624695 0.140454813838005 -0.288181066513062 -0.960315465927124 -0.787750840187073 -0.183980643749237 1.263980507850647 1.847750186920166 2.034241676330566 0.958026349544525 0.201841637492180 -0.312250733375549 -0.263173460960388 -0.303257226943970 -0.236343145370483 -0.052068263292313
-0.160840913653374 1.446180462837219 -0.301934421062469 0.282273620367050 1.282378911972046 0.091977037489414 0.990503251552582 -0.270794808864594 -1.678304791450500 1.461125731468201 -0.969274640083313 0.301458775997162 1.011566400527954 0.410068601369858 -1.237935185432434 -0.041037965565920 -0.352835386991501 -1.832901477813721 -0.525643289089203 0.180902034044266 0.054234743118286 0.065520398318768 0.068644754588604 0.545007526874542 1.174493908882141 0.567313075065613 0.078846350312233 -0.074288114905357 1.990392565727234 -0.633663237094879 -0.103404827415943 0.340642035007477 -2.045999288558960 1.202962040901184 -0.511298418045044
1.351504683494568 -0.118919529020786 -0.795792400836945 0.218538388609886 -0.562286317348480 -1.793089985847473 0.386540770530701 -0.720037043094635 -0.984834492206573 0.293897002935410 -0.065016947686672 -1.131652474403381 -0.264314085245132 0.599727869033813 -0.472986936569214 -1.174236297607422 -1.871966361999512 0.676468789577484 0.942594647407532 -1.145476818084717 0.696481525897980 -1.219459533691406 -0.107409715652466 1.858884930610657 -0.280622571706772 0.158615499734879 -0.796722292900085 1.208166837692261 0.092420592904091 1.018185853958130 -0.847084879875183 -0.987688362598419 -0.222205534577370 0.037955991923809 1.488677620887756
1.251652479171753 -1.262746691703796 -2.027542114257812 1.477273344993591 -0.484902322292328 -0.914771258831024 -1.016830682754517 0.150083824992180 -0.996479153633118 0.304722666740417 -0.827164053916931 -1.496320366859436 -0.432957500219345 -1.026065349578857 2.658904314041138 -0.680407941341400 -0.412962138652802 0.050106294453144 -2.218375682830811 0.641248345375061 -2.095483779907227 1.527705430984497 -0.400098204612732 0.257220774888992 0.008949912153184 1.695515632629395 -0.959639430046082 -1.271687746047974 -0.654189407825470 -0.698243260383606 0.462272763252258 0.358103275299072 -1.359359145164490 -0.349010586738586 -1.181885480880737
-0.939341783523560 -0.706130921840668 0.796684980392456 1.364535689353943 1.955804347991943 1.370408296585083 -1.030654072761536 -0.400886595249176 -0.302225947380066 -1.040760874748230 1.282601833343506 -0.888751626014709 1.946000695228577 -1.174831748008728 -0.484197944402695 -0.875269174575806 1.591658353805542 -1.389504909515381 -1.098883628845215 -0.547089099884033 -0.925128340721130 -1.753995656967163 0.131492659449577 1.216050505638123 0.036370266228914 -1.091170310974121 -0.616897821426392 1.554387927055359 -0.990677952766418 -0.069622166454792 -0.657613098621368 -1.561012864112854 -0.582636654376984 -0.340341031551361 -0.034683000296354
-0.601696133613586 0.001769445720129 0.043724518269300 -0.158983781933784 0.575656294822693 -0.071268901228905 0.668105781078339 1.684220075607300 0.054873175919056 0.645300507545471 -1.717978954315186 -0.721455395221710 0.045432925224304 1.134281396865845 0.168923467397690 -1.750712990760803 -0.315314352512360 0.218050613999367 -1.322949409484863 -0.138296499848366 -0.903439998626709 -0.675050497055054 1.193136572837830 -1.006080389022827 0.710794687271118 0.820456981658936 -0.391599476337433 1.258613467216492 -0.159997582435608 2.805576086044312 1.858177185058594 0.530703783035278 -0.329745620489120 1.026600480079651 -1.598790764808655
0.779690325260162 0.840790033340454 -0.384273171424866 0.863080978393555 -0.573530256748199 0.079874344170094 -0.109620973467827 0.158709242939949 1.440910220146179 -0.207297429442406 1.427234292030334 -1.944371819496155 0.141843482851982 -0.831172823905945 1.392614126205444 -0.749265670776367 1.480323672294617 1.116777777671814 1.032053232192993 -0.558291018009186 1.474540114402771 -0.887217044830322 -0.777638375759125 1.220934152603149 -1.214340209960938 0.662895739078522 0.547698795795441 1.045487880706787 -0.069854937493801 1.177505373954773 -0.044014964252710 0.746915102005005 0.402404934167862 0.052691213786602 1.732285141944885
0.848857641220093 -0.051745783537626 0.373225957155228 0.535871624946594 0.207513630390167 0.070047177374363 -0.552938580513000 -1.271724581718445 0.172524943947792 0.779425024986267 0.473276138305664 0.127020820975304 0.533420443534851 0.526898145675659 0.600012779235840 0.242186218500137 -0.300127863883972 0.869316220283508 -1.317543148994446 -0.968079328536987 1.373705744743347 -1.897267341613770 -1.077070713043213 0.650548517704010 -2.323271512985229 -0.475963890552521 -1.370668888092041 -0.390290200710297 -0.944504499435425 -1.189171552658081 -0.447450786828995 1.168088197708130 -1.388956904411316 -1.537027716636658 0.220459565520287
-0.942074120044708 -0.523159563541412 0.228361755609512 0.248461097478867 -1.474682569503784 0.410505264997482 1.522280693054199 -0.442201197147369 -1.150730133056641 0.343079715967178 0.728325068950653 0.051055099815130 2.014880180358887 -0.253207564353943 1.654165387153625 -0.659790694713593 -0.147164955735207 -2.030297756195068 -0.190208479762077 -0.403012096881866 -0.606966137886047 0.931151568889618 0.290552556514740 1.558161377906799 0.230729997158051 -0.874982118606567 -0.449214220046997 0.336783349514008 -2.134043216705322 -1.754798412322998 -1.038241386413574 -0.486138433218002 -0.081586457788944 -0.339549839496613 0.251964002847672
-1.232948422431946 -1.233478188514709 0.595644891262054 -0.600182890892029 -0.792395591735840 1.863622307777405 -1.143335580825806 1.335350275039673 -1.450340151786804 -1.552108287811279 0.434154421091080 0.040401116013527 0.784194290637970 0.629210293292999 -0.599128782749176 -0.215862751007080 0.650167465209961 -2.636234521865845 0.125535130500793 -0.659259259700775 -0.297070324420929 0.936231791973114 -0.585823535919189 -0.083693742752075 -1.196233153343201 0.844519138336182 -0.310544759035110 -1.209766030311584 -0.163986518979073 -0.627097010612488 -0.875041484832764 -0.390139192342758 0.263139516115189 0.979105174541473 -0.843948662281036
-1.315865755081177 0.542817473411560 -0.313734471797943 -1.527377963066101 1.433091878890991 0.780714511871338 0.203135550022125 -0.344287425279617 1.411822795867920 0.430024862289429 -1.513624906539917 -0.403590917587280 0.753455758094788 2.542866945266724 0.646069169044495 -0.280484259128571 -0.216777622699738 -0.665036857128143 0.080407515168190 0.870722591876984 2.325387954711914 -0.635328650474548 -0.061889372766018 -0.249899461865425 0.009501361288130 0.796816408634186 1.079668045043945 -1.225617527961731 -0.379040241241455 -0.506269395351410 -1.222449779510498 -0.583631098270416 0.449358940124512 0.618294298648834 0.502466619014740
-1.284728884696960 1.078694224357605 -0.788987457752228 -0.505883038043976 1.344633460044861 0.221304461359978 -1.104591250419617 0.016018953174353 0.020088436082006 -1.931197881698608 -0.796923398971558 1.121487498283386 0.390167504549026 -1.068920254707336 -0.786494970321655 0.792432129383087 -0.923676192760468 1.277210354804993 -0.169589936733246 0.808307826519012 -0.201616466045380 0.839642584323883 -0.088440209627151 1.613299131393433 -0.638991296291351 0.756330549716949 0.807094514369965 1.060512900352478 0.224080383777618 1.172261953353882 0.655116140842438 0.836781144142151 0.508828878402710 -1.279576063156128 -0.822795808315277
0.627525210380554 1.159245848655701 0.104327566921711 1.635272383689880 0.290853798389435 0.281278580427170 -0.144026547670364 0.013664645142853 2.394531488418579 1.406974077224731 1.417684793472290 0.966036021709442 -0.149002522230148 -1.432949542999268 -0.019744047895074 -2.093059062957764 1.082183718681335 2.575163125991821 0.402597844600677 -1.830966353416443 -1.071657299995422 0.232434883713722 0.308582812547684 0.056709185242653 0.030478924512863 1.482680320739746 -1.290090084075928 0.015481289476156 -0.708708167076111 0.416944205760956 0.859584867954254 -0.236707374453545 -0.084431730210781 -1.273464918136597 0.030452637001872
-1.585399866104126 -0.217136099934578 1.995957612991333 -1.074051380157471 0.675527155399323 -0.468782603740692 -1.028524160385132 -1.067372202873230 -1.547618269920349 0.022354893386364 2.055611848831177 -0.529700636863708 0.452919214963913 -0.942975163459778 -0.092505484819412 -1.102949976921082 0.590235054492950 0.716167628765106 -1.478746414184570 -1.208526611328125 0.518845021724701 0.917979538440704 -0.261346846818924 -1.350558876991272 0.279153287410736 -0.782212853431702 0.213046714663506 -0.123128972947598 1.105304121971130 0.198216974735260 -0.329882979393005 0.279112339019775 -0.729427456855774 0.527406811714172 -0.061112653464079
1.528169274330139 0.346752911806107 1.226265907287598 -0.112944990396500 -1.059234619140625 0.260597467422485 0.350931704044342 0.389169931411743 -0.743833422660828 -1.589393854141235 -0.376588940620422 0.690416336059570 0.744682788848877 -0.772810518741608 -0.591306030750275 -0.970509588718414 -0.485603481531143 1.320234537124634 1.157206177711487 -0.161842688918114 0.089782893657684 -0.271127700805664 -0.182111337780952 -0.025837160646915 2.532544612884521 0.932381212711334 0.277754515409470 0.519023895263672 -0.431654036045074 -0.500118970870972 1.275131940841675 -0.970344364643097 -2.270679950714111 0.000449339102488 1.986026048660278
0.250615417957306 1.239899992942810 0.111957266926765 1.539750695228577 -0.477196216583252 0.669659972190857 1.323745727539062 0.379472762346268 -1.935033559799194 -0.188227832317352 1.543130397796631 -1.565166711807251 0.547319591045380 -0.203941345214844 -1.456307530403137 1.260186195373535 -1.162617444992065 2.341415405273438 -2.105010509490967 0.531854271888733 -0.524059772491455 -0.066433437168598 -1.056994080543518 -0.519997179508209 -0.573397099971771 -0.735375344753265 -1.778526425361633 0.147366225719452 -0.469009965658188 0.328251063823700 0.136504396796227 -0.475416630506516 0.002954208292067 -1.015860795974731 0.470451951026917
-0.447225540876389 -1.103627562522888 -0.164988070726395 0.011126525700092 0.092285715043545 -1.332140564918518 -0.317639231681824 0.474377691745758 -0.398052871227264 0.613958954811096 0.224430650472641 0.351719319820404 1.520649790763855 -2.116677522659302 -1.979570388793945 1.077460169792175 1.306331753730774 -2.090000152587891 1.455564498901367 0.334163069725037 -0.366424977779388 -1.205917596817017 0.179441303014755 -0.137432292103767 0.114963777363300 -0.869150757789612 -0.542417109012604 0.967334747314453 -1.741343259811401 0.978408336639404 -0.226840093731880 1.532766103744507 0.116818107664585 -0.739379227161407 1.282264471054077
0.057858292013407 0.084911428391933 0.617680668830872 0.506111621856689 -0.311919540166855 -0.919779121875763 0.366174221038818 -0.931939959526062 0.192653805017471 -0.633643388748169 0.624201357364655 0.165746942162514 -0.821033239364624 -0.193444207310677 0.255592644214630 0.871123075485229 0.142273232340813 -0.283002734184265 -0.878700613975525 -0.559552788734436 -1.113411545753479 0.320752114057541 -0.623085677623749 -0.556713342666626 -0.803268373012543 1.652276277542114 0.124782323837280 -0.043792691081762 0.248575359582901 0.255487114191055 0.288257986307144 -0.344496369361877 0.505483567714691 -0.743416786193848 -0.141990751028061
-0.913522243499756 0.013084110803902 0.404275625944138 -0.022029949352145 -0.028353676199913 0.153035700321198 -1.932659149169922 1.453643441200256 -0.373154819011688 0.605246722698212 0.710976302623749 -0.646414041519165 -2.312055110931396 0.987331271171570 -0.092198915779591 0.563414871692657 1.751314640045166 -1.237546801567078 0.384321242570877 -0.253311067819595 -0.112314105033875 0.067792460322380 0.787852227687836 -0.286483287811279 0.473724037408829 -0.034516751766205 -0.879520952701569 0.608317077159882 -0.214907258749008 -0.321309685707092 0.015374517999589 0.871130943298340 -0.961123228073120 1.262020707130432 0.324767917394638
-0.887875497341156 1.367662072181702 0.025772945955396 -0.671515047550201 -0.452223986387253 -1.017958760261536 0.046773687005043 0.015048112720251 0.581586718559265 -0.000763906107750 -1.187357425689697 -1.532060742378235 -1.026446223258972 -0.832374930381775 -0.360941171646118 -1.580343365669250 1.455962657928467 -1.435427665710449 -1.534134268760681 0.947628974914551 0.841477930545807 0.681257128715515 -0.806422650814056 1.459550499916077 -1.220415592193604 0.871638894081116 -1.392164111137390 0.308486551046371 0.068801440298557 0.786462962627411 -0.353369414806366 0.218363210558891 0.474377393722534 0.178465053439140 0.358471751213074
-0.283484220504761 -1.644759178161621 1.028896331787109 -0.523744642734528 -1.069604039192200 2.272965669631958 -1.761399269104004 -0.265115231275558 -0.088387370109558 0.176708608865738 -0.020934883505106 1.148040056228638 -1.168579697608948 0.318064868450165 0.062647081911564 -0.893657386302948 -0.000031308129110 -0.471359848976135 -1.271322131156921 0.085904695093632 -1.104196071624756 0.760903000831604 0.884273111820221 0.463061034679413 1.131159186363220 -0.202570319175720 -0.291925936937332 -1.264457106590271 -1.260371088981628 0.552805840969086 -0.592730462551117 -0.095578625798225 0.509142220020294 0.681955993175507 0.165085375308990
1.515306115150452 -0.381260603666306 1.209101080894470 -0.086175598204136 1.716082692146301 -1.504234790802002 1.059065818786621 0.596141040325165 1.497462987899780 -0.011863120831549 0.014922046102583 3.469250917434692 -0.174338102340698 0.038999471813440 -1.058791160583496 -0.748103499412537 -1.533138751983643 0.149921432137489 1.807806134223938 1.071068167686462 1.493516445159912 0.922746419906616 0.432250022888184 -0.873052895069122 -0.883799731731415 -0.420864701271057 0.438826024532318 1.987327933311462 1.361944675445557 -0.316350609064102 0.708900988101959 -0.578376829624176 1.123591899871826 -0.545151531696320 -0.180865719914436
0.315499186515808 -1.138310551643372 -1.706814169883728 0.686458051204681 -0.659127235412598 -1.862548589706421 1.000341415405273 0.496987342834473 0.157099381089211 -0.589997053146362 -0.319047003984451 2.228801250457764 -0.687915742397308 0.012593632563949 -0.080527678132057 1.743479728698730 0.210173234343529 0.671666026115417 -0.331149160861969 -1.715859889984131 2.559444665908813 -0.730191171169281 0.132727324962616 -1.591780662536621 -0.363621383905411 0.674840867519379 0.320289433002472 1.163913011550903 -0.175946071743965 0.343547970056534 1.367811203002930 0.144705951213837 0.193631589412689 0.019840372726321 -0.636868894100189
-0.015786310657859 0.690904498100281 -1.014289498329163 -1.404130458831787 -1.385469436645508 0.821627259254456 0.765283644199371 0.806923508644104 -0.216638758778572 -0.628878414630890 0.391433626413345 0.162413179874420 1.622003316879272 0.213052555918694 -0.017261028289795 0.037080001085997 0.106511361896992 -0.764139056205750 -0.170658454298973 0.361925482749939 0.292067527770996 1.367590069770813 -0.250701844692230 -0.207684114575386 -0.259803235530853 0.429049998521805 -1.381861686706543 0.730701088905334 1.446669340133667 -0.350819796323776 -0.119181215763092 1.289059400558472 -0.765079557895660 0.047307014465332 -0.278382599353790
-0.542604267597198 1.249360084533691 0.939781606197357 0.828757226467133 0.868702948093414 -0.543209671974182 0.691011607646942 -0.224715381860733 -0.549953103065491 -1.302578330039978 0.285860508680344 -0.619628548622131 0.414734363555908 -1.133593678474426 -0.099345944821835 -0.204850405454636 0.288476049900055 -0.099868789315224 -0.463840037584305 -0.655528724193573 0.297821670770645 -0.990207791328430 0.095811761915684 0.120595693588257 0.307372152805328 0.178027033805847 -1.336627483367920 -1.245448827743530 -0.063977710902691 1.885831713676453 -0.055176410824060 0.724161982536316 1.081543087959290 -0.282379359006882 -0.377226561307907
1.157422542572021 -0.178811177611351 -1.768910646438599 1.325926423072815 -0.313069015741348 -0.753123700618744 -0.743665575981140 -0.994748950004578 1.267647027969360 -0.914567112922668 0.995227098464966 0.435623049736023 -0.163883119821548 -0.003262554295361 1.319480895996094 1.364963531494141 1.114761471748352 -0.654407382011414 -0.675205886363983 0.768998384475708 -0.451806038618088 -0.870231986045837 -0.421930044889450 -1.029587268829346 -0.394916266202927 0.956702113151550 -1.415246009826660 0.303834706544876 -1.566875219345093 1.297743320465088 0.456619024276733 -0.609935462474823 1.823524832725525 -0.661328971385956 -0.490305721759796
0.779984831809998 0.118472881615162 -0.683223247528076 -0.230737164616585 1.035256862640381 0.010885085910559 1.132119774818420 -0.771608889102936 -0.359966546297073 1.288110613822937 -1.108423829078674 -0.054893113672733 -0.946606457233429 0.670103132724762 -0.826587975025177 -0.529742419719696 -1.757482528686523 1.139661550521851 0.993732333183289 0.353536963462830 0.775471687316895 0.325875401496887 0.628278613090515 -0.387107223272324 -1.367892384529114 -0.549052000045776 0.921878695487976 -2.441930055618286 -2.225831985473633 -1.682735204696655 0.489485621452332 -0.778638005256653 -2.553590536117554 0.463342010974884 0.685974717140198
-1.100766897201538 0.516445755958557 0.772344172000885 -1.406408309936523 -1.168581128120422 0.809178709983826 -0.617490112781525 0.031146084889770 -1.157747745513916 -1.243494868278503 1.101947307586670 -0.988327860832214 -0.169895336031914 -0.458575427532196 0.922286748886108 0.206697165966034 -1.806115388870239 -0.090464085340500 0.934146165847778 -0.265546441078186 0.917469263076782 1.056245803833008 0.072599060833454 -0.181369870901108 1.723871707916260 -1.592319607734680 -2.119489431381226 1.570137023925781 0.356589734554291 -1.098570466041565 -0.788675665855408 -2.224186897277832 -1.280775070190430 -0.470841467380524 0.019185900688171
-0.123530082404613 -0.229113057255745 -0.968496620655060 3.005021810531616 -1.122810840606689 -0.946891248226166 0.421481907367706 0.038804817944765 -0.195013806223869 0.579274415969849 2.164470195770264 0.724093139171600 -0.135699540376663 0.815215706825256 0.256101071834564 0.986689567565918 -0.851117491722107 0.351584047079086 0.822399616241455 0.367987811565399 -0.867864668369293 0.921443641185760 0.047721724957228 -0.016115436330438 -0.455070376396179 1.340922951698303 0.255092829465866 0.511043906211853 -0.273234993219376 0.583281993865967 1.815196275711060 0.563535571098328 -1.080831050872803 1.059069275856018 -0.932614684104919
-1.427677273750305 0.289255976676941 0.218801826238632 1.170248270034790 -0.361994385719299 -0.678966701030731 -0.187605738639832 1.351465821266174 2.561514139175415 1.993523240089417 1.257102370262146 0.357596218585968 0.349659234285355 0.408909231424332 -0.396276026964188 0.486762881278992 -0.230162054300308 -1.466583847999573 -0.857380986213684 -1.076719045639038 -0.647073686122894 -0.147685393691063 -0.536687076091766 0.622203290462494 -0.528012156486511 1.110222935676575 0.893860220909119 0.135241404175758 0.936057209968567 1.634986519813538 -0.080231025815010 0.692566096782684 1.057587265968323 0.206328302621841 0.879971802234650
-0.560304343700409 0.561216533184052 0.321719050407410 -1.993814945220947 1.197669506072998 -0.971620500087738 -0.078080773353577 -0.825061500072479 0.761592626571655 -0.681263566017151 0.007082449737936 -0.441020965576172 -0.060412380844355 0.910074055194855 2.265009403228760 0.273350715637207 0.318551063537598 0.052588216960430 0.180879727005959 -1.022011280059814 -1.010555505752563 -1.101089835166931 -0.861340522766113 -0.263967603445053 -1.974829912185669 0.502912461757660 -0.496193021535873 0.077295176684856 0.104815609753132 0.880458116531372 0.233316704630852 -0.088247723877430 2.147546529769897 1.252153635025024 -0.326278626918793
-0.540970385074615 -1.739001989364624 0.303236216306686 1.512811064720154 2.232859373092651 -2.186383008956909 1.103831768035889 2.540541410446167 -0.910259366035461 -0.785188198089600 0.371389538049698 0.522932648658752 -0.186699330806732 1.666451096534729 0.804385960102081 -0.456518441438675 0.363104134798050 0.433924734592438 -0.209207803010941 -0.858829379081726 0.888191938400269 1.405410766601562 -0.056932028383017 1.429365158081055 -0.350681096315384 0.847565293312073 -0.104550942778587 0.666907429695129 0.749961733818054 2.202049016952515 -1.696386098861694 0.812470018863678 0.267217010259628 0.526974797248840 2.127989292144775
0.450166761875153 0.323914259672165 1.242865681648254 0.206122234463692 -0.939564704895020 1.111597299575806 -0.957479059696198 -1.258299946784973 -1.208691835403442 -1.448277950286865 -0.128073126077652 -0.475011378526688 0.245527490973473 1.171314597129822 -0.882822036743164 0.025874081999063 -0.312465071678162 -0.849685609340668 -0.366210162639618 1.133965015411377 -1.907123088836670 -0.261171251535416 1.195959329605103 -0.809396266937256 1.019206523895264 0.752836704254150 -1.682008504867554 -0.542731046676636 -1.083543062210083 -0.512124121189117 0.597089469432831 -0.474097728729248 0.069411329925060 0.142887830734253 1.684884548187256
0.633339881896973 -0.694478988647461 -0.440824270248413 0.180779784917831 0.819434225559235 0.436739653348923 1.075352191925049 -0.296597510576248 -0.699191629886627 -0.147064343094826 0.343984425067902 0.061252892017365 0.554101228713989 -1.509348273277283 0.250513285398483 0.962571918964386 -1.023117423057556 0.201788321137428 0.323116391897202 -2.217745542526245 0.905578136444092 -0.478428393602371 -0.760054886341095 1.758614897727966 -0.051447398960590 -0.694108009338379 -2.377199888229370 1.504952669143677 -0.730048358440399 0.931400001049042 0.405123561620712 -0.330744892358780 0.837812125682831 -0.331586569547653 -0.820486366748810
-0.675623714923859 -0.303103774785995 -1.007405996322632 1.280159711837769 -1.302874803543091 0.406168758869171 -0.388062268495560 0.129944011569023 -0.849633455276489 -0.789954602718353 1.117946743965149 -0.239674687385559 -1.470438957214355 -0.167765960097313 1.021798133850098 0.046119481325150 -0.542078971862793 0.587257981300354 -2.178543567657471 0.647508800029755 0.040363725274801 0.686411917209625 0.355036526918411 0.491099774837494 -0.393068760633469 0.094044744968414 -1.279729843139648 -1.038542389869690 -0.910449862480164 0.280424088239670 0.969040870666504 -1.073835372924805 -2.191589593887329 -1.386716485023499 0.889983654022217
0.874361813068390 0.375923544168472 -0.662201762199402 -0.073821209371090 0.866191148757935 0.436681240797043 0.222811609506607 0.113230191171169 0.101813249289989 -0.934158504009247 1.729115366935730 -1.162969112396240 1.170900106430054 -1.881034374237061 -0.626519203186035 -0.106450714170933 -1.562663316726685 1.142805099487305 -0.238447666168213 -0.525370240211487 0.054683070629835 -0.739676356315613 -0.991596102714539 0.204240754246712 -1.293339610099792 -0.239125221967697 -1.710703253746033 -0.013147414661944 -1.173223614692688 -1.773756265640259 -0.288936793804169 0.808985769748688 -1.560343384742737 -0.067055761814117 0.405619084835052
-1.728677034378052 0.044802013784647 -0.377672553062439 0.775361716747284 -0.814503073692322 -0.226629555225372 0.098446086049080 0.131800800561905 -0.426222532987595 1.803144216537476 0.285473465919495 -1.888222217559814 -0.582768321037292 1.275199174880981 1.481673836708069 -0.131686791777611 1.501407265663147 0.706610023975372 0.249830126762390 1.017371892929077 -0.346300393342972 -0.645302057266235 1.561736106872559 -1.876554727554321 -0.001606726204045 -1.725769162178040 -0.116678848862648 -0.089499406516552 -0.482687205076218 -0.272849589586258 -1.991837024688721 -1.202894806861877 0.556941032409668 0.528837144374847 -1.240468859672546
0.605350196361542 -0.271936148405075 -1.540384173393250 0.851333379745483 -0.587437987327576 0.939366638660431 0.227179825305939 0.523078560829163 0.868848562240601 0.251655757427216 0.881208121776581 0.790600299835205 -0.575660049915314 0.460556507110596 1.098979711532593 1.573736786842346 -1.281651258468628 -0.855383157730103 -0.331856340169907 0.221741542220116 -1.738782405853271 -0.716884016990662 -1.029610276222229 -0.138495907187462 1.999592900276184 0.210837379097939 -0.194305941462517 0.343529731035233 0.000453390093753 0.736755788326263 1.356223464012146 0.447513937950134 -0.224175319075584 1.471533417701721 2.028850078582764
0.353068858385086 -1.850178599357605 -1.310167908668518 0.042378120124340 1.932604908943176 0.025207607075572 -1.409193158149719 -0.543386995792389 -0.504854202270508 2.113897562026978 -0.252739012241364 1.282601952552795 -0.285942465066910 0.140182331204414 0.584465503692627 1.410949945449829 1.219576835632324 -0.512127041816711 -0.387065142393112 -0.806375205516815 0.580661833286285 2.176964998245239 -0.672908067703247 -1.537901520729065 -0.141117125749588 1.047538399696350 -0.407028049230576 -0.644495308399200 -0.967579722404480 -0.867098867893219 -0.251040577888489 0.318774580955505 1.017950773239136 0.190495491027832 0.092695668339729
0.834789097309113 -1.897707700729370 0.180046856403351 0.434142291545868 -1.654634118080139 0.505570709705353 0.086162462830544 -0.199552893638611 0.258933305740356 -1.719557166099548 0.049276262521744 0.951608180999756 -0.823123693466187 1.252262473106384 0.592112183570862 0.561725854873657 0.647265017032623 0.455602973699570 -0.022012630477548 0.709596574306488 -0.482962846755981 0.089098155498505 0.523503720760345 0.396141320466995 -0.160574451088905 -0.605338096618652 1.172711014747620 -1.880311131477356 -0.252438127994537 -0.292072057723999 -1.737008690834045 2.008314847946167 0.274407386779785 1.018665313720703 0.087963461875916
-2.567082166671753 1.094371438026428 -1.173776268959045 -0.111750297248363 -0.363657474517822 0.672861099243164 0.460367977619171 -0.254074454307556 -2.204855918884277 0.600760102272034 1.457194566726685 0.675563097000122 -0.205084368586540 2.066602706909180 -0.240490868687630 0.654269933700562 0.569827735424042 -2.606069564819336 0.386886775493622 0.411844164133072 1.183772563934326 -0.545000851154327 0.026396092027426 0.308102786540985 -1.312013626098633 -1.437633633613586 -1.150506258010864 0.477356910705566 -0.127636089920998 0.100726991891861 1.344864726066589 0.731715500354767 0.013995210640132 -1.002769231796265 0.684559941291809
-2.819930553436279 0.428627997636795 1.235641479492188 -0.091086044907570 0.641231715679169 0.187743499875069 1.554968118667603 -1.431860566139221 -0.500270187854767 -1.133705854415894 0.316645383834839 -0.236812576651573 -0.710959494113922 1.231406331062317 -0.100680701434612 1.310672402381897 -1.704060316085815 -0.052747637033463 -0.093119978904724 -0.609254419803619 -0.775276422500610 0.293992370367050 1.594656944274902 0.575397014617920 0.307914286851883 -0.760659277439117 -0.170599743723869 -1.303588867187500 -0.347997039556503 -0.023262737318873 1.479601025581360 -1.101843476295471 -0.722758054733276 0.306431204080582 0.420862317085266
-0.831141769886017 -0.038551803678274 0.763438642024994 1.261350631713867 -1.304561614990234 -0.422269910573959 -0.813045024871826 -0.743245661258698 -0.361674875020981 -0.432993739843369 -0.367552042007446 -1.289286732673645 -0.913877904415131 -1.526144027709961 -0.518063068389893 -0.032628562301397 0.023855902254581 -1.095903158187866 -0.122375503182411 -0.121613994240761 -1.864089250564575 1.508661746978760 -0.288878172636032 0.450088262557983 1.077582716941833 1.915544748306274 0.013611498288810 0.777738571166992 -1.368175148963928 -0.755379080772400 0.421399474143982 -0.082186788320541 -0.727415084838867 -0.197896793484688 1.264507770538330
0.045781612396240 -0.030213827267289 -0.543816506862640 -2.150408267974854 -0.157217353582382 0.595287322998047 1.037496924400330 -1.839060902595520 1.167937040328979 0.852423131465912 -0.409931689500809 0.305412083864212 -0.722585141658783 0.724808633327484 0.827915966510773 0.375163793563843 -0.196786463260651 -2.383385658264160 0.925563275814056 0.299185007810593 1.720379710197449 1.124078154563904 1.629624247550964 0.480236619710922 0.186257749795914 1.765845775604248 1.062197566032410 0.108958192169666 2.635866641998291 -0.606451869010925 0.588914573192596 2.543899536132812 -1.444272518157959 -1.828849673271179 -2.617447376251221
0.760260403156281 -0.936276316642761 -1.899686336517334 0.065830416977406 0.946423113346100 0.631726861000061 -1.069603204727173 -0.081579521298409 -0.444539099931717 -0.162193059921265 1.135830044746399 -0.692651271820068 -2.720404148101807 -0.279087752103806 1.105242609977722 -0.488842189311981 -1.048733949661255 -0.682506561279297 -0.194630786776543 -0.776706039905548 -1.172335147857666 -0.481337159872055 0.319088220596313 1.471704721450806 -0.462340623140335 0.228844568133354 -0.325581401586533 0.042726252228022 1.297212600708008 -1.523857235908508 0.016594257205725 -0.159281685948372 -0.871113240718842 0.415907114744186 -2.024408817291260
0.667171955108643 1.027407526969910 -0.326605349779129 -0.031526971608400 -0.474144935607910 -0.457397758960724 -1.381712794303894 0.647436261177063 -0.435692608356476 0.033737216144800 -0.406885385513306 -0.646543741226196 -0.560509085655212 2.408737897872925 -2.105118751525879 0.650305688381195 0.133612349629402 -0.127294287085533 0.427422434091568 -0.420537471771240 -0.793573439121246 0.003379676491022 0.667444169521332 -0.281613707542419 -0.410597324371338 1.841936826705933 -1.938223481178284 -0.611615598201752 -0.176207527518272 -0.781716585159302 0.412936747074127 0.559293389320374 -0.340496748685837 -0.672156035900116 0.803965747356415
-0.168561652302742 -0.614581763744354 -3.064538002014160 -0.607470989227295 0.063476957380772 -0.562617838382721 2.363201856613159 -0.435450911521912 0.928850293159485 0.959345400333405 1.048182368278503 -0.624310374259949 -0.431069582700729 0.379550367593765 -2.384648799896240 0.704789638519287 -0.921100854873657 -0.893370389938354 0.005749417934567 -0.152051091194153 0.506891071796417 -1.085357666015625 0.161690071225166 -0.383319854736328 -1.619814753532410 1.169091582298279 -0.202220126986504 0.957869231700897 -0.242034703493118 -1.130734443664551 0.455661594867706 -0.698712170124054 -0.647566556930542 0.823023378849030 -1.517555117607117
-0.042941242456436 1.665024042129517 -0.545153915882111 -0.164368405938148 0.612956464290619 1.513877630233765 0.387448340654373 -0.196137115359306 0.670044004917145 0.411997854709625 0.434149861335754 -0.118325449526310 0.713486194610596 -0.607505798339844 -0.130799591541290 0.123065792024136 0.825406134128571 -1.139059424400330 -1.626300215721130 0.893722832202911 -0.217234760522842 -0.518900632858276 -0.591248333454132 -1.245816111564636 -0.879567384719849 -1.855633616447449 0.792156994342804 0.112955719232559 -0.263473629951477 -0.074917227029800 -0.404384016990662 0.313490808010101 1.585830211639404 -0.790871500968933 2.014142274856567
-1.431255817413330 -0.714057505130768 1.931250095367432 -0.270650744438171 -0.109216786921024 0.694597244262695 0.744696736335754 -0.501008808612823 0.594725251197815 -0.294823378324509 -1.970792174339294 1.982259869575500 0.689788699150085 -1.024736285209656 0.137480780482292 0.342840731143951 0.410013198852539 0.016362732276320 1.206577777862549 0.501588463783264 1.971394777297974 0.276559621095657 -0.686609566211700 -0.657165646553040 0.366342812776566 0.149580255150795 0.859877765178680 0.783486127853394 0.408767879009247 -0.143333867192268 0.473451018333435 0.231534764170647 -0.496273458003998 -0.411112010478973 0.470307350158691
0.005899871233851 -1.248099088668823 0.817482888698578 0.438626617193222 1.157356977462769 -0.940419495105743 -0.332573145627975 0.859328269958496 -1.378381729125977 -0.550457000732422 -0.498436152935028 0.262787371873856 -0.627017140388489 -0.892177760601044 0.418171107769012 -0.570052206516266 0.401283532381058 0.161895781755447 -0.842649221420288 -1.533424139022827 -1.232359647750854 1.297203779220581 -1.093930840492249 -0.002351399278268 -1.106047391891479 -0.856538355350494 0.315282762050629 -0.063225485384464 -1.122314691543579 -0.027362406253815 -1.282076358795166 1.181136488914490 -0.991244614124298 -0.759668231010437 0.285040020942688
-1.205918788909912 -0.523442745208740 0.785773694515228 0.044379990547895 -0.298217028379440 0.812556087970734 0.361047178506851 0.010527830570936 -1.630523562431335 0.319655895233154 1.219865322113037 1.212793707847595 -0.153063014149666 -2.181173086166382 2.472735404968262 0.151183009147644 0.416523754596710 -1.707084059715271 0.577880978584290 -0.154734075069427 -0.485386073589325 1.037783503532410 -0.498950958251953 1.583890914916992 -1.327971577644348 0.364775896072388 -0.434916555881500 -2.396200418472290 1.701691985130310 1.269120693206787 -0.404664456844330 1.416284322738647 -0.880804121494293 -1.254847884178162 -0.312007546424866
0.236489489674568 -0.459050983190536 -0.790629863739014 -0.069610357284546 -1.199157238006592 0.479348242282867 1.903744459152222 0.511316895484924 0.033454719930887 -1.196901917457581 0.492776811122894 2.469501256942749 -1.806151866912842 -0.134050548076630 -0.086306288838387 -0.158533781766891 0.828281462192535 0.962239146232605 1.056478738784790 -0.992128312587738 0.553566336631775 -0.350180596113205 0.546905517578125 0.161430716514587 0.434813708066940 -0.213752835988998 -0.042291820049286 0.437422364950180 1.012220740318298 -0.410324156284332 0.134505510330200 -0.999670028686523 1.928795099258423 0.632186770439148 1.180554151535034
0.754040181636810 -1.871324062347412 -0.229277983307838 -0.425607413053513 0.503377318382263 1.080281496047974 1.360598206520081 -0.635052919387817 -1.096767544746399 0.261573761701584 -1.573601484298706 1.960722446441650 1.404307961463928 -0.947341442108154 1.055168271064758 -0.061379790306091 0.585387706756592 1.057254433631897 -0.748550832271576 -0.557114541530609 -1.522609233856201 0.182147979736328 0.013418501242995 1.485392689704895 1.114439845085144 -1.510177612304688 -0.380444228649139 -1.905690908432007 0.568717956542969 -0.144493564963341 -0.007251792587340 1.390510678291321 -0.114267304539680 1.197226285934448 -0.975925624370575
0.308949619531631 -0.958333134651184 -1.905575871467590 0.156793072819710 -0.379193007946014 0.092514589428902 -0.100813701748848 -0.119326256215572 0.989576339721680 0.795277595520020 -0.323941290378571 -0.478285223245621 -1.527027964591980 1.488178014755249 -0.055761903524399 1.366671919822693 -0.752351522445679 0.120089888572693 -0.398065537214279 -0.834283709526062 -0.693850934505463 0.033321198076010 -0.659758746623993 -0.979814052581787 1.340132832527161 1.821670532226562 2.441251516342163 0.488998264074326 -0.516606509685516 0.736591219902039 1.007211565971375 0.218742966651917 -1.961472392082214 -2.223145484924316 0.052516359835863
-0.312585055828094 0.527647733688354 -1.016162753105164 0.551673591136932 -1.486242175102234 1.381958484649658 -0.220446288585663 0.707691669464111 1.201745986938477 -0.880456030368805 0.162348568439484 -0.470139831304550 -0.163998678326607 0.172507137060165 -0.296671867370605 0.223509043455124 1.199415445327759 2.836495161056519 -1.104968667030334 -0.142595022916794 1.609603166580200 0.750002264976501 1.313034892082214 0.196012526750565 0.512623310089111 0.457520574331284 0.371765017509460 1.366705536842346 0.098973430693150 0.080291561782360 -1.369746804237366 1.272502422332764 -0.185132607817650 0.766010820865631 0.988756239414215
-0.332167237997055 0.198172137141228 0.342724442481995 -0.246698901057243 0.797887146472931 -1.196851015090942 1.686815500259399 0.724931716918945 -0.371334820985794 -0.545265913009644 -1.991516709327698 -0.273549437522888 -0.196544349193573 0.016047256067395 0.907536327838898 -0.150336965918541 -0.597474157810211 0.060216475278139 0.560189723968506 0.372368246316910 -0.893666625022888 0.268929541110992 0.435566425323486 1.736657023429871 0.844675600528717 -0.933901906013489 -0.729749262332916 -0.322896480560303 -1.699561595916748 -0.619494378566742 0.682688832283020 -2.034058094024658 -0.415833055973053 -1.278032779693604 -0.421733409166336
-1.390688896179199 -1.204900741577148 -0.181732386350632 1.020448327064514 -0.619615972042084 0.075202271342278 0.836114883422852 1.163989901542664 1.088196396827698 -0.556750476360321 -0.154729560017586 0.282050102949142 0.591519594192505 -1.537334203720093 0.001640259521082 -0.112617552280426 0.339328974485397 -0.376823663711548 0.974046111106873 -0.229319438338280 0.422390937805176 1.074736833572388 -1.466828465461731 1.714605689048767 -0.379816204309464 -0.211943536996841 2.218744754791260 -0.201769217848778 -0.467862427234650 0.647414684295654 -0.693655014038086 0.017513578757644 -0.851604282855988 -1.277089118957520 0.058060117065907
0.240992471575737 2.153831720352173 0.562015354633331 1.589407682418823 0.683846831321716 -1.024151921272278 1.152997612953186 0.372624397277832 0.979513525962830 -1.027467131614685 -0.390637069940567 2.105637550354004 0.169017389416695 -0.524725496768951 -0.455991536378860 1.457804799079895 1.844760417938232 -0.486228048801422 -0.478277564048767 -0.669580817222595 0.694944918155670 -1.349940061569214 1.133089780807495 -2.622904539108276 -0.108340770006180 -1.194312334060669 2.986923456192017 -2.707715034484863 2.590287685394287 -0.094311788678169 -0.501593887805939 0.131480365991592 0.383755773305893 0.196009650826454 0.462686628103256
0.007741615641862 1.470301151275635 0.235567748546600 0.932441115379333 0.716581463813782 1.175684928894043 -0.393424212932587 1.032091021537781 1.248669862747192 -1.988604187965393 0.995979905128479 0.372948884963989 -1.986702680587769 0.124658033251762 -0.474132388830185 -0.463913023471832 2.261692285537720 -0.207300767302513 0.533994436264038 0.241962313652039 2.164963245391846 0.651005685329437 -0.488632977008820 0.510488212108612 0.758593618869781 1.162881731987000 1.255499362945557 -1.759049892425537 -1.095995187759399 0.243339240550995 -0.919360935688019 0.097936436533928 0.411319583654404 -0.065709315240383 0.278525114059448
0.034749429672956 1.284108519554138 -0.427118003368378 -0.473649233579636 -0.262051373720169 -0.379677921533585 -0.012049538083375 1.270786643028259 -1.257585167884827 -0.026168381795287 1.254629254341125 -2.002659797668457 -0.627834081649780 -0.040377192199230 0.217387914657593 -1.442290663719177 -0.329903870820999 0.252496629953384 0.584516048431396 1.132387399673462 -0.183135062456131 0.544788539409637 0.136461615562439 -0.884199023246765 1.386005997657776 0.598193824291229 0.284445405006409 -0.417999237775803 1.345343351364136 0.897693991661072 0.070385888218880 1.045786976814270 -1.217053890228271 -0.229404345154762 -2.249234676361084
-0.652888596057892 -0.452424019575119 1.041818618774414 -0.698669314384460 1.104561209678650 0.537475228309631 0.246923863887787 1.322869300842285 1.325893163681030 0.555170297622681 1.321074247360229 -0.674086987972260 0.320103585720062 -1.066511750221252 -0.879315972328186 -0.470706105232239 0.038571007549763 0.801416933536530 0.591253042221069 1.941426157951355 -0.274635046720505 -0.064877204596996 0.847996413707733 1.055360794067383 -0.107140637934208 -1.623801350593567 1.742054343223572 0.418758660554886 1.396915316581726 1.696998119354248 -0.355504661798477 0.642269194126129 0.255177140235901 0.453947126865387 -0.079799525439739
0.215946853160858 -1.193749666213989 2.282536268234253 0.848709404468536 -1.357874631881714 0.965495705604553 0.711054921150208 0.188297122716904 1.103852033615112 -1.484855771064758 0.641715228557587 0.002909762086347 -0.023140231147408 0.676570951938629 -1.553792238235474 0.705262601375580 0.526175737380981 -0.539413511753082 -0.822669029235840 -2.363884449005127 1.185024499893188 -0.568683564662933 0.573187291622162 -0.036413628607988 1.080006957054138 0.248519942164421 -0.182569608092308 0.709847331047058 1.033360242843628 0.370916783809662 0.038234669715166 -1.051940441131592 -0.750780403614044 1.214152574539185 -0.452225238084793
-0.927834272384644 -0.080953031778336 -2.623725652694702 0.351379871368408 0.338064014911652 0.478339642286301 0.992941856384277 1.570644497871399 0.583997666835785 -2.669990062713623 0.832040071487427 -2.424844741821289 -0.934535920619965 -1.018065214157104 0.237927630543709 -2.204606771469116 0.333204060792923 -0.138881787657738 -0.050323680043221 -1.105747699737549 -0.143289536237717 0.897492825984955 -0.564418256282806 0.742862880229950 0.350914090871811 1.426951289176941 1.915519118309021 -0.151496425271034 1.229696869850159 2.273223638534546 0.371987104415894 0.189560100436211 0.307270199060440 0.752662658691406 -0.772120058536530
1.235196352005005 -2.505595922470093 -0.512176215648651 -1.613877773284912 -1.250802874565125 0.774950444698334 0.146378204226494 -0.564613819122314 1.147007465362549 -1.034663200378418 0.438896328210831 0.397620052099228 0.167771428823471 -1.654342532157898 0.119888193905354 1.329640030860901 -1.383774995803833 -0.911075532436371 -1.292665362358093 1.872055292129517 -1.163618326187134 0.415621221065521 1.102125167846680 1.286326885223389 -0.049760699272156 -0.868418872356415 0.523973882198334 -0.508946537971497 0.110695831477642 0.772532343864441 -0.391929119825363 -0.356523334980011 -1.149251222610474 1.813452959060669 0.976434290409088
0.371970206499100 -0.707466721534729 0.181692510843277 -0.545038998126984 0.310236454010010 0.375256896018982 1.843165278434753 -1.481939792633057 -0.920926451683044 0.919542610645294 -0.416625827550888 0.324245184659958 -0.763847053050995 -0.181808575987816 0.799089908599854 1.542369604110718 -1.179074287414551 0.168961048126221 0.760954678058624 -0.563644766807556 0.263959914445877 0.177152469754219 -0.022742243483663 1.047373294830322 2.059560775756836 -1.104527831077576 1.079818010330200 -2.199081659317017 0.274104833602905 1.186856269836426 1.832829236984253 0.490554481744766 1.979574680328369 -0.495576262474060 -1.117503881454468
0.077925078570843 0.451279103755951 -2.394332885742188 -1.042783975601196 1.045590400695801 1.011848807334900 0.176873624324799 0.569826662540436 0.384850740432739 -2.242784500122070 -0.201413333415985 -0.525241076946259 2.091022014617920 -0.199214130640030 -1.362536430358887 -0.139508053660393 1.283121705055237 -0.710387527942657 -0.993314266204834 -0.297967672348022 0.232382923364639 -0.720266759395599 -0.007734883576632 -1.028362393379211 0.215745031833649 -0.026685332879424 2.579342365264893 -0.568309903144836 -0.141453668475151 -1.280434608459473 0.772871613502502 -0.684289634227753 1.365702509880066 -1.087898373603821 -0.990928113460541
0.530891954898834 -0.493811935186386 -1.157500028610229 0.323183685541153 0.694773912429810 0.512282550334930 0.243491262197495 0.015347203239799 -2.424540996551514 0.351121395826340 1.107272386550903 0.696234703063965 -0.516267776489258 0.287534981966019 0.813234031200409 -1.128767251968384 2.258687019348145 0.047917008399963 -0.267056316137314 -1.222948431968689 -0.079188488423824 0.291701912879944 1.609516859054565 0.126647993922234 -1.513389706611633 -1.606404900550842 0.243044704198837 2.074134111404419 -0.749135076999664 -0.139166519045830 0.865500390529633 0.760912299156189 1.377527236938477 0.338454246520996 -0.436876565217972
-3.626866579055786 -0.045867197215557 0.223135873675346 0.925786197185516 0.039860147982836 -1.550804138183594 0.145751088857651 1.782428503036499 0.199969351291656 1.261763453483582 1.262620806694031 0.561366140842438 1.847647905349731 0.379221260547638 0.322409451007843 0.307863235473633 -1.493998050689697 -0.969351053237915 2.243766784667969 1.040041089057922 -0.499427556991577 1.218822360038757 -1.338063955307007 -0.847667872905731 -1.196651577949524 1.670025944709778 -0.939460039138794 0.209593087434769 -1.006682634353638 -0.684222579002380 0.061416596174240 -0.035740669816732 0.313041985034943 1.373740315437317 -1.540223121643066
0.465057164430618 1.370600342750549 -0.641496241092682 0.240770727396011 -0.270458638668060 -2.215888261795044 0.800397276878357 -0.187075048685074 -0.037330064922571 1.473674058914185 -1.256304383277893 -1.038863897323608 1.305600285530090 -0.737741887569427 -0.917716860771179 0.227921947836876 -0.841455578804016 0.608172535896301 -0.086763851344585 -1.640015125274658 0.469740241765976 0.553060293197632 -1.012018203735352 -0.270890712738037 -0.002042027655989 0.660317063331604 -0.833621442317963 -1.649301290512085 -0.732499301433563 -0.407459199428558 -0.878439247608185 0.738652527332306 -0.415412068367004 0.158991292119026 0.439684212207794
-0.770852625370026 -1.139424443244934 0.910450935363770 0.725157320499420 -1.227458119392395 -1.294830441474915 -0.412787497043610 -0.146337047219276 0.098702907562256 -0.573394238948822 -0.502929449081421 -0.335211217403412 0.279163897037506 0.454161405563354 0.259431064128876 -0.924711883068085 1.165142416954041 -0.688974082469940 0.673065483570099 -0.109996132552624 0.397647678852081 0.017636204138398 -0.800153672695160 -0.983670711517334 0.446748733520508 -0.983217835426331 0.816053450107574 0.618324875831604 0.590359807014465 -0.782772779464722 0.540238976478577 -0.146055370569229 1.746778726577759 0.455081582069397 1.390494823455811
-0.796797513961792 1.333759307861328 -1.562681198120117 -2.352715253829956 1.546870946884155 -1.531832456588745 1.268008708953857 1.302988767623901 -0.772979974746704 0.442189007997513 -1.861466526985168 0.660069704055786 1.147439837455750 -0.498743772506714 0.004477251321077 -0.064305424690247 -0.332721382379532 0.109050534665585 3.144634723663330 0.458057016134262 -1.601653695106506 -0.144674375653267 0.558568477630615 1.144139409065247 -1.219824910163879 0.897001683712006 0.497942268848419 -1.279875636100769 0.068077757954597 0.830782413482666 0.141234949231148 1.053821325302124 -3.058315515518188 0.807158052921295 -0.366143077611923
0.047025341540575 -0.864814460277557 -1.597247362136841 1.904218673706055 -0.926110804080963 0.831116795539856 0.816471159458160 -0.628608703613281 0.530622780323029 1.018201947212219 -0.158969312906265 1.463216185569763 -0.102216675877571 1.075464129447937 -0.486455798149109 -1.504487037658691 0.156687766313553 0.255077838897705 0.130995512008667 -1.671107053756714 1.079024195671082 -0.731275677680969 0.102866560220718 0.291195541620255 -0.189607799053192 0.998348176479340 -0.151144057512283 0.653551578521729 -0.231009528040886 -1.538225054740906 0.767059326171875 -0.780794382095337 0.250816226005554 0.586440384387970 -0.531073808670044
0.041793428361416 0.161972746253014 1.186803579330444 0.163079664111137 1.863874316215515 0.206569775938988 0.682908415794373 -0.075977034866810 1.060886025428772 0.165786102414131 -1.267194867134094 -0.129829734563828 -1.216813683509827 0.373505830764771 0.673400163650513 0.168888762593269 -0.396795779466629 -0.314499408006668 -1.621660232543945 0.006946313194931 -0.405380100011826 0.654999852180481 0.377276718616486 0.307925671339035 0.685347139835358 -0.548097133636475 1.182548880577087 -0.031886521726847 0.871513962745667 0.774135589599609 1.014144539833069 -0.384021759033203 0.064140520989895 0.811739027500153 0.243706136941910
0.359333753585815 -0.092596299946308 1.896528482437134 0.735244989395142 0.108235724270344 0.390773981809616 0.249768882989883 -1.597989916801453 0.618553221225739 -1.849082946777344 1.453043460845947 -0.940789639949799 -1.969094634056091 0.023619582876563 -0.224465474486351 -1.674097299575806 -0.455917865037918 -0.740950703620911 -0.451126515865326 -0.603273868560791 -0.093022078275681 -2.609922170639038 -0.170518592000008 2.370703935623169 0.216304734349251 0.661323487758636 0.597666263580322 0.115279078483582 0.549008548259735 -1.031795501708984 0.796032965183258 1.874191761016846 0.558689832687378 -1.613409876823425 -0.949530541896820
1.196975469589233 0.520516872406006 -1.159554481506348 0.236098915338516 1.910022974014282 -0.475226193666458 -0.417321950197220 -0.239716917276382 -1.837208151817322 0.712531030178070 1.252153754234314 -0.323027372360229 0.240878060460091 0.762862384319305 -0.923121392726898 -0.140801981091499 -0.543433606624603 -3.018729209899902 -0.126521050930023 1.173550844192505 3.090900421142578 1.873088836669922 -0.508978188037872 -1.090235829353333 -2.381434679031372 -0.883122205734253 -0.917902827262878 -1.354369997978210 0.419717550277710 0.573886513710022 0.696026921272278 -0.312132298946381 0.592039048671722 -0.837830305099487 -0.481891065835953
-0.801989495754242 -0.162997737526894 0.624345660209656 1.407479524612427 0.136493548750877 -0.646064937114716 0.320698171854019 0.470829039812088 0.721293628215790 -0.583992481231689 0.209912657737732 -0.983951747417450 2.501165866851807 2.051031112670898 -0.896975696086884 -1.178523778915405 0.172439381480217 0.176052302122116 -2.236140727996826 0.187430232763290 1.908363461494446 1.393451452255249 -1.726455330848694 0.444233685731888 -0.581719517707825 0.886884987354279 0.231995120644569 -1.390387654304504 -2.225506067276001 0.592819333076477 -0.715353071689606 -0.779500782489777 -0.798454046249390 0.798405706882477 0.449320822954178
